{"learner":{"attributes":{"best_iteration":"592","best_score":"0.00934223504022189","scikit_learn":"{\"_estimator_type\": \"regressor\"}"},"feature_names":[],"feature_types":[],"gradient_booster":{"model":{"cats":{"enc":[],"feature_segments":[],"sorted_idx":[]},"gbtree_model_param":{"num_parallel_tree":"1","num_trees":"603"},"iteration_indptr":[0,1,2,3,4,5,6,7,8,9,10,11,12,13,14,15,16,17,18,19,20,21,22,23,24,25,26,27,28,29,30,31,32,33,34,35,36,37,38,39,40,41,42,43,44,45,46,47,48,49,50,51,52,53,54,55,56,57,58,59,60,61,62,63,64,65,66,67,68,69,70,71,72,73,74,75,76,77,78,79,80,81,82,83,84,85,86,87,88,89,90,91,92,93,94,95,96,97,98,99,100,101,102,103,104,105,106,107,108,109,110,111,112,113,114,115,116,117,118,119,120,121,122,123,124,125,126,127,128,129,130,131,132,133,134,135,136,137,138,139,140,141,142,143,144,145,146,147,148,149,150,151,152,153,154,155,156,157,158,159,160,161,162,163,164,165,166,167,168,169,170,171,172,173,174,175,176,177,178,179,180,181,182,183,184,185,186,187,188,189,190,191,192,193,194,195,196,197,198,199,200,201,202,203,204,205,206,207,208,209,210,211,212,213,214,215,216,217,218,219,220,221,222,223,224,225,226,227,228,229,230,231,232,233,234,235,236,237,238,239,240,241,242,243,244,245,246,247,248,249,250,251,252,253,254,255,256,257,258,259,260,261,262,263,264,265,266,267,268,269,270,271,272,273,274,275,276,277,278,279,280,281,282,283,284,285,286,287,288,289,290,291,292,293,294,295,296,297,298,299,300,301,302,303,304,305,306,307,308,309,310,311,312,313,314,315,316,317,318,319,320,321,322,323,324,325,326,327,328,329,330,331,332,333,334,335,336,337,338,339,340,341,342,343,344,345,346,347,348,349,350,351,352,353,354,355,356,357,358,359,360,361,362,363,364,365,366,367,368,369,370,371,372,373,374,375,376,377,378,379,380,381,382,383,384,385,386,387,388,389,390,391,392,393,394,395,396,397,398,399,400,401,402,403,404,405,406,407,408,409,410,411,412,413,414,415,416,417,418,419,420,421,422,423,424,425,426,427,428,429,430,431,432,433,434,435,436,437,438,439,440,441,442,443,444,445,446,447,448,449,450,451,452,453,454,455,456,457,458,459,460,461,462,463,464,465,466,467,468,469,470,471,472,473,474,475,476,477,478,479,480,481,482,483,484,485,486,487,488,489,490,491,492,493,494,495,496,497,498,499,500,501,502,503,504,505,506,507,508,509,510,511,512,513,514,515,516,517,518,519,520,521,522,523,524,525,526,527,528,529,530,531,532,533,534,535,536,537,538,539,540,541,542,543,544,545,546,547,548,549,550,551,552,553,554,555,556,557,558,559,560,561,562,563,564,565,566,567,568,569,570,571,572,573,574,575,576,577,578,579,580,581,582,583,584,585,586,587,588,589,590,591,592,593,594,595,596,597,598,599,600,601,602,603],"tree_info":[0,0,0,0,0,0,0,0,0,0,0,0,0,0,0,0,0,0,0,0,0,0,0,0,0,0,0,0,0,0,0,0,0,0,0,0,0,0,0,0,0,0,0,0,0,0,0,0,0,0,0,0,0,0,0,0,0,0,0,0,0,0,0,0,0,0,0,0,0,0,0,0,0,0,0,0,0,0,0,0,0,0,0,0,0,0,0,0,0,0,0,0,0,0,0,0,0,0,0,0,0,0,0,0,0,0,0,0,0,0,0,0,0,0,0,0,0,0,0,0,0,0,0,0,0,0,0,0,0,0,0,0,0,0,0,0,0,0,0,0,0,0,0,0,0,0,0,0,0,0,0,0,0,0,0,0,0,0,0,0,0,0,0,0,0,0,0,0,0,0,0,0,0,0,0,0,0,0,0,0,0,0,0,0,0,0,0,0,0,0,0,0,0,0,0,0,0,0,0,0,0,0,0,0,0,0,0,0,0,0,0,0,0,0,0,0,0,0,0,0,0,0,0,0,0,0,0,0,0,0,0,0,0,0,0,0,0,0,0,0,0,0,0,0,0,0,0,0,0,0,0,0,0,0,0,0,0,0,0,0,0,0,0,0,0,0,0,0,0,0,0,0,0,0,0,0,0,0,0,0,0,0,0,0,0,0,0,0,0,0,0,0,0,0,0,0,0,0,0,0,0,0,0,0,0,0,0,0,0,0,0,0,0,0,0,0,0,0,0,0,0,0,0,0,0,0,0,0,0,0,0,0,0,0,0,0,0,0,0,0,0,0,0,0,0,0,0,0,0,0,0,0,0,0,0,0,0,0,0,0,0,0,0,0,0,0,0,0,0,0,0,0,0,0,0,0,0,0,0,0,0,0,0,0,0,0,0,0,0,0,0,0,0,0,0,0,0,0,0,0,0,0,0,0,0,0,0,0,0,0,0,0,0,0,0,0,0,0,0,0,0,0,0,0,0,0,0,0,0,0,0,0,0,0,0,0,0,0,0,0,0,0,0,0,0,0,0,0,0,0,0,0,0,0,0,0,0,0,0,0,0,0,0,0,0,0,0,0,0,0,0,0,0,0,0,0,0,0,0,0,0,0,0,0,0,0,0,0,0,0,0,0,0,0,0,0,0,0,0,0,0,0,0,0,0,0,0,0,0,0,0,0,0,0,0,0,0,0,0,0,0,0,0,0,0,0,0,0,0,0,0,0,0,0,0,0,0,0,0,0,0,0,0,0,0,0,0,0,0,0,0,0,0,0,0,0,0,0,0,0,0,0,0,0,0,0,0,0,0,0,0,0,0,0,0,0,0,0,0,0,0,0,0,0,0,0,0,0,0,0,0,0,0,0,0,0,0,0,0,0,0,0,0],"trees":[{"base_weights":[1.7946965E-6,-5.3021498E-2,6.5071106E-2,-7.300649E-2,-3.0195508E-2,3.3658076E-2,9.275626E-2,-4.1424402E-4,-3.5373254E-3,-1.901688E-4,2.7051033E-3,2.185772E-2,4.804365E-2,7.8233175E-2,6.0691655E-4,-2.9189034E-5,-0E0,2.8585955E-5,-0E0,1.3414262E-2,2.8719079E-2,2.4573648E-4,3.1699188E-4,3.9317983E-4,4.7435283E-4,1.4256633E-2,-0E0,-0E0,1.6386471E-4,-0E0,8.40262E-5],"categories":[],"categories_nodes":[],"categories_segments":[],"categories_sizes":[],"default_left":[0,0,0,0,0,0,0,0,0,0,0,0,0,0,0,0,0,0,0,0,0,0,0,0,0,0,0,0,0,0,0],"id":0,"left_children":[1,3,5,7,9,11,13,-1,15,-1,17,19,21,23,-1,-1,-1,-1,-1,25,27,-1,-1,-1,-1,29,-1,-1,-1,-1,-1],"loss_changes":[2.6890118E1,1.934001E0,3.0154428E0,3.8850784E-2,2.374543E-1,2.6288235E-1,3.5424042E-1,0E0,2.6098438E-5,0E0,8.9441275E-4,4.3073922E-2,3.7164688E-3,1.1245728E-2,0E0,0E0,0E0,0E0,0E0,7.037565E-3,1.7668903E-3,0E0,0E0,0E0,0E0,2.5904104E-3,0E0,0E0,0E0,0E0,0E0],"parents":[2147483647,0,0,1,1,2,2,3,3,4,4,5,5,6,6,8,8,10,10,11,11,12,12,13,13,19,19,20,20,25,25],"right_children":[2,4,6,8,10,12,14,-1,16,-1,18,20,22,24,-1,-1,-1,-1,-1,26,28,-1,-1,-1,-1,30,-1,-1,-1,-1,-1],"split_conditions":[7.8782976E-2,1.825506E-2,1.3571538E-1,2.4097814E-1,6.418337E-2,1.0928765E-1,1.6122948E-1,-4.1424402E-4,-2.4824562E-3,-1.901688E-4,-4.2000008E-1,9.5428295E-2,1.2428347E-1,1.4897951E-1,6.0691655E-4,-2.9189034E-5,-0E0,2.8585955E-5,-0E0,3.975602E-2,-2.2282038E0,2.4573648E-4,3.1699188E-4,3.9317983E-4,4.7435283E-4,2.956539E-1,-0E0,-0E0,1.6386471E-4,-0E0,8.40262E-5],"split_indices":[2,2,2,0,2,2,2,0,9,0,23,2,2,2,0,0,0,0,0,11,21,0,0,0,0,0,0,0,0,0,0],"split_type":[0,0,0,0,0,0,0,0,0,0,0,0,0,0,0,0,0,0,0,0,0,0,0,0,0,0,0,0,0,0,0],"sum_hessian":[7.793E3,4.292E3,3.501E3,2.283E3,2.009E3,1.644E3,1.857E3,2.268E3,1.5E1,1.823E3,1.86E2,9.12E2,7.32E2,9.43E2,9.14E2,8E0,7E0,8.8E1,9.8E1,4.24E2,4.88E2,4.88E2,2.44E2,3.95E2,5.48E2,4.1E2,1.4E1,8E0,4.8E2,2.2E1,3.88E2],"tree_param":{"num_deleted":"0","num_feature":"30","num_nodes":"31","size_leaf_vector":"1"}},{"base_weights":[-0E0,-5.280244E-2,6.471532E-2,-7.26048E-2,-3.00796E-2,3.345391E-2,9.2219785E-2,-4.119562E-4,-3.5217567E-3,-1.8940977E-4,2.7601675E-3,2.175467E-2,4.7768597E-2,7.7769846E-2,6.0346E-4,-0E0,-3.9890117E-5,2.8975195E-5,-0E0,1.3318559E-2,2.856445E-2,2.4419717E-4,3.1520202E-4,3.910058E-4,4.716529E-4,1.4159714E-2,-0E0,-0E0,1.6270867E-4,-0E0,8.345696E-5],"categories":[],"categories_nodes":[],"categories_segments":[],"categories_sizes":[],"default_left":[0,0,0,0,0,0,0,0,0,0,0,0,0,0,0,0,0,0,0,0,0,0,0,0,0,0,0,0,0,0,0],"id":1,"left_children":[1,3,5,7,9,11,13,-1,15,-1,17,19,21,23,-1,-1,-1,-1,-1,25,27,-1,-1,-1,-1,29,-1,-1,-1,-1,-1],"loss_changes":[2.6638721E1,1.9083624E0,2.9820032E0,3.8228035E-2,2.353077E-1,2.590475E-1,3.5088158E-1,0E0,2.1323808E-4,0E0,9.078977E-4,4.2746514E-2,3.6270618E-3,1.0949135E-2,0E0,0E0,0E0,0E0,0E0,6.9700405E-3,4.3445826E-4,0E0,0E0,0E0,0E0,2.5413707E-3,0E0,0E0,0E0,0E0,0E0],"parents":[2147483647,0,0,1,1,2,2,3,3,4,4,5,5,6,6,8,8,10,10,11,11,12,12,13,13,19,19,20,20,25,25],"right_children":[2,4,6,8,10,12,14,-1,16,-1,18,20,22,24,-1,-1,-1,-1,-1,26,28,-1,-1,-1,-1,30,-1,-1,-1,-1,-1],"split_conditions":[7.8782976E-2,1.825506E-2,1.3571538E-1,2.4097814E-1,6.418337E-2,1.0928765E-1,1.6122948E-1,-4.119562E-4,8.504663E-1,-1.8940977E-4,-4.2000008E-1,9.5428295E-2,1.2428347E-1,1.4897951E-1,6.0346E-4,-0E0,-3.9890117E-5,2.8975195E-5,-0E0,3.975602E-2,-2.2735536E0,2.4419717E-4,3.1520202E-4,3.910058E-4,4.716529E-4,2.956539E-1,-0E0,-0E0,1.6270867E-4,-0E0,8.345696E-5],"split_indices":[2,2,2,0,2,2,2,0,7,0,23,2,2,2,0,0,0,0,0,11,28,0,0,0,0,0,0,0,0,0,0],"split_type":[0,0,0,0,0,0,0,0,0,0,0,0,0,0,0,0,0,0,0,0,0,0,0,0,0,0,0,0,0,0,0],"sum_hessian":[7.796E3,4.294E3,3.502E3,2.289E3,2.005E3,1.643E3,1.859E3,2.274E3,1.5E1,1.82E3,1.85E2,9.13E2,7.3E2,9.44E2,9.15E2,7E0,8E0,8.8E1,9.7E1,4.23E2,4.9E2,4.86E2,2.44E2,3.97E2,5.47E2,4.09E2,1.4E1,8E0,4.82E2,2.2E1,3.87E2],"tree_param":{"num_deleted":"0","num_feature":"30","num_nodes":"31","size_leaf_vector":"1"}},{"base_weights":[6.150033E-7,-5.4439537E-2,6.1746977E-2,-4.088177E-4,-3.289984E-2,3.155637E-2,9.176129E-2,-3.3497054E-2,-0E0,1.8032862E-2,4.6627857E-2,7.7998735E-2,1.0619587E-1,-3.1453202E-4,-3.2778535E-2,1.1728962E-2,2.7847039E-2,2.2271392E-4,2.9527236E-4,3.9388065E-4,4.7600042E-4,6.02898E-4,3.0911908E-6,-0E0,-1.8605393E-4,1.4026633E-3,1.510592E-2,1.5884488E-4,-0E0,-0E0,-4.12625E-5,3.046393E-3,-0E0,1.5739778E-2,-0E0,-0E0,1.8362945E-5,9.16603E-5,-0E0],"categories":[],"categories_nodes":[],"categories_segments":[],"categories_sizes":[],"default_left":[0,0,0,0,0,0,0,0,0,0,0,0,0,0,0,0,0,0,0,0,0,0,0,0,0,0,0,0,0,0,0,0,0,0,0,0,0,0,0],"id":2,"left_children":[1,3,5,-1,7,9,11,13,-1,15,17,19,21,-1,23,25,27,-1,-1,-1,-1,-1,-1,29,-1,31,33,-1,-1,-1,-1,35,-1,37,-1,-1,-1,-1,-1],"loss_changes":[2.6194357E1,1.577076E0,3.2815962E0,0E0,3.671527E-2,3.5698974E-1,3.204689E-1,9.083271E-3,0E0,5.0842524E-2,1.3549447E-2,1.3338089E-2,2.921772E-2,0E0,5.2347183E-3,1.7272517E-2,2.8008223E-4,0E0,0E0,0E0,0E0,0E0,0E0,3.7382517E-4,0E0,6.292943E-4,4.3716654E-3,0E0,0E0,0E0,0E0,4.8860908E-5,0E0,5.97924E-4,0E0,0E0,0E0,0E0,0E0],"parents":[2147483647,0,0,1,1,2,2,4,4,5,5,6,6,7,7,9,9,10,10,11,11,12,12,14,14,15,15,16,16,23,23,25,25,26,26,31,31,33,33],"right_children":[2,4,6,-1,8,10,12,14,-1,16,18,20,22,-1,24,26,28,-1,-1,-1,-1,-1,-1,30,-1,32,34,-1,-1,-1,-1,36,-1,38,-1,-1,-1,-1,-1],"split_conditions":[7.196468E-2,1.9343355E-1,1.3688207E-1,-4.088177E-4,6.576664E-2,1.051906E-1,1.647414E-1,1.1654729E-2,-0E0,9.6355535E-2,1.1836298E-1,1.5417247E-1,1.00037515E-1,-3.1453202E-4,-7.2508484E-2,2.9236066E-1,4.3984443E-2,2.2271392E-4,2.9527236E-4,3.9388065E-4,4.7600042E-4,6.02898E-4,3.0911908E-6,-2.0784967E0,-1.8605393E-4,1.8219625E-3,2.8247306E-2,1.5884488E-4,-0E0,-0E0,-4.12625E-5,-2.532312E-2,-0E0,3E0,-0E0,-0E0,1.8362945E-5,9.16603E-5,-0E0],"split_indices":[3,0,3,0,3,3,3,3,0,3,3,3,15,0,11,0,11,0,0,0,0,0,0,29,0,1,12,0,0,0,0,9,0,23,0,0,0,0,0],"split_type":[0,0,0,0,0,0,0,0,0,0,0,0,0,0,0,0,0,0,0,0,0,0,0,0,0,0,0,0,0,0,0,0,0,0,0,0,0,0,0],"sum_hessian":[7.792E3,4.139E3,3.653E3,2.251E3,1.888E3,1.825E3,1.828E3,1.854E3,3.4E1,9.7E2,8.55E2,9.44E2,8.84E2,4.8E1,1.806E3,6.05E2,3.65E2,3.95E2,4.6E2,4.25E2,5.19E2,8.77E2,7E0,1.4E1,1.792E3,1.66E2,4.39E2,3.58E2,7E0,7E0,7E0,1.03E2,6.3E1,4.22E2,1.7E1,8E0,9.5E1,3.99E2,2.3E1],"tree_param":{"num_deleted":"0","num_feature":"30","num_nodes":"39","size_leaf_vector":"1"}},{"base_weights":[-0E0,-5.4146163E-2,6.139303E-2,-4.065145E-4,-3.2693848E-2,3.1361405E-2,9.126496E-2,-3.3287603E-2,-0E0,1.7963344E-2,4.6356983E-2,7.759111E-2,1.05621055E-1,-3.073977E-4,-3.260881E-2,1.1677399E-2,1.5662203E-4,2.2138514E-4,2.9355192E-4,3.916912E-4,4.7329243E-4,5.9963035E-4,3.0737265E-6,-0E0,-1.8508904E-4,1.3921529E-3,1.5031193E-2,3.0294536E-3,-0E0,1.566055E-2,-0E0,-0E0,1.8259245E-5,9.118025E-5,-0E0],"categories":[],"categories_nodes":[],"categories_segments":[],"categories_sizes":[],"default_left":[0,0,0,0,0,0,0,0,0,0,0,0,0,0,0,0,0,0,0,0,0,0,0,0,0,0,0,0,0,0,0,0,0,0,0],"id":3,"left_children":[1,3,5,-1,7,9,11,13,-1,15,17,19,21,-1,23,25,-1,-1,-1,-1,-1,-1,-1,-1,-1,27,29,31,-1,33,-1,-1,-1,-1,-1],"loss_changes":[2.5908314E1,1.5616999E0,3.2478085E0,0E0,3.6252737E-2,3.5176206E-1,3.1619835E-1,6.438732E-3,0E0,5.0591946E-2,1.3215303E-2,1.28622055E-2,2.8635979E-2,0E0,5.148411E-3,1.7098755E-2,0E0,0E0,0E0,0E0,0E0,0E0,0E0,0E0,0E0,6.2356977E-4,4.3297783E-3,4.814542E-5,0E0,5.648285E-4,0E0,0E0,0E0,0E0,0E0],"parents":[2147483647,0,0,1,1,2,2,4,4,5,5,6,6,7,7,9,9,10,10,11,11,12,12,14,14,15,15,25,25,26,26,27,27,29,29],"right_children":[2,4,6,-1,8,10,12,14,-1,16,18,20,22,-1,24,26,-1,-1,-1,-1,-1,-1,-1,-1,-1,28,30,32,-1,34,-1,-1,-1,-1,-1],"split_conditions":[7.196468E-2,1.9343355E-1,1.3688207E-1,-4.065145E-4,6.576664E-2,1.051906E-1,1.647414E-1,1.1654729E-2,-0E0,9.6355535E-2,1.1836298E-1,1.5417247E-1,1.00037515E-1,-3.073977E-4,-7.2508484E-2,2.9236066E-1,1.5662203E-4,2.2138514E-4,2.9355192E-4,3.916912E-4,4.7329243E-4,5.9963035E-4,3.0737265E-6,-0E0,-1.8508904E-4,1.8219625E-3,2.8247306E-2,-2.532312E-2,-0E0,3E0,-0E0,-0E0,1.8259245E-5,9.118025E-5,-0E0],"split_indices":[3,0,3,0,3,3,3,3,0,3,3,3,15,0,11,0,0,0,0,0,0,0,0,0,0,1,12,9,0,23,0,0,0,0,0],"split_type":[0,0,0,0,0,0,0,0,0,0,0,0,0,0,0,0,0,0,0,0,0,0,0,0,0,0,0,0,0,0,0,0,0,0,0],"sum_hessian":[7.794E3,4.142E3,3.652E3,2.255E3,1.887E3,1.825E3,1.827E3,1.853E3,3.4E1,9.72E2,8.53E2,9.44E2,8.83E2,4.7E1,1.806E3,6.06E2,3.66E2,3.94E2,4.59E2,4.23E2,5.21E2,8.76E2,7E0,1.4E1,1.792E3,1.66E2,4.4E2,1.03E2,6.3E1,4.23E2,1.7E1,8E0,9.5E1,4E2,2.3E1],"tree_param":{"num_deleted":"0","num_feature":"30","num_nodes":"35","size_leaf_vector":"1"}},{"base_weights":[-0E0,-5.190995E-2,6.368745E-2,-7.138974E-2,-2.9545655E-2,3.2942377E-2,9.0638384E-2,-4.0506484E-4,-3.105674E-3,-1.8628518E-4,2.7169301E-3,2.139125E-2,4.695768E-2,7.648998E-2,5.9303764E-4,-0E0,-3.7215275E-5,2.859423E-5,-0E0,1.3105334E-2,2.8092254E-2,2.3997157E-4,3.1002288E-4,3.8449402E-4,4.637907E-4,1.3944088E-2,-0E0,-0E0,1.6030199E-4,-0E0,8.2191764E-5],"categories":[],"categories_nodes":[],"categories_segments":[],"categories_sizes":[],"default_left":[0,0,0,0,0,0,0,0,0,0,0,0,0,0,0,0,0,0,0,0,0,0,0,0,0,0,0,0,0,0,0],"id":4,"left_children":[1,3,5,7,9,11,13,-1,15,-1,17,19,21,23,-1,-1,-1,-1,-1,25,27,-1,-1,-1,-1,29,-1,-1,-1,-1,-1],"loss_changes":[2.57617E1,1.8477383E0,2.8698416E0,3.7137985E-2,2.2992218E-1,2.4934459E-1,3.366394E-1,0E0,2.0284933E-4,0E0,9.020546E-4,4.0815532E-2,3.3346415E-3,1.0053158E-2,0E0,0E0,0E0,0E0,0E0,6.8294406E-3,1.7236173E-3,0E0,0E0,0E0,0E0,2.4410188E-3,0E0,0E0,0E0,0E0,0E0],"parents":[2147483647,0,0,1,1,2,2,3,3,4,4,5,5,6,6,8,8,10,10,11,11,12,12,13,13,19,19,20,20,25,25],"right_children":[2,4,6,8,10,12,14,-1,16,-1,18,20,22,24,-1,-1,-1,-1,-1,26,28,-1,-1,-1,-1,30,-1,-1,-1,-1,-1],"split_conditions":[7.8782976E-2,1.825506E-2,1.3571538E-1,2.4097814E-1,6.418337E-2,1.0928765E-1,1.6122948E-1,-4.0506484E-4,8.504663E-1,-1.8628518E-4,-4.2000008E-1,9.5428295E-2,1.2428347E-1,1.4897951E-1,5.9303764E-4,-0E0,-3.7215275E-5,2.859423E-5,-0E0,3.975602E-2,-2.2282038E0,2.3997157E-4,3.1002288E-4,3.8449402E-4,4.637907E-4,2.956539E-1,-0E0,-0E0,1.6030199E-4,-0E0,8.2191764E-5],"split_indices":[2,2,2,0,2,2,2,0,7,0,23,2,2,2,0,0,0,0,0,11,21,0,0,0,0,0,0,0,0,0,0],"split_type":[0,0,0,0,0,0,0,0,0,0,0,0,0,0,0,0,0,0,0,0,0,0,0,0,0,0,0,0,0,0,0],"sum_hessian":[7.793E3,4.295E3,3.498E3,2.29E3,2.005E3,1.638E3,1.86E3,2.275E3,1.5E1,1.818E3,1.87E2,9.07E2,7.31E2,9.46E2,9.14E2,7E0,8E0,8.9E1,9.8E1,4.21E2,4.86E2,4.87E2,2.44E2,3.97E2,5.49E2,4.07E2,1.4E1,8E0,4.78E2,2.2E1,3.85E2],"tree_param":{"num_deleted":"0","num_feature":"30","num_nodes":"31","size_leaf_vector":"1"}},{"base_weights":[-0E0,-5.1603176E-2,6.323279E-2,-7.099219E-2,-2.9411651E-2,3.271104E-2,9.015789E-2,-4.028112E-4,-3.0858258E-3,-1.8517862E-4,2.6456444E-3,2.1247746E-2,4.667667E-2,7.603576E-2,5.899105E-4,-0E0,-3.7005142E-5,2.8042989E-5,-0E0,1.3023787E-2,2.791839E-2,2.3867626E-4,3.0824167E-4,3.819986E-4,4.6111923E-4,1.3853619E-2,-0E0,-0E0,1.5929693E-4,-0E0,8.1625236E-5],"categories":[],"categories_nodes":[],"categories_segments":[],"categories_sizes":[],"default_left":[0,0,0,0,0,0,0,0,0,0,0,0,0,0,0,0,0,0,0,0,0,0,0,0,0,0,0,0,0,0,0],"id":5,"left_children":[1,3,5,7,9,11,13,-1,15,-1,17,19,21,23,-1,-1,-1,-1,-1,25,27,-1,-1,-1,-1,29,-1,-1,-1,-1,-1],"loss_changes":[2.5414139E1,1.8226032E0,2.8470173E0,3.6546707E-2,2.2460032E-1,2.474544E-1,3.3323193E-1,0E0,2.0077922E-4,0E0,8.510534E-4,4.0546E-2,3.084898E-3,9.860516E-3,0E0,0E0,0E0,0E0,0E0,6.769873E-3,1.6734004E-3,0E0,0E0,0E0,0E0,2.3950115E-3,0E0,0E0,0E0,0E0,0E0],"parents":[2147483647,0,0,1,1,2,2,3,3,4,4,5,5,6,6,8,8,10,10,11,11,12,12,13,13,19,19,20,20,25,25],"right_children":[2,4,6,8,10,12,14,-1,16,-1,18,20,22,24,-1,-1,-1,-1,-1,26,28,-1,-1,-1,-1,30,-1,-1,-1,-1,-1],"split_conditions":[7.8782976E-2,1.825506E-2,1.3571538E-1,2.4097814E-1,6.418337E-2,1.0928765E-1,1.6122948E-1,-4.028112E-4,8.504663E-1,-1.8517862E-4,-4.2000008E-1,9.5428295E-2,1.2428347E-1,1.4897951E-1,5.899105E-4,-0E0,-3.7005142E-5,2.8042989E-5,-0E0,3.975602E-2,-2.2282038E0,2.3867626E-4,3.0824167E-4,3.819986E-4,4.6111923E-4,2.956539E-1,-0E0,-0E0,1.5929693E-4,-0E0,8.1625236E-5],"split_indices":[2,2,2,0,2,2,2,0,7,0,23,2,2,2,0,0,0,0,0,11,21,0,0,0,0,0,0,0,0,0,0],"split_type":[0,0,0,0,0,0,0,0,0,0,0,0,0,0,0,0,0,0,0,0,0,0,0,0,0,0,0,0,0,0,0],"sum_hessian":[7.789E3,4.29E3,3.499E3,2.284E3,2.006E3,1.644E3,1.855E3,2.269E3,1.5E1,1.821E3,1.85E2,9.12E2,7.32E2,9.42E2,9.13E2,7E0,8E0,8.7E1,9.8E1,4.24E2,4.88E2,4.89E2,2.43E2,3.95E2,5.47E2,4.1E2,1.4E1,8E0,4.8E2,2.2E1,3.88E2],"tree_param":{"num_deleted":"0","num_feature":"30","num_nodes":"31","size_leaf_vector":"1"}},{"base_weights":[-0E0,-5.128012E-2,6.2885165E-2,-7.0584E-2,-2.9225389E-2,3.251042E-2,8.9618415E-2,-4.0049443E-4,-3.0660888E-3,-1.841606E-4,2.7179623E-3,2.112336E-2,4.641907E-2,7.562505E-2,5.864619E-4,-0E0,-3.6796187E-5,2.8274419E-5,-0E0,1.29096545E-2,2.7754677E-2,2.3730061E-4,3.064243E-4,3.8016608E-4,4.5856248E-4,1.3737609E-2,-0E0,-0E0,1.5839707E-4,-0E0,8.094174E-5],"categories":[],"categories_nodes":[],"categories_segments":[],"categories_sizes":[],"default_left":[0,0,0,0,0,0,0,0,0,0,0,0,0,0,0,0,0,0,0,0,0,0,0,0,0,0,0,0,0,0,0],"id":6,"left_children":[1,3,5,7,9,11,13,-1,15,-1,17,19,21,23,-1,-1,-1,-1,-1,25,27,-1,-1,-1,-1,29,-1,-1,-1,-1,-1],"loss_changes":[2.5112892E1,1.8024559E0,2.8129482E0,3.5943985E-2,2.2425902E-1,2.4440932E-1,3.2859802E-1,0E0,1.9873095E-4,0E0,8.5762294E-4,4.025337E-2,2.8594732E-3,9.393692E-3,0E0,0E0,0E0,0E0,0E0,6.6904277E-3,2.620846E-3,0E0,0E0,0E0,0E0,2.3383796E-3,0E0,0E0,0E0,0E0,0E0],"parents":[2147483647,0,0,1,1,2,2,3,3,4,4,5,5,6,6,8,8,10,10,11,11,12,12,13,13,19,19,20,20,25,25],"right_children":[2,4,6,8,10,12,14,-1,16,-1,18,20,22,24,-1,-1,-1,-1,-1,26,28,-1,-1,-1,-1,30,-1,-1,-1,-1,-1],"split_conditions":[7.8782976E-2,1.825506E-2,1.3571538E-1,2.4097814E-1,6.418337E-2,1.0928765E-1,1.6122948E-1,-4.0049443E-4,8.504663E-1,-1.841606E-4,-4.2000008E-1,9.5428295E-2,1.2428347E-1,1.4897951E-1,5.864619E-4,-0E0,-3.6796187E-5,2.8274419E-5,-0E0,3.975602E-2,-2.2282038E0,2.3730061E-4,3.064243E-4,3.8016608E-4,4.5856248E-4,2.956539E-1,-0E0,-0E0,1.5839707E-4,-0E0,8.094174E-5],"split_indices":[2,2,2,0,2,2,2,0,7,0,23,2,2,2,0,0,0,0,0,11,21,0,0,0,0,0,0,0,0,0,0],"split_type":[0,0,0,0,0,0,0,0,0,0,0,0,0,0,0,0,0,0,0,0,0,0,0,0,0,0,0,0,0,0,0],"sum_hessian":[7.787E3,4.288E3,3.499E3,2.281E3,2.007E3,1.642E3,1.857E3,2.266E3,1.5E1,1.821E3,1.86E2,9.12E2,7.3E2,9.45E2,9.12E2,7E0,8E0,8.9E1,9.7E1,4.23E2,4.89E2,4.87E2,2.43E2,3.97E2,5.48E2,4.09E2,1.4E1,7E0,4.82E2,2.2E1,3.87E2],"tree_param":{"num_deleted":"0","num_feature":"30","num_nodes":"31","size_leaf_vector":"1"}},{"base_weights":[1.1934276E-6,-5.09699E-2,6.252222E-2,-7.018527E-2,-2.9048536E-2,3.2346558E-2,8.912819E-2,-3.9822885E-4,-3.0464632E-3,-1.8311349E-4,2.6765165E-3,2.1009203E-2,4.6170767E-2,7.519737E-2,5.833279E-4,-0E0,-3.658841E-5,2.8114766E-5,-0E0,1.2875019E-2,2.7588366E-2,2.359689E-4,3.0480168E-4,3.780195E-4,4.559533E-4,1.3699771E-2,-0E0,-0E0,1.5739902E-4,-0E0,8.070729E-5],"categories":[],"categories_nodes":[],"categories_segments":[],"categories_sizes":[],"default_left":[0,0,0,0,0,0,0,0,0,0,0,0,0,0,0,0,0,0,0,0,0,0,0,0,0,0,0,0,0,0,0],"id":7,"left_children":[1,3,5,7,9,11,13,-1,15,-1,17,19,21,23,-1,-1,-1,-1,-1,25,27,-1,-1,-1,-1,29,-1,-1,-1,-1,-1],"loss_changes":[2.483714E1,1.7844944E0,2.7834454E0,3.5357475E-2,2.2251534E-1,2.4225652E-1,3.2549477E-1,0E0,1.9670435E-4,0E0,8.669137E-4,3.9485633E-2,2.8526783E-3,9.06992E-3,0E0,0E0,0E0,0E0,0E0,6.665498E-3,1.5796721E-3,0E0,0E0,0E0,0E0,2.319567E-3,0E0,0E0,0E0,0E0,0E0],"parents":[2147483647,0,0,1,1,2,2,3,3,4,4,5,5,6,6,8,8,10,10,11,11,12,12,13,13,19,19,20,20,25,25],"right_children":[2,4,6,8,10,12,14,-1,16,-1,18,20,22,24,-1,-1,-1,-1,-1,26,28,-1,-1,-1,-1,30,-1,-1,-1,-1,-1],"split_conditions":[7.8782976E-2,1.825506E-2,1.3571538E-1,2.4097814E-1,6.418337E-2,1.0928765E-1,1.6122948E-1,-3.9822885E-4,8.504663E-1,-1.8311349E-4,-4.2000008E-1,9.5428295E-2,1.2428347E-1,1.4897951E-1,5.833279E-4,-0E0,-3.658841E-5,2.8114766E-5,-0E0,3.975602E-2,-2.2282038E0,2.359689E-4,3.0480168E-4,3.780195E-4,4.559533E-4,2.956539E-1,-0E0,-0E0,1.5739902E-4,-0E0,8.070729E-5],"split_indices":[2,2,2,0,2,2,2,0,7,0,23,2,2,2,0,0,0,0,0,11,21,0,0,0,0,0,0,0,0,0,0],"split_type":[0,0,0,0,0,0,0,0,0,0,0,0,0,0,0,0,0,0,0,0,0,0,0,0,0,0,0,0,0,0,0],"sum_hessian":[7.793E3,4.291E3,3.502E3,2.281E3,2.01E3,1.645E3,1.857E3,2.266E3,1.5E1,1.823E3,1.87E2,9.13E2,7.32E2,9.45E2,9.12E2,7E0,8E0,8.9E1,9.8E1,4.24E2,4.89E2,4.88E2,2.44E2,3.97E2,5.48E2,4.1E2,1.4E1,8E0,4.81E2,2.2E1,3.88E2],"tree_param":{"num_deleted":"0","num_feature":"30","num_nodes":"31","size_leaf_vector":"1"}},{"base_weights":[-0E0,-5.0745916E-2,6.225944E-2,-6.97924E-2,-2.887511E-2,3.218548E-2,8.8665895E-2,-3.9598983E-4,-3.0269488E-3,-1.8208874E-4,2.663134E-3,2.0919424E-2,4.5877904E-2,7.479184E-2,5.798663E-4,-0E0,-3.638181E-5,2.7955997E-5,-0E0,1.2805926E-2,2.7444215E-2,2.346563E-4,3.0292562E-4,3.7567914E-4,4.5338811E-4,1.363438E-2,-0E0,-0E0,1.5657491E-4,-0E0,1.4228988E-2,8.1194805E-5,-0E0],"categories":[],"categories_nodes":[],"categories_segments":[],"categories_sizes":[],"default_left":[0,0,0,0,0,0,0,0,0,0,0,0,0,0,0,0,0,0,0,0,0,0,0,0,0,0,0,0,0,0,0,0,0],"id":8,"left_children":[1,3,5,7,9,11,13,-1,15,-1,17,19,21,23,-1,-1,-1,-1,-1,25,27,-1,-1,-1,-1,29,-1,-1,-1,-1,31,-1,-1],"loss_changes":[2.4618069E1,1.765439E0,2.75072E0,3.4787178E-2,2.2005737E-1,2.3750997E-1,3.2073975E-1,0E0,1.946993E-4,0E0,8.554255E-4,3.8796246E-2,2.4801493E-3,8.84676E-3,0E0,0E0,0E0,0E0,0E0,6.619282E-3,1.5394092E-3,0E0,0E0,0E0,0E0,2.2888854E-3,0E0,0E0,0E0,0E0,7.197261E-6,0E0,0E0],"parents":[2147483647,0,0,1,1,2,2,3,3,4,4,5,5,6,6,8,8,10,10,11,11,12,12,13,13,19,19,20,20,25,25,30,30],"right_children":[2,4,6,8,10,12,14,-1,16,-1,18,20,22,24,-1,-1,-1,-1,-1,26,28,-1,-1,-1,-1,30,-1,-1,-1,-1,32,-1,-1],"split_conditions":[7.8782976E-2,1.825506E-2,1.3571538E-1,2.4097814E-1,6.418337E-2,1.0928765E-1,1.6122948E-1,-3.9598983E-4,8.504663E-1,-1.8208874E-4,-4.2000008E-1,9.5428295E-2,1.2428347E-1,1.4897951E-1,5.798663E-4,-0E0,-3.638181E-5,2.7955997E-5,-0E0,3.975602E-2,-2.2282038E0,2.346563E-4,3.0292562E-4,3.7567914E-4,4.5338811E-4,2.956539E-1,-0E0,-0E0,1.5657491E-4,-0E0,4.049999E0,8.1194805E-5,-0E0],"split_indices":[2,2,2,0,2,2,2,0,7,0,23,2,2,2,0,0,0,0,0,11,21,0,0,0,0,0,0,0,0,0,23,0,0],"split_type":[0,0,0,0,0,0,0,0,0,0,0,0,0,0,0,0,0,0,0,0,0,0,0,0,0,0,0,0,0,0,0,0,0],"sum_hessian":[7.792E3,4.293E3,3.499E3,2.289E3,2.004E3,1.64E3,1.859E3,2.274E3,1.5E1,1.817E3,1.87E2,9.09E2,7.31E2,9.43E2,9.16E2,7E0,8E0,8.9E1,9.8E1,4.21E2,4.88E2,4.89E2,2.42E2,3.94E2,5.49E2,4.07E2,1.4E1,8E0,4.8E2,2.2E1,3.85E2,3.77E2,8E0],"tree_param":{"num_deleted":"0","num_feature":"30","num_nodes":"33","size_leaf_vector":"1"}},{"base_weights":[-0E0,-5.041771E-2,6.195714E-2,-6.942455E-2,-2.873565E-2,3.2020263E-2,8.816415E-2,-3.9390483E-4,-3.0075456E-3,-1.8112945E-4,2.6498293E-3,2.0795666E-2,4.5633685E-2,7.435775E-2,5.76725E-4,-0E0,-3.6176392E-5,2.7798153E-5,-0E0,1.2725269E-2,2.729337E-2,2.3332295E-4,3.010739E-4,3.7372397E-4,4.5080562E-4,1.3552983E-2,-0E0,-0E0,1.5571565E-4,-0E0,1.41444765E-2,8.063954E-5,-0E0],"categories":[],"categories_nodes":[],"categories_segments":[],"categories_sizes":[],"default_left":[0,0,0,0,0,0,0,0,0,0,0,0,0,0,0,0,0,0,0,0,0,0,0,0,0,0,0,0,0,0,0,0,0],"id":9,"left_children":[1,3,5,7,9,11,13,-1,15,-1,17,19,21,23,-1,-1,-1,-1,-1,25,27,-1,-1,-1,-1,29,-1,-1,-1,-1,31,-1,-1],"loss_changes":[2.4337706E1,1.7472591E0,2.714964E0,3.4256935E-2,2.1791327E-1,2.3459888E-1,3.1799698E-1,0E0,1.9271555E-4,0E0,8.440773E-4,3.8238198E-2,2.2678375E-3,8.442879E-3,0E0,0E0,0E0,0E0,0E0,6.563805E-3,1.4976859E-3,0E0,0E0,0E0,0E0,2.249986E-3,0E0,0E0,0E0,0E0,6.786734E-5,0E0,0E0],"parents":[2147483647,0,0,1,1,2,2,3,3,4,4,5,5,6,6,8,8,10,10,11,11,12,12,13,13,19,19,20,20,25,25,30,30],"right_children":[2,4,6,8,10,12,14,-1,16,-1,18,20,22,24,-1,-1,-1,-1,-1,26,28,-1,-1,-1,-1,30,-1,-1,-1,-1,32,-1,-1],"split_conditions":[7.8782976E-2,1.825506E-2,1.3571538E-1,2.4097814E-1,6.418337E-2,1.0928765E-1,1.6122948E-1,-3.9390483E-4,8.504663E-1,-1.8112945E-4,-4.2000008E-1,9.5428295E-2,1.2428347E-1,1.4897951E-1,5.76725E-4,-0E0,-3.6176392E-5,2.7798153E-5,-0E0,3.975602E-2,-2.2282038E0,2.3332295E-4,3.010739E-4,3.7372397E-4,4.5080562E-4,2.956539E-1,-0E0,-0E0,1.5571565E-4,-0E0,4.049999E0,8.063954E-5,-0E0],"split_indices":[2,2,2,0,2,2,2,0,7,0,23,2,2,2,0,0,0,0,0,11,21,0,0,0,0,0,0,0,0,0,23,0,0],"split_type":[0,0,0,0,0,0,0,0,0,0,0,0,0,0,0,0,0,0,0,0,0,0,0,0,0,0,0,0,0,0,0,0,0],"sum_hessian":[7.791E3,4.295E3,3.496E3,2.283E3,2.012E3,1.636E3,1.86E3,2.268E3,1.5E1,1.825E3,1.87E2,9.06E2,7.3E2,9.44E2,9.16E2,7E0,8E0,8.9E1,9.8E1,4.2E2,4.86E2,4.87E2,2.43E2,3.96E2,5.48E2,4.06E2,1.4E1,8E0,4.78E2,2.2E1,3.84E2,3.77E2,7E0],"tree_param":{"num_deleted":"0","num_feature":"30","num_nodes":"33","size_leaf_vector":"1"}},{"base_weights":[-0E0,-5.0128996E-2,6.155062E-2,-6.9006585E-2,-2.8564118E-2,3.1827927E-2,8.766319E-2,-3.9152827E-4,-2.9882498E-3,-1.7997027E-4,2.6588591E-3,2.0707356E-2,4.5388408E-2,7.396224E-2,5.735387E-4,-0E0,-3.597211E-5,2.8051785E-5,-0E0,1.2690501E-2,2.7151998E-2,2.319887E-4,2.9958735E-4,3.715985E-4,4.4829858E-4,1.3478505E-2,-0E0,-0E0,1.5489412E-4,-0E0,7.939556E-5],"categories":[],"categories_nodes":[],"categories_segments":[],"categories_sizes":[],"default_left":[0,0,0,0,0,0,0,0,0,0,0,0,0,0,0,0,0,0,0,0,0,0,0,0,0,0,0,0,0,0,0],"id":10,"left_children":[1,3,5,7,9,11,13,-1,15,-1,17,19,21,23,-1,-1,-1,-1,-1,25,27,-1,-1,-1,-1,29,-1,-1,-1,-1,-1],"loss_changes":[2.4055164E1,1.726265E0,2.6887922E0,3.3654213E-2,2.1454644E-1,2.3214996E-1,3.1367397E-1,0E0,1.9075259E-4,0E0,8.570439E-4,3.783673E-2,2.2768974E-3,8.204937E-3,0E0,0E0,0E0,0E0,0E0,6.3404664E-3,1.4585555E-3,0E0,0E0,0E0,0E0,2.2133216E-3,0E0,0E0,0E0,0E0,0E0],"parents":[2147483647,0,0,1,1,2,2,3,3,4,4,5,5,6,6,8,8,10,10,11,11,12,12,13,13,19,19,20,20,25,25],"right_children":[2,4,6,8,10,12,14,-1,16,-1,18,20,22,24,-1,-1,-1,-1,-1,26,28,-1,-1,-1,-1,30,-1,-1,-1,-1,-1],"split_conditions":[7.8782976E-2,1.825506E-2,1.3571538E-1,2.4097814E-1,6.418337E-2,1.0928765E-1,1.6122948E-1,-3.9152827E-4,8.504663E-1,-1.7997027E-4,-4.2000008E-1,9.5428295E-2,1.2428347E-1,1.4897951E-1,5.735387E-4,-0E0,-3.597211E-5,2.8051785E-5,-0E0,3.975602E-2,-2.2282038E0,2.319887E-4,2.9958735E-4,3.715985E-4,4.4829858E-4,2.956539E-1,-0E0,-0E0,1.5489412E-4,-0E0,7.939556E-5],"split_indices":[2,2,2,0,2,2,2,0,7,0,23,2,2,2,0,0,0,0,0,11,21,0,0,0,0,0,0,0,0,0,0],"split_type":[0,0,0,0,0,0,0,0,0,0,0,0,0,0,0,0,0,0,0,0,0,0,0,0,0,0,0,0,0,0,0],"sum_hessian":[7.796E3,4.296E3,3.5E3,2.285E3,2.011E3,1.641E3,1.859E3,2.27E3,1.5E1,1.825E3,1.86E2,9.11E2,7.3E2,9.45E2,9.14E2,7E0,8E0,8.8E1,9.8E1,4.22E2,4.89E2,4.87E2,2.43E2,3.95E2,5.5E2,4.09E2,1.3E1,8E0,4.81E2,2.2E1,3.87E2],"tree_param":{"num_deleted":"0","num_feature":"30","num_nodes":"31","size_leaf_vector":"1"}},{"base_weights":[1.2534896E-5,-5.1768836E-2,5.8719937E-2,-3.8855989E-4,-3.1270012E-2,3.0004758E-2,8.724554E-2,-3.183894E-2,-0E0,1.7198242E-2,4.4311255E-2,7.411784E-2,1.0097178E-1,-3.0004658E-4,-3.1142991E-2,1.1178445E-2,1.4948487E-4,2.1142424E-4,2.8093875E-4,3.7400637E-4,4.5233176E-4,5.730004E-4,9.202573E-5,-0E0,-1.7678135E-4,1.3344961E-3,1.4380304E-2,-0E0,-3.379132E-5,2.942216E-3,-0E0,1.5162421E-2,-0E0,-0E0,1.7736882E-5,8.769985E-5,-0E0],"categories":[],"categories_nodes":[],"categories_segments":[],"categories_sizes":[],"default_left":[0,0,0,0,0,0,0,0,0,0,0,0,0,0,0,0,0,0,0,0,0,0,0,0,0,0,0,0,0,0,0,0,0,0,0,0,0],"id":11,"left_children":[1,3,5,-1,7,9,11,13,-1,15,17,19,21,-1,23,25,-1,-1,-1,-1,-1,-1,-1,27,-1,29,31,-1,-1,33,-1,35,-1,-1,-1,-1,-1],"loss_changes":[2.3676739E1,1.4220438E0,2.9642544E0,0E0,3.3177495E-2,3.1993604E-1,2.8882885E-1,7.897139E-3,0E0,4.5496583E-2,1.1686802E-2,1.06163025E-2,1.0796547E-2,0E0,4.9003363E-3,1.5396625E-2,0E0,0E0,0E0,0E0,0E0,0E0,0E0,2.507077E-4,0E0,5.9600815E-4,4.142992E-3,0E0,0E0,4.5776018E-5,0E0,8.1252307E-4,0E0,0E0,0E0,0E0,0E0],"parents":[2147483647,0,0,1,1,2,2,4,4,5,5,6,6,7,7,9,9,10,10,11,11,12,12,14,14,15,15,23,23,25,25,26,26,29,29,31,31],"right_children":[2,4,6,-1,8,10,12,14,-1,16,18,20,22,-1,24,26,-1,-1,-1,-1,-1,-1,-1,28,-1,30,32,-1,-1,34,-1,36,-1,-1,-1,-1,-1],"split_conditions":[7.196468E-2,1.9343355E-1,1.3688207E-1,-3.8855989E-4,6.576664E-2,1.051906E-1,1.647414E-1,1.1654729E-2,-0E0,9.6355535E-2,1.1836298E-1,1.5417247E-1,2.3758073E0,-3.0004658E-4,-7.2508484E-2,2.9236066E-1,1.4948487E-4,2.1142424E-4,2.8093875E-4,3.7400637E-4,4.5233176E-4,5.730004E-4,9.202573E-5,-2.0784967E0,-1.7678135E-4,1.8219625E-3,2.965908E-2,-0E0,-3.379132E-5,-2.532312E-2,-0E0,3E0,-0E0,-0E0,1.7736882E-5,8.769985E-5,-0E0],"split_indices":[3,0,3,0,3,3,3,3,0,3,3,3,28,0,11,0,0,0,0,0,0,0,0,29,0,1,11,0,0,9,0,23,0,0,0,0,0],"split_type":[0,0,0,0,0,0,0,0,0,0,0,0,0,0,0,0,0,0,0,0,0,0,0,0,0,0,0,0,0,0,0,0,0,0,0,0,0],"sum_hessian":[7.788E3,4.136E3,3.652E3,2.252E3,1.884E3,1.824E3,1.828E3,1.85E3,3.4E1,9.71E2,8.53E2,9.43E2,8.85E2,4.8E1,1.802E3,6.04E2,3.67E2,3.96E2,4.57E2,4.24E2,5.19E2,8.77E2,8E0,1.4E1,1.788E3,1.66E2,4.38E2,7E0,7E0,1.03E2,6.3E1,4.12E2,2.6E1,8E0,9.5E1,3.96E2,1.6E1],"tree_param":{"num_deleted":"0","num_feature":"30","num_nodes":"37","size_leaf_vector":"1"}},{"base_weights":[-0E0,-4.957376E-2,6.0811624E-2,-6.824284E-2,-2.8233862E-2,3.1469647E-2,8.667908E-2,-3.8719576E-4,-2.7847337E-3,-1.7801649E-4,2.615502E-3,2.0431168E-2,4.4887666E-2,7.312748E-2,5.667744E-4,-0E0,-3.4596836E-5,2.7399878E-5,-0E0,1.2507881E-2,2.6811266E-2,2.2937304E-4,2.9635723E-4,3.728003E-4,4.4754383E-4,1.3323263E-2,-0E0,-0E0,1.5294904E-4,-0E0,7.847097E-5],"categories":[],"categories_nodes":[],"categories_segments":[],"categories_sizes":[],"default_left":[0,0,0,0,0,0,0,0,0,0,0,0,0,0,0,0,0,0,0,0,0,0,0,0,0,0,0,0,0,0,0],"id":12,"left_children":[1,3,5,7,9,11,13,-1,15,-1,17,19,21,23,-1,-1,-1,-1,-1,25,27,-1,-1,-1,-1,29,-1,-1,-1,-1,-1],"loss_changes":[2.3500881E1,1.6879625E0,2.6306543E0,3.2898903E-2,2.1080923E-1,2.2851527E-1,3.0452347E-1,0E0,1.8402332E-4,0E0,8.165074E-4,3.6993265E-2,2.1818876E-3,7.3838234E-3,0E0,0E0,0E0,0E0,0E0,6.424211E-3,1.416117E-3,0E0,0E0,0E0,0E0,2.1433234E-3,0E0,0E0,0E0,0E0,0E0],"parents":[2147483647,0,0,1,1,2,2,3,3,4,4,5,5,6,6,8,8,10,10,11,11,12,12,13,13,19,19,20,20,25,25],"right_children":[2,4,6,8,10,12,14,-1,16,-1,18,20,22,24,-1,-1,-1,-1,-1,26,28,-1,-1,-1,-1,30,-1,-1,-1,-1,-1],"split_conditions":[7.8782976E-2,1.825506E-2,1.3571538E-1,2.4097814E-1,6.418337E-2,1.0928765E-1,1.6122948E-1,-3.8719576E-4,8.504663E-1,-1.7801649E-4,-4.2000008E-1,9.5428295E-2,1.2428347E-1,1.5379551E-1,5.667744E-4,-0E0,-3.4596836E-5,2.7399878E-5,-0E0,3.975602E-2,-2.2282038E0,2.2937304E-4,2.9635723E-4,3.728003E-4,4.4754383E-4,2.956539E-1,-0E0,-0E0,1.5294904E-4,-0E0,7.847097E-5],"split_indices":[2,2,2,0,2,2,2,0,7,0,23,2,2,2,0,0,0,0,0,11,21,0,0,0,0,0,0,0,0,0,0],"split_type":[0,0,0,0,0,0,0,0,0,0,0,0,0,0,0,0,0,0,0,0,0,0,0,0,0,0,0,0,0,0,0],"sum_hessian":[7.795E3,4.293E3,3.502E3,2.284E3,2.009E3,1.645E3,1.857E3,2.269E3,1.5E1,1.822E3,1.87E2,9.12E2,7.33E2,9.42E2,9.15E2,7E0,8E0,8.9E1,9.8E1,4.23E2,4.89E2,4.89E2,2.44E2,4.54E2,4.88E2,4.09E2,1.4E1,8E0,4.81E2,2.2E1,3.87E2],"tree_param":{"num_deleted":"0","num_feature":"30","num_nodes":"31","size_leaf_vector":"1"}},{"base_weights":[4.758908E-5,-4.932106E-2,6.0525138E-2,-6.7846715E-2,-2.810196E-2,3.1291146E-2,8.622584E-2,-3.84945E-4,-2.7662802E-3,-1.7705951E-4,2.8605566E-3,2.0342233E-2,4.4615906E-2,7.270598E-2,5.6386157E-4,-0E0,-3.440147E-5,2.7593505E-5,-0E0,1.2427004E-2,2.6686197E-2,2.2807789E-4,2.9451775E-4,3.6549318E-4,4.4074224E-4,1.3271371E-2,-0E0,-0E0,1.5222788E-4,-0E0,7.820352E-5],"categories":[],"categories_nodes":[],"categories_segments":[],"categories_sizes":[],"default_left":[0,0,0,0,0,0,0,0,0,0,0,0,0,0,0,0,0,0,0,0,0,0,0,0,0,0,0,0,0,0,0],"id":13,"left_children":[1,3,5,7,9,11,13,-1,15,-1,17,19,21,23,-1,-1,-1,-1,-1,25,27,-1,-1,-1,-1,29,-1,-1,-1,-1,-1],"loss_changes":[2.3273104E1,1.6637659E0,2.6061983E0,3.2338142E-2,2.0872104E-1,2.2479618E-1,3.0309868E-1,0E0,1.8217735E-4,0E0,5.9595716E-4,3.673333E-2,1.8754005E-3,7.1640015E-3,0E0,0E0,0E0,0E0,0E0,5.9865937E-3,1.3823509E-3,0E0,0E0,0E0,0E0,2.1206662E-3,0E0,0E0,0E0,0E0,0E0],"parents":[2147483647,0,0,1,1,2,2,3,3,4,4,5,5,6,6,8,8,10,10,11,11,12,12,13,13,19,19,20,20,25,25],"right_children":[2,4,6,8,10,12,14,-1,16,-1,18,20,22,24,-1,-1,-1,-1,-1,26,28,-1,-1,-1,-1,30,-1,-1,-1,-1,-1],"split_conditions":[7.8782976E-2,1.825506E-2,1.3571538E-1,2.4097814E-1,6.418337E-2,1.0928765E-1,1.6122948E-1,-3.84945E-4,8.504663E-1,-1.7705951E-4,-4.2000008E-1,9.5428295E-2,1.2428347E-1,1.4897951E-1,5.6386157E-4,-0E0,-3.440147E-5,2.7593505E-5,-0E0,2.8247306E-2,-2.2282038E0,2.2807789E-4,2.9451775E-4,3.6549318E-4,4.4074224E-4,2.956539E-1,-0E0,-0E0,1.5222788E-4,-0E0,7.820352E-5],"split_indices":[2,2,2,0,2,2,2,0,7,0,23,2,2,2,0,0,0,0,0,12,21,0,0,0,0,0,0,0,0,0,0],"split_type":[0,0,0,0,0,0,0,0,0,0,0,0,0,0,0,0,0,0,0,0,0,0,0,0,0,0,0,0,0,0,0],"sum_hessian":[7.794E3,4.289E3,3.505E3,2.284E3,2.005E3,1.644E3,1.861E3,2.269E3,1.5E1,1.821E3,1.84E2,9.12E2,7.32E2,9.43E2,9.18E2,7E0,8E0,8.8E1,9.6E1,4.22E2,4.9E2,4.89E2,2.43E2,3.96E2,5.47E2,4.04E2,1.8E1,8E0,4.82E2,2.2E1,3.82E2],"tree_param":{"num_deleted":"0","num_feature":"30","num_nodes":"31","size_leaf_vector":"1"}},{"base_weights":[-0E0,-5.0851118E-2,5.768921E-2,-3.8191068E-4,-3.0753661E-2,2.950211E-2,8.571838E-2,-3.1311393E-2,-0E0,1.6886886E-2,4.3561276E-2,7.286546E-2,9.9212825E-2,-2.9531354E-4,-3.0626003E-2,1.0951531E-2,1.4699149E-4,2.078969E-4,2.7609104E-4,3.6761805E-4,4.4470213E-4,5.6335254E-4,-0E0,-0E0,-1.7384576E-4,1.3110745E-3,1.4083418E-2,-0E0,-3.159564E-5,2.9061174E-3,-0E0,1.4684176E-2,-0E0,-0E0,1.7519158E-5,8.5547435E-5,-0E0],"categories":[],"categories_nodes":[],"categories_segments":[],"categories_sizes":[],"default_left":[0,0,0,0,0,0,0,0,0,0,0,0,0,0,0,0,0,0,0,0,0,0,0,0,0,0,0,0,0,0,0,0,0,0,0,0,0],"id":14,"left_children":[1,3,5,-1,7,9,11,13,-1,15,17,19,21,-1,23,25,-1,-1,-1,-1,-1,-1,-1,27,-1,29,31,-1,-1,33,-1,35,-1,-1,-1,-1,-1],"loss_changes":[2.2836826E1,1.3735485E0,2.8538675E0,0E0,3.208971E-2,3.0914426E-1,2.7649212E-1,7.4876547E-3,0E0,4.40318E-2,1.0824442E-2,9.784222E-3,2.8229713E-2,0E0,4.7808886E-3,1.4639661E-2,0E0,0E0,0E0,0E0,0E0,0E0,0E0,2.1918547E-4,0E0,5.8454915E-4,3.8867667E-3,0E0,0E0,4.464842E-5,0E0,5.662739E-4,0E0,0E0,0E0,0E0,0E0],"parents":[2147483647,0,0,1,1,2,2,4,4,5,5,6,6,7,7,9,9,10,10,11,11,12,12,14,14,15,15,23,23,25,25,26,26,29,29,31,31],"right_children":[2,4,6,-1,8,10,12,14,-1,16,18,20,22,-1,24,26,-1,-1,-1,-1,-1,-1,-1,28,-1,30,32,-1,-1,34,-1,36,-1,-1,-1,-1,-1],"split_conditions":[7.196468E-2,1.9343355E-1,1.3688207E-1,-3.8191068E-4,6.576664E-2,1.051906E-1,1.647414E-1,1.1654729E-2,-0E0,9.6355535E-2,1.1836298E-1,1.5417247E-1,1.00037515E-1,-2.9531354E-4,-7.2508484E-2,2.9236066E-1,1.4699149E-4,2.078969E-4,2.7609104E-4,3.6761805E-4,4.4470213E-4,5.6335254E-4,-0E0,-2.0784967E0,-1.7384576E-4,1.8219625E-3,2.8247306E-2,-0E0,-3.159564E-5,-2.532312E-2,-0E0,3E0,-0E0,-0E0,1.7519158E-5,8.5547435E-5,-0E0],"split_indices":[3,0,3,0,3,3,3,3,0,3,3,3,15,0,11,0,0,0,0,0,0,0,0,29,0,1,12,0,0,9,0,23,0,0,0,0,0],"split_type":[0,0,0,0,0,0,0,0,0,0,0,0,0,0,0,0,0,0,0,0,0,0,0,0,0,0,0,0,0,0,0,0,0,0,0,0,0],"sum_hessian":[7.785E3,4.139E3,3.646E3,2.249E3,1.89E3,1.822E3,1.824E3,1.856E3,3.4E1,9.69E2,8.53E2,9.43E2,8.81E2,4.8E1,1.808E3,6.03E2,3.66E2,3.96E2,4.57E2,4.24E2,5.19E2,8.74E2,7E0,1.4E1,1.794E3,1.66E2,4.37E2,7E0,7E0,1.03E2,6.3E1,4.2E2,1.7E1,8E0,9.5E1,3.97E2,2.3E1],"tree_param":{"num_deleted":"0","num_feature":"30","num_nodes":"37","size_leaf_vector":"1"}},{"base_weights":[-1.436442E-5,-4.872808E-2,5.9803843E-2,-6.708305E-2,-2.7755711E-2,3.0937731E-2,8.5256115E-2,-3.8061192E-4,-2.5665811E-3,-1.7500993E-4,2.5816928E-3,2.0050239E-2,4.414135E-2,7.186418E-2,5.578971E-4,-0E0,-3.305419E-5,3.958809E-3,-0E0,1.2289993E-2,2.632781E-2,2.254675E-4,2.9142745E-4,3.6593457E-4,4.3969636E-4,4.6610236E-3,-0E0,1.3098637E-2,-0E0,-0E0,1.5019404E-4,-0E0,2.8151004E-5,-0E0,7.713231E-5],"categories":[],"categories_nodes":[],"categories_segments":[],"categories_sizes":[],"default_left":[0,0,0,0,0,0,0,0,0,0,0,0,0,0,0,0,0,0,0,0,0,0,0,0,0,0,0,0,0,0,0,0,0,0,0],"id":15,"left_children":[1,3,5,7,9,11,13,-1,15,-1,17,19,21,23,-1,-1,-1,25,-1,27,29,-1,-1,-1,-1,31,-1,33,-1,-1,-1,-1,-1,-1,-1],"loss_changes":[2.2688494E1,1.63099E0,2.5394154E0,3.1591415E-2,2.0409381E-1,2.210288E-1,2.9649925E-1,0E0,1.7534738E-4,0E0,7.910024E-4,3.5335362E-2,1.8174648E-3,6.788254E-3,0E0,0E0,0E0,2.0030816E-4,0E0,6.2822998E-3,1.3357401E-3,0E0,0E0,0E0,0E0,1.2367219E-4,0E0,2.0423234E-3,0E0,0E0,0E0,0E0,0E0,0E0,0E0],"parents":[2147483647,0,0,1,1,2,2,3,3,4,4,5,5,6,6,8,8,10,10,11,11,12,12,13,13,17,17,19,19,20,20,25,25,27,27],"right_children":[2,4,6,8,10,12,14,-1,16,-1,18,20,22,24,-1,-1,-1,26,-1,28,30,-1,-1,-1,-1,32,-1,34,-1,-1,-1,-1,-1,-1,-1],"split_conditions":[7.8782976E-2,1.825506E-2,1.3571538E-1,2.4097814E-1,6.418337E-2,1.0928765E-1,1.6122948E-1,-3.8061192E-4,8.504663E-1,-1.7500993E-4,1.1126265E-2,9.5428295E-2,1.2428347E-1,1.5417247E-1,5.578971E-4,-0E0,-3.305419E-5,3.800001E-1,-0E0,3.975602E-2,-2.2282038E0,2.254675E-4,2.9142745E-4,3.6593457E-4,4.3969636E-4,-1.1079093E-2,-0E0,2.956539E-1,-0E0,-0E0,1.5019404E-4,-0E0,2.8151004E-5,-0E0,7.713231E-5],"split_indices":[2,2,2,0,2,2,2,0,7,0,11,2,2,3,0,0,0,23,0,11,21,0,0,0,0,9,0,0,0,0,0,0,0,0,0],"split_type":[0,0,0,0,0,0,0,0,0,0,0,0,0,0,0,0,0,0,0,0,0,0,0,0,0,0,0,0,0,0,0,0,0,0,0],"sum_hessian":[7.787E3,4.294E3,3.493E3,2.284E3,2.01E3,1.641E3,1.852E3,2.269E3,1.5E1,1.823E3,1.87E2,9.09E2,7.32E2,9.4E2,9.12E2,7E0,8E0,1.3E2,5.7E1,4.23E2,4.86E2,4.88E2,2.44E2,4.5E2,4.9E2,1.03E2,2.7E1,4.09E2,1.4E1,8E0,4.78E2,8E0,9.5E1,2.2E1,3.87E2],"tree_param":{"num_deleted":"0","num_feature":"30","num_nodes":"35","size_leaf_vector":"1"}},{"base_weights":[4.7777776E-5,-4.8451502E-2,5.9509262E-2,-6.6685796E-2,-2.7633123E-2,3.0774482E-2,8.476709E-2,-3.783571E-4,-2.5489542E-3,-1.7401409E-4,2.5195342E-3,1.9984886E-2,4.3918703E-2,7.1508706E-2,5.545195E-4,-0E0,-3.2867578E-5,3.894873E-3,-0E0,1.2207764E-2,2.6238544E-2,2.2435615E-4,2.8978192E-4,3.5924793E-4,4.3363578E-4,4.5870473E-3,-0E0,1.3013593E-2,-0E0,-0E0,1.4945508E-4,-0E0,2.7717255E-5,-0E0,7.662482E-5],"categories":[],"categories_nodes":[],"categories_segments":[],"categories_sizes":[],"default_left":[0,0,0,0,0,0,0,0,0,0,0,0,0,0,0,0,0,0,0,0,0,0,0,0,0,0,0,0,0,0,0,0,0,0,0],"id":16,"left_children":[1,3,5,7,9,11,13,-1,15,-1,17,19,21,23,-1,-1,-1,25,-1,27,29,-1,-1,-1,-1,31,-1,33,-1,-1,-1,-1,-1,-1,-1],"loss_changes":[2.2476322E1,1.6066675E0,2.5156317E0,3.1039238E-2,1.9950902E-1,2.1820629E-1,2.9211426E-1,0E0,1.73613E-4,0E0,7.825459E-4,3.5448253E-2,1.5476942E-3,6.878853E-3,0E0,0E0,0E0,1.892487E-4,0E0,6.2261373E-3,3.3286214E-4,0E0,0E0,0E0,0E0,1.1887564E-4,0E0,2.0034239E-3,0E0,0E0,0E0,0E0,0E0,0E0,0E0],"parents":[2147483647,0,0,1,1,2,2,3,3,4,4,5,5,6,6,8,8,10,10,11,11,12,12,13,13,17,17,19,19,20,20,25,25,27,27],"right_children":[2,4,6,8,10,12,14,-1,16,-1,18,20,22,24,-1,-1,-1,26,-1,28,30,-1,-1,-1,-1,32,-1,34,-1,-1,-1,-1,-1,-1,-1],"split_conditions":[7.8782976E-2,1.825506E-2,1.3571538E-1,2.4097814E-1,6.418337E-2,1.0928765E-1,1.6122948E-1,-3.783571E-4,8.504663E-1,-1.7401409E-4,1.1126265E-2,9.5428295E-2,1.2428347E-1,1.4897951E-1,5.545195E-4,-0E0,-3.2867578E-5,3.800001E-1,-0E0,3.975602E-2,-2.2735536E0,2.2435615E-4,2.8978192E-4,3.5924793E-4,4.3363578E-4,-1.1079093E-2,-0E0,2.956539E-1,-0E0,-0E0,1.4945508E-4,-0E0,2.7717255E-5,-0E0,7.662482E-5],"split_indices":[2,2,2,0,2,2,2,0,7,0,11,2,2,2,0,0,0,23,0,11,28,0,0,0,0,9,0,0,0,0,0,0,0,0,0],"split_type":[0,0,0,0,0,0,0,0,0,0,0,0,0,0,0,0,0,0,0,0,0,0,0,0,0,0,0,0,0,0,0,0,0,0,0],"sum_hessian":[7.793E3,4.29E3,3.503E3,2.281E3,2.009E3,1.643E3,1.86E3,2.266E3,1.5E1,1.824E3,1.85E2,9.12E2,7.31E2,9.45E2,9.15E2,7E0,8E0,1.29E2,5.6E1,4.23E2,4.89E2,4.87E2,2.44E2,3.97E2,5.48E2,1.02E2,2.7E1,4.09E2,1.4E1,8E0,4.81E2,8E0,9.4E1,2.2E1,3.87E2],"tree_param":{"num_deleted":"0","num_feature":"30","num_nodes":"35","size_leaf_vector":"1"}},{"base_weights":[1.6303555E-5,-4.8223287E-2,5.9199795E-2,-6.635433E-2,-2.7462758E-2,3.0619893E-2,8.42882E-2,-3.7647213E-4,-2.5314265E-3,-1.7311065E-4,2.5435197E-3,1.9886531E-2,4.364991E-2,7.1106724E-2,5.512856E-4,-0E0,-3.268201E-5,3.9144442E-3,-0E0,1.2149349E-2,2.6086675E-2,2.228978E-4,2.8814567E-4,3.5728625E-4,4.309278E-4,4.6117995E-3,-0E0,1.2935504E-2,-0E0,-0E0,1.4880867E-4,-0E0,2.7868908E-5,-0E0,1.3489376E-2,7.697341E-5,-0E0],"categories":[],"categories_nodes":[],"categories_segments":[],"categories_sizes":[],"default_left":[0,0,0,0,0,0,0,0,0,0,0,0,0,0,0,0,0,0,0,0,0,0,0,0,0,0,0,0,0,0,0,0,0,0,0,0,0],"id":17,"left_children":[1,3,5,7,9,11,13,-1,15,-1,17,19,21,23,-1,-1,-1,25,-1,27,29,-1,-1,-1,-1,31,-1,33,-1,-1,-1,-1,-1,-1,35,-1,-1],"loss_changes":[2.2234331E1,1.59231E0,2.4822454E0,3.0586243E-2,1.9877112E-1,2.1464336E-1,2.8794193E-1,0E0,1.7189652E-4,0E0,7.73326E-4,3.474766E-2,1.5537739E-3,6.1821938E-3,0E0,0E0,0E0,1.9275723E-4,0E0,6.127104E-3,1.2959242E-3,0E0,0E0,0E0,0E0,1.2050546E-4,0E0,1.9683018E-3,0E0,0E0,0E0,0E0,0E0,0E0,8.620322E-6,0E0,0E0],"parents":[2147483647,0,0,1,1,2,2,3,3,4,4,5,5,6,6,8,8,10,10,11,11,12,12,13,13,17,17,19,19,20,20,25,25,27,27,34,34],"right_children":[2,4,6,8,10,12,14,-1,16,-1,18,20,22,24,-1,-1,-1,26,-1,28,30,-1,-1,-1,-1,32,-1,34,-1,-1,-1,-1,-1,-1,36,-1,-1],"split_conditions":[7.8782976E-2,1.825506E-2,1.3571538E-1,2.4097814E-1,6.418337E-2,1.0928765E-1,1.6122948E-1,-3.7647213E-4,8.504663E-1,-1.7311065E-4,1.1126265E-2,9.5428295E-2,1.2428347E-1,1.4897951E-1,5.512856E-4,-0E0,-3.268201E-5,3.800001E-1,-0E0,3.975602E-2,-2.2282038E0,2.228978E-4,2.8814567E-4,3.5728625E-4,4.309278E-4,-1.1079093E-2,-0E0,2.956539E-1,-0E0,-0E0,1.4880867E-4,-0E0,2.7868908E-5,-0E0,4.049999E0,7.697341E-5,-0E0],"split_indices":[2,2,2,0,2,2,2,0,7,0,11,2,2,2,0,0,0,23,0,11,21,0,0,0,0,9,0,0,0,0,0,0,0,0,23,0,0],"split_type":[0,0,0,0,0,0,0,0,0,0,0,0,0,0,0,0,0,0,0,0,0,0,0,0,0,0,0,0,0,0,0,0,0,0,0,0,0],"sum_hessian":[7.787E3,4.288E3,3.499E3,2.283E3,2.005E3,1.64E3,1.859E3,2.268E3,1.5E1,1.819E3,1.86E2,9.09E2,7.31E2,9.44E2,9.15E2,7E0,8E0,1.29E2,5.7E1,4.21E2,4.88E2,4.87E2,2.44E2,3.95E2,5.49E2,1.02E2,2.7E1,4.08E2,1.3E1,8E0,4.8E2,8E0,9.4E1,2.2E1,3.86E2,3.78E2,8E0],"tree_param":{"num_deleted":"0","num_feature":"30","num_nodes":"37","size_leaf_vector":"1"}},{"base_weights":[-3.067269E-6,-4.793565E-2,5.8885466E-2,-6.596192E-2,-2.7289355E-2,3.0438058E-2,8.383604E-2,-3.742393E-4,-2.5139942E-3,-1.7210167E-4,2.5391525E-3,1.9713204E-2,4.3431256E-2,7.065289E-2,5.4817204E-4,-0E0,-3.2497457E-5,3.8976166E-3,-0E0,1.2041039E-2,2.5895264E-2,2.2181167E-4,2.865187E-4,3.551602E-4,4.2845344E-4,4.5837904E-3,-0E0,1.28450915E-2,-0E0,-0E0,1.4771927E-4,-0E0,2.767819E-5,-0E0,7.5635355E-5],"categories":[],"categories_nodes":[],"categories_segments":[],"categories_sizes":[],"default_left":[0,0,0,0,0,0,0,0,0,0,0,0,0,0,0,0,0,0,0,0,0,0,0,0,0,0,0,0,0,0,0,0,0,0,0],"id":18,"left_children":[1,3,5,7,9,11,13,-1,15,-1,17,19,21,23,-1,-1,-1,25,-1,27,29,-1,-1,-1,-1,31,-1,33,-1,-1,-1,-1,-1,-1,-1],"loss_changes":[2.1977669E1,1.576889E0,2.452074E0,3.004837E-2,1.9756079E-1,2.1334743E-1,2.8525925E-1,0E0,1.701974E-4,0E0,7.692409E-4,3.418222E-2,1.2822151E-3,5.9022903E-3,0E0,0E0,0E0,1.8926337E-4,0E0,6.114166E-3,1.2464523E-3,0E0,0E0,0E0,0E0,1.1855969E-4,0E0,1.9279271E-3,0E0,0E0,0E0,0E0,0E0,0E0,0E0],"parents":[2147483647,0,0,1,1,2,2,3,3,4,4,5,5,6,6,8,8,10,10,11,11,12,12,13,13,17,17,19,19,20,20,25,25,27,27],"right_children":[2,4,6,8,10,12,14,-1,16,-1,18,20,22,24,-1,-1,-1,26,-1,28,30,-1,-1,-1,-1,32,-1,34,-1,-1,-1,-1,-1,-1,-1],"split_conditions":[7.8782976E-2,1.825506E-2,1.3571538E-1,2.4097814E-1,6.418337E-2,1.0928765E-1,1.6122948E-1,-3.742393E-4,8.504663E-1,-1.7210167E-4,1.1126265E-2,9.5428295E-2,1.2428347E-1,1.4897951E-1,5.4817204E-4,-0E0,-3.2497457E-5,3.800001E-1,-0E0,3.975602E-2,-2.2282038E0,2.2181167E-4,2.865187E-4,3.551602E-4,4.2845344E-4,-1.1079093E-2,-0E0,2.956539E-1,-0E0,-0E0,1.4771927E-4,-0E0,2.767819E-5,-0E0,7.5635355E-5],"split_indices":[2,2,2,0,2,2,2,0,7,0,11,2,2,2,0,0,0,23,0,11,21,0,0,0,0,9,0,0,0,0,0,0,0,0,0],"split_type":[0,0,0,0,0,0,0,0,0,0,0,0,0,0,0,0,0,0,0,0,0,0,0,0,0,0,0,0,0,0,0,0,0,0,0],"sum_hessian":[7.787E3,4.295E3,3.492E3,2.287E3,2.008E3,1.636E3,1.856E3,2.272E3,1.5E1,1.821E3,1.87E2,9.06E2,7.3E2,9.39E2,9.17E2,7E0,8E0,1.3E2,5.7E1,4.21E2,4.85E2,4.86E2,2.44E2,3.96E2,5.43E2,1.03E2,2.7E1,4.07E2,1.4E1,8E0,4.77E2,8E0,9.5E1,2.2E1,3.85E2],"tree_param":{"num_deleted":"0","num_feature":"30","num_nodes":"35","size_leaf_vector":"1"}},{"base_weights":[8.818856E-6,-4.7679543E-2,5.8486443E-2,-6.558106E-2,-2.7170137E-2,3.0238898E-2,8.33254E-2,-1.2702171E-5,-3.7145484E-4,-1.7120386E-4,2.7338078E-3,1.966057E-2,4.3137185E-2,7.032089E-2,5.450615E-4,4.2117266E-3,-0E0,1.2002155E-2,2.5811544E-2,2.204354E-4,2.8482004E-4,3.5326596E-4,4.2627048E-4,-0E0,2.6746693E-5,1.2800946E-2,-0E0,-0E0,1.4722618E-4,7.309555E-5,-0E0],"categories":[],"categories_nodes":[],"categories_segments":[],"categories_sizes":[],"default_left":[0,0,0,0,0,0,0,0,0,0,0,0,0,0,0,0,0,0,0,0,0,0,0,0,0,0,0,0,0,0,0],"id":19,"left_children":[1,3,5,7,9,11,13,-1,-1,-1,15,17,19,21,-1,23,-1,25,27,-1,-1,-1,-1,-1,-1,29,-1,-1,-1,-1,-1],"loss_changes":[2.1718128E1,1.5524797E0,2.4294262E0,1.3827324E-2,1.9519627E-1,2.0948935E-1,2.8044415E-1,0E0,0E0,0E0,8.776466E-4,3.420058E-2,1.1194944E-3,5.9304237E-3,0E0,2.1541398E-4,0E0,6.086584E-3,1.2245774E-3,0E0,0E0,0E0,0E0,0E0,0E0,1.3194978E-5,0E0,0E0,0E0,0E0,0E0],"parents":[2147483647,0,0,1,1,2,2,3,3,4,4,5,5,6,6,10,10,11,11,12,12,13,13,15,15,17,17,18,18,25,25],"right_children":[2,4,6,8,10,12,14,-1,-1,-1,16,18,20,22,-1,24,-1,26,28,-1,-1,-1,-1,-1,-1,30,-1,-1,-1,-1,-1],"split_conditions":[7.8782976E-2,1.825506E-2,1.3571538E-1,-5.525253E-1,6.418337E-2,1.0928765E-1,1.6122948E-1,-1.2702171E-5,-3.7145484E-4,-1.7120386E-4,1.1126265E-2,9.5428295E-2,1.2428347E-1,1.4897951E-1,5.450615E-4,-1.1079093E-2,-0E0,3.975602E-2,-2.2282038E0,2.204354E-4,2.8482004E-4,3.5326596E-4,4.2627048E-4,-0E0,2.6746693E-5,4.049999E0,-0E0,-0E0,1.4722618E-4,7.309555E-5,-0E0],"split_indices":[2,2,2,4,2,2,2,0,0,0,11,2,2,2,0,9,0,11,21,0,0,0,0,0,0,23,0,0,0,0,0],"split_type":[0,0,0,0,0,0,0,0,0,0,0,0,0,0,0,0,0,0,0,0,0,0,0,0,0,0,0,0,0,0,0],"sum_hessian":[7.787E3,4.287E3,3.5E3,2.283E3,2.004E3,1.642E3,1.858E3,1.1E1,2.272E3,1.82E3,1.84E2,9.12E2,7.3E2,9.45E2,9.13E2,1.27E2,5.7E1,4.23E2,4.89E2,4.88E2,2.42E2,3.96E2,5.49E2,1.7E1,1.1E2,4.09E2,1.4E1,8E0,4.81E2,4E2,9E0],"tree_param":{"num_deleted":"0","num_feature":"30","num_nodes":"31","size_leaf_vector":"1"}},{"base_weights":[2.6136808E-5,-4.737272E-2,5.821687E-2,-6.5235265E-2,-2.697769E-2,3.0114891E-2,8.284205E-2,-3.7011952E-4,-2.3404583E-3,-1.701241E-4,2.508928E-3,1.9578502E-2,4.2949498E-2,6.989139E-2,5.419352E-4,-0E0,-3.0976204E-5,3.85414E-3,-0E0,1.1941273E-2,2.5651876E-2,2.1929764E-4,2.8329267E-4,3.562565E-4,4.2783128E-4,4.533591E-3,-0E0,1.2743866E-2,-0E0,-0E0,1.4630659E-4,-0E0,2.7370874E-5,-0E0,1.3293641E-2,7.5858065E-5,-0E0],"categories":[],"categories_nodes":[],"categories_segments":[],"categories_sizes":[],"default_left":[0,0,0,0,0,0,0,0,0,0,0,0,0,0,0,0,0,0,0,0,0,0,0,0,0,0,0,0,0,0,0,0,0,0,0,0,0],"id":20,"left_children":[1,3,5,7,9,11,13,-1,15,-1,17,19,21,23,-1,-1,-1,25,-1,27,29,-1,-1,-1,-1,31,-1,33,-1,-1,-1,-1,-1,-1,35,-1,-1],"loss_changes":[2.1494207E1,1.5422411E0,2.3958864E0,2.9332161E-2,1.9319856E-1,2.0715606E-1,2.7816868E-1,0E0,1.5860435E-4,0E0,7.5395964E-4,3.349957E-2,1.0242462E-3,5.6295395E-3,0E0,0E0,0E0,1.8593483E-4,0E0,6.0474128E-3,1.1837184E-3,0E0,0E0,0E0,0E0,1.1529215E-4,0E0,1.9239336E-3,0E0,0E0,0E0,0E0,0E0,0E0,3.643334E-6,0E0,0E0],"parents":[2147483647,0,0,1,1,2,2,3,3,4,4,5,5,6,6,8,8,10,10,11,11,12,12,13,13,17,17,19,19,20,20,25,25,27,27,34,34],"right_children":[2,4,6,8,10,12,14,-1,16,-1,18,20,22,24,-1,-1,-1,26,-1,28,30,-1,-1,-1,-1,32,-1,34,-1,-1,-1,-1,-1,-1,36,-1,-1],"split_conditions":[7.8782976E-2,1.825506E-2,1.3571538E-1,2.4097814E-1,6.418337E-2,1.0928765E-1,1.6122948E-1,-3.7011952E-4,8.504663E-1,-1.701241E-4,1.1126265E-2,9.5428295E-2,1.2428347E-1,1.5379551E-1,5.419352E-4,-0E0,-3.0976204E-5,3.800001E-1,-0E0,3.975602E-2,-2.2282038E0,2.1929764E-4,2.8329267E-4,3.562565E-4,4.2783128E-4,-1.1079093E-2,-0E0,2.956539E-1,-0E0,-0E0,1.4630659E-4,-0E0,2.7370874E-5,-0E0,4.049999E0,7.5858065E-5,-0E0],"split_indices":[2,2,2,0,2,2,2,0,7,0,11,2,2,2,0,0,0,23,0,11,21,0,0,0,0,9,0,0,0,0,0,0,0,0,23,0,0],"split_type":[0,0,0,0,0,0,0,0,0,0,0,0,0,0,0,0,0,0,0,0,0,0,0,0,0,0,0,0,0,0,0,0,0,0,0,0,0],"sum_hessian":[7.792E3,4.292E3,3.5E3,2.282E3,2.01E3,1.639E3,1.861E3,2.267E3,1.5E1,1.823E3,1.87E2,9.1E2,7.29E2,9.46E2,9.15E2,7E0,8E0,1.3E2,5.7E1,4.2E2,4.9E2,4.85E2,2.44E2,4.57E2,4.89E2,1.03E2,2.7E1,4.06E2,1.4E1,8E0,4.82E2,8E0,9.5E1,2.2E1,3.84E2,3.76E2,8E0],"tree_param":{"num_deleted":"0","num_feature":"30","num_nodes":"37","size_leaf_vector":"1"}},{"base_weights":[4.3427488E-5,-4.7117587E-2,5.7892915E-2,-6.4855136E-2,-2.6826624E-2,2.9934153E-2,8.238067E-2,-3.6795804E-4,-2.3239362E-3,-1.6919502E-4,2.4950218E-3,1.9403571E-2,4.2680167E-2,6.9505416E-2,5.388887E-4,-2.0486375E-5,-0E0,3.8341363E-3,-0E0,1.18677365E-2,2.5498366E-2,2.1795902E-4,2.8169306E-4,3.491904E-4,4.2131063E-4,4.508344E-3,-0E0,1.2661926E-2,-0E0,-0E0,1.4544062E-4,-0E0,2.7216312E-5,-0E0,7.454867E-5],"categories":[],"categories_nodes":[],"categories_segments":[],"categories_sizes":[],"default_left":[0,0,0,0,0,0,0,0,0,0,0,0,0,0,0,0,0,0,0,0,0,0,0,0,0,0,0,0,0,0,0,0,0,0,0],"id":21,"left_children":[1,3,5,7,9,11,13,-1,15,-1,17,19,21,23,-1,-1,-1,25,-1,27,29,-1,-1,-1,-1,31,-1,33,-1,-1,-1,-1,-1,-1,-1],"loss_changes":[2.126913E1,1.5235004E0,2.3722992E0,2.8820992E-2,1.9114006E-1,2.0574188E-1,2.7500343E-1,0E0,2.4301262E-5,0E0,7.4697926E-4,3.304681E-2,1.0217428E-3,5.4655075E-3,0E0,0E0,0E0,1.8241454E-4,0E0,5.9960075E-3,1.1452138E-3,0E0,0E0,0E0,0E0,1.13665126E-4,0E0,1.8866286E-3,0E0,0E0,0E0,0E0,0E0,0E0,0E0],"parents":[2147483647,0,0,1,1,2,2,3,3,4,4,5,5,6,6,8,8,10,10,11,11,12,12,13,13,17,17,19,19,20,20,25,25,27,27],"right_children":[2,4,6,8,10,12,14,-1,16,-1,18,20,22,24,-1,-1,-1,26,-1,28,30,-1,-1,-1,-1,32,-1,34,-1,-1,-1,-1,-1,-1,-1],"split_conditions":[7.8782976E-2,1.825506E-2,1.3571538E-1,2.4097814E-1,6.418337E-2,1.0928765E-1,1.6122948E-1,-3.6795804E-4,-2.4824562E-3,-1.6919502E-4,1.1126265E-2,9.5428295E-2,1.2428347E-1,1.4897951E-1,5.388887E-4,-2.0486375E-5,-0E0,3.800001E-1,-0E0,3.975602E-2,-2.2282038E0,2.1795902E-4,2.8169306E-4,3.491904E-4,4.2131063E-4,-1.1079093E-2,-0E0,2.956539E-1,-0E0,-0E0,1.4544062E-4,-0E0,2.7216312E-5,-0E0,7.454867E-5],"split_indices":[2,2,2,0,2,2,2,0,9,0,11,2,2,2,0,0,0,23,0,11,21,0,0,0,0,9,0,0,0,0,0,0,0,0,0],"split_type":[0,0,0,0,0,0,0,0,0,0,0,0,0,0,0,0,0,0,0,0,0,0,0,0,0,0,0,0,0,0,0,0,0,0,0],"sum_hessian":[7.795E3,4.292E3,3.503E3,2.284E3,2.008E3,1.64E3,1.863E3,2.269E3,1.5E1,1.821E3,1.87E2,9.08E2,7.32E2,9.47E2,9.16E2,8E0,7E0,1.3E2,5.7E1,4.23E2,4.85E2,4.88E2,2.44E2,3.97E2,5.5E2,1.03E2,2.7E1,4.09E2,1.4E1,8E0,4.77E2,8E0,9.5E1,2.2E1,3.87E2],"tree_param":{"num_deleted":"0","num_feature":"30","num_nodes":"35","size_leaf_vector":"1"}},{"base_weights":[-0E0,-4.687744E-2,5.7481114E-2,-6.449029E-2,-2.6723346E-2,2.9740322E-2,8.190209E-2,-3.658817E-4,-2.3130088E-3,-1.6824523E-4,2.5339867E-3,1.9321753E-2,4.2435903E-2,6.910456E-2,5.359749E-4,-0E0,-3.0714513E-5,3.8357237E-3,-0E0,1.13539845E-2,2.5002994E-2,2.166384E-4,2.801025E-4,3.5168906E-4,4.2277802E-4,-0E0,4.2944625E-3,1.2168751E-2,-0E0,-0E0,1.4266324E-4,2.6199485E-5,-0E0,-0E0,7.1991104E-5],"categories":[],"categories_nodes":[],"categories_segments":[],"categories_sizes":[],"default_left":[0,0,0,0,0,0,0,0,0,0,0,0,0,0,0,0,0,0,0,0,0,0,0,0,0,0,0,0,0,0,0,0,0,0,0],"id":22,"left_children":[1,3,5,7,9,11,13,-1,15,-1,17,19,21,23,-1,-1,-1,25,-1,27,29,-1,-1,-1,-1,-1,31,33,-1,-1,-1,-1,-1,-1,-1],"loss_changes":[2.1017912E1,1.5048866E0,2.34659E0,2.8324127E-2,1.8714213E-1,2.0314348E-1,2.7159882E-1,0E0,1.5646953E-4,0E0,7.16469E-4,3.290537E-2,9.456873E-4,5.449295E-3,0E0,0E0,0E0,1.6760186E-4,0E0,5.683705E-3,2.3551583E-3,0E0,0E0,0E0,0E0,0E0,1.9506202E-4,1.8213391E-3,0E0,0E0,0E0,0E0,0E0,0E0,0E0],"parents":[2147483647,0,0,1,1,2,2,3,3,4,4,5,5,6,6,8,8,10,10,11,11,12,12,13,13,17,17,19,19,20,20,26,26,27,27],"right_children":[2,4,6,8,10,12,14,-1,16,-1,18,20,22,24,-1,-1,-1,26,-1,28,30,-1,-1,-1,-1,-1,32,34,-1,-1,-1,-1,-1,-1,-1],"split_conditions":[7.8782976E-2,1.825506E-2,1.3571538E-1,2.4097814E-1,6.418337E-2,1.0928765E-1,1.6122948E-1,-3.658817E-4,8.504663E-1,-1.6824523E-4,1.1126265E-2,9.135106E-2,1.2428347E-1,1.5417247E-1,5.359749E-4,-0E0,-3.0714513E-5,-1.1079093E-2,-0E0,3.975602E-2,-2.337644E0,2.166384E-4,2.801025E-4,3.5168906E-4,4.2277802E-4,-0E0,2.5820088E-2,2.9923865E-1,-0E0,-0E0,1.4266324E-4,2.6199485E-5,-0E0,-0E0,7.1991104E-5],"split_indices":[2,2,2,0,2,2,2,0,7,0,11,2,2,3,0,0,0,9,0,11,21,0,0,0,0,0,16,0,0,0,0,0,0,0,0],"split_type":[0,0,0,0,0,0,0,0,0,0,0,0,0,0,0,0,0,0,0,0,0,0,0,0,0,0,0,0,0,0,0,0,0,0,0],"sum_hessian":[7.801E3,4.299E3,3.502E3,2.288E3,2.011E3,1.644E3,1.858E3,2.273E3,1.5E1,1.827E3,1.84E2,9.13E2,7.31E2,9.46E2,9.12E2,7E0,8E0,1.29E2,5.5E1,3.97E2,5.16E2,4.87E2,2.44E2,4.52E2,4.94E2,1.7E1,1.12E2,3.84E2,1.3E1,7E0,5.09E2,1.05E2,7E0,2.3E1,3.61E2],"tree_param":{"num_deleted":"0","num_feature":"30","num_nodes":"35","size_leaf_vector":"1"}},{"base_weights":[-0E0,-4.6594642E-2,5.721563E-2,-6.411936E-2,-2.653336E-2,2.9546667E-2,8.147798E-2,-3.6377253E-4,-2.2966296E-3,-1.67314E-4,2.466346E-3,1.9220028E-2,4.2161945E-2,6.871828E-2,5.329589E-4,-0E0,-3.054111E-5,2.5889218E-5,-0E0,1.1717388E-2,2.5223972E-2,2.1514585E-4,2.78519E-4,3.4522483E-4,4.1657238E-4,1.250678E-2,-0E0,-0E0,1.438537E-4,-0E0,1.3038816E-2,7.439893E-5,-0E0],"categories":[],"categories_nodes":[],"categories_segments":[],"categories_sizes":[],"default_left":[0,0,0,0,0,0,0,0,0,0,0,0,0,0,0,0,0,0,0,0,0,0,0,0,0,0,0,0,0,0,0,0,0],"id":23,"left_children":[1,3,5,7,9,11,13,-1,15,-1,17,19,21,23,-1,-1,-1,-1,-1,25,27,-1,-1,-1,-1,29,-1,-1,-1,-1,31,-1,-1],"loss_changes":[2.0813972E1,1.4914436E0,2.3272333E0,2.7832985E-2,1.8707883E-1,1.9968796E-1,2.6911068E-1,0E0,1.5493669E-4,0E0,7.3352875E-4,3.25678E-2,9.4401836E-4,5.0005913E-3,0E0,0E0,0E0,0E0,0E0,5.8988854E-3,1.0909736E-3,0E0,0E0,0E0,0E0,1.8185526E-3,0E0,0E0,0E0,0E0,5.5134296E-6,0E0,0E0],"parents":[2147483647,0,0,1,1,2,2,3,3,4,4,5,5,6,6,8,8,10,10,11,11,12,12,13,13,19,19,20,20,25,25,30,30],"right_children":[2,4,6,8,10,12,14,-1,16,-1,18,20,22,24,-1,-1,-1,-1,-1,26,28,-1,-1,-1,-1,30,-1,-1,-1,-1,32,-1,-1],"split_conditions":[7.8782976E-2,1.825506E-2,1.3571538E-1,2.4097814E-1,6.418337E-2,1.0928765E-1,1.6122948E-1,-3.6377253E-4,8.504663E-1,-1.67314E-4,-4.2000008E-1,9.5428295E-2,1.2428347E-1,1.4897951E-1,5.329589E-4,-0E0,-3.054111E-5,2.5889218E-5,-0E0,3.975602E-2,-2.2282038E0,2.1514585E-4,2.78519E-4,3.4522483E-4,4.1657238E-4,2.956539E-1,-0E0,-0E0,1.438537E-4,-0E0,4.049999E0,7.439893E-5,-0E0],"split_indices":[2,2,2,0,2,2,2,0,7,0,23,2,2,2,0,0,0,0,0,11,21,0,0,0,0,0,0,0,0,0,23,0,0],"split_type":[0,0,0,0,0,0,0,0,0,0,0,0,0,0,0,0,0,0,0,0,0,0,0,0,0,0,0,0,0,0,0,0,0],"sum_hessian":[7.807E3,4.302E3,3.505E3,2.29E3,2.012E3,1.642E3,1.863E3,2.275E3,1.5E1,1.825E3,1.87E2,9.13E2,7.29E2,9.46E2,9.17E2,7E0,8E0,8.9E1,9.8E1,4.23E2,4.9E2,4.86E2,2.43E2,3.97E2,5.49E2,4.09E2,1.4E1,8E0,4.82E2,2.2E1,3.87E2,3.79E2,8E0],"tree_param":{"num_deleted":"0","num_feature":"30","num_nodes":"33","size_leaf_vector":"1"}},{"base_weights":[-0E0,-4.6329852E-2,5.686945E-2,-6.3756585E-2,-2.6366387E-2,2.9423552E-2,8.0998175E-2,-1.0929036E-5,-6.395358E-2,-1.6630566E-4,2.4540236E-3,1.9114094E-2,4.200317E-2,6.833143E-2,5.298686E-4,-3.618297E-4,-0E0,3.7761575E-3,-0E0,1.1217076E-2,2.4725597E-2,2.1440675E-4,2.7730767E-4,3.4788094E-4,4.180331E-4,4.439236E-3,-0E0,6.792281E-5,-0E0,-0E0,1.4107623E-4,-0E0,2.6797858E-5],"categories":[],"categories_nodes":[],"categories_segments":[],"categories_sizes":[],"default_left":[0,0,0,0,0,0,0,0,0,0,0,0,0,0,0,0,0,0,0,0,0,0,0,0,0,0,0,0,0,0,0,0,0],"id":24,"left_children":[1,3,5,7,9,11,13,-1,15,-1,17,19,21,23,-1,-1,-1,25,-1,27,29,-1,-1,-1,-1,31,-1,-1,-1,-1,-1,-1,-1],"loss_changes":[2.0532028E1,1.473342E0,2.2909136E0,1.258564E-2,1.8489373E-1,1.986599E-1,2.6452255E-1,0E0,8.405685E-3,0E0,7.275614E-4,3.2087266E-2,7.146597E-4,4.757881E-3,0E0,0E0,0E0,1.7608528E-4,0E0,5.5960454E-3,2.2841096E-3,0E0,0E0,0E0,0E0,1.1000596E-4,0E0,0E0,0E0,0E0,0E0,0E0,0E0],"parents":[2147483647,0,0,1,1,2,2,3,3,4,4,5,5,6,6,8,8,10,10,11,11,12,12,13,13,17,17,19,19,20,20,25,25],"right_children":[2,4,6,8,10,12,14,-1,16,-1,18,20,22,24,-1,-1,-1,26,-1,28,30,-1,-1,-1,-1,32,-1,-1,-1,-1,-1,-1,-1],"split_conditions":[7.8782976E-2,1.825506E-2,1.3571538E-1,-5.525253E-1,6.418337E-2,1.0928765E-1,1.6122948E-1,-1.0929036E-5,3.6559153E-2,-1.6630566E-4,1.1126265E-2,9.135106E-2,1.2428347E-1,1.5417247E-1,5.298686E-4,-3.618297E-4,-0E0,3.800001E-1,-0E0,3.975602E-2,-2.337644E0,2.1440675E-4,2.7730767E-4,3.4788094E-4,4.180331E-4,-1.1079093E-2,-0E0,6.792281E-5,-0E0,-0E0,1.4107623E-4,-0E0,2.6797858E-5],"split_indices":[2,2,2,4,2,2,2,0,3,0,11,2,2,3,0,0,0,23,0,11,21,0,0,0,0,9,0,0,0,0,0,0,0],"split_type":[0,0,0,0,0,0,0,0,0,0,0,0,0,0,0,0,0,0,0,0,0,0,0,0,0,0,0,0,0,0,0,0,0],"sum_hessian":[7.793E3,4.295E3,3.498E3,2.287E3,2.008E3,1.641E3,1.857E3,1.1E1,2.276E3,1.821E3,1.87E2,9.12E2,7.29E2,9.44E2,9.13E2,2.269E3,7E0,1.3E2,5.7E1,3.96E2,5.16E2,4.86E2,2.43E2,4.52E2,4.92E2,1.03E2,2.7E1,3.83E2,1.3E1,7E0,5.09E2,8E0,9.5E1],"tree_param":{"num_deleted":"0","num_feature":"30","num_nodes":"33","size_leaf_vector":"1"}},{"base_weights":[-6.839994E-7,-4.6065826E-2,5.6565765E-2,-6.340691E-2,-2.622956E-2,2.924843E-2,8.0579095E-2,-3.5972896E-4,-2.2014184E-3,-1.6541732E-4,2.4404086E-3,1.9004563E-2,4.1700803E-2,6.796052E-2,5.269861E-4,-0E0,-2.9579396E-5,3.7565732E-3,-0E0,1.1606972E-2,2.49269E-2,2.1300078E-4,2.750902E-4,3.463804E-4,4.1594845E-4,4.414518E-3,-0E0,1.2394855E-2,-0E0,-0E0,1.4217712E-4,-0E0,2.6646534E-5,-0E0,1.2925761E-2,7.375723E-5,-0E0],"categories":[],"categories_nodes":[],"categories_segments":[],"categories_sizes":[],"default_left":[0,0,0,0,0,0,0,0,0,0,0,0,0,0,0,0,0,0,0,0,0,0,0,0,0,0,0,0,0,0,0,0,0,0,0,0,0],"id":25,"left_children":[1,3,5,7,9,11,13,-1,15,-1,17,19,21,23,-1,-1,-1,25,-1,27,29,-1,-1,-1,-1,31,-1,33,-1,-1,-1,-1,-1,-1,35,-1,-1],"loss_changes":[2.0306717E1,1.4576674E0,2.2678623E0,2.70195E-2,1.8301141E-1,1.9513476E-1,2.612753E-1,0E0,1.468524E-4,0E0,7.208444E-4,3.140378E-2,3.527403E-4,4.2738914E-3,0E0,0E0,0E0,1.7272215E-4,0E0,5.8294386E-3,1.7498732E-3,0E0,0E0,0E0,0E0,1.0844902E-4,0E0,1.8090308E-3,0E0,0E0,0E0,0E0,0E0,0E0,7.800758E-6,0E0,0E0],"parents":[2147483647,0,0,1,1,2,2,3,3,4,4,5,5,6,6,8,8,10,10,11,11,12,12,13,13,17,17,19,19,20,20,25,25,27,27,34,34],"right_children":[2,4,6,8,10,12,14,-1,16,-1,18,20,22,24,-1,-1,-1,26,-1,28,30,-1,-1,-1,-1,32,-1,34,-1,-1,-1,-1,-1,-1,36,-1,-1],"split_conditions":[7.8782976E-2,1.825506E-2,1.3571538E-1,2.4097814E-1,6.418337E-2,1.0928765E-1,1.6122948E-1,-3.5972896E-4,8.504663E-1,-1.6541732E-4,1.1126265E-2,9.5428295E-2,1.2428347E-1,1.5379551E-1,5.269861E-4,-0E0,-2.9579396E-5,3.800001E-1,-0E0,3.975602E-2,-2.2282038E0,2.1300078E-4,2.750902E-4,3.463804E-4,4.1594845E-4,-1.1079093E-2,-0E0,2.956539E-1,-0E0,-0E0,1.4217712E-4,-0E0,2.6646534E-5,-0E0,4.049999E0,7.375723E-5,-0E0],"split_indices":[2,2,2,0,2,2,2,0,7,0,11,2,2,2,0,0,0,23,0,11,21,0,0,0,0,9,0,0,0,0,0,0,0,0,23,0,0],"split_type":[0,0,0,0,0,0,0,0,0,0,0,0,0,0,0,0,0,0,0,0,0,0,0,0,0,0,0,0,0,0,0,0,0,0,0,0,0],"sum_hessian":[7.794E3,4.298E3,3.496E3,2.287E3,2.011E3,1.64E3,1.856E3,2.272E3,1.5E1,1.824E3,1.87E2,9.1E2,7.3E2,9.42E2,9.14E2,7E0,8E0,1.3E2,5.7E1,4.22E2,4.88E2,4.87E2,2.43E2,4.55E2,4.87E2,1.03E2,2.7E1,4.08E2,1.4E1,7E0,4.81E2,8E0,9.5E1,2.2E1,3.86E2,3.78E2,8E0],"tree_param":{"num_deleted":"0","num_feature":"30","num_nodes":"37","size_leaf_vector":"1"}},{"base_weights":[-0E0,-4.5819994E-2,5.627209E-2,-6.3044995E-2,-2.607897E-2,2.9069832E-2,8.011769E-2,-3.5767106E-4,-2.1856432E-3,-1.644909E-4,2.4268734E-3,1.8894566E-2,4.148464E-2,6.755935E-2,5.2387326E-4,-0E0,-2.9412384E-5,3.7371032E-3,-0E0,1.1092846E-2,2.4443688E-2,2.117177E-4,2.738095E-4,3.3934746E-4,4.0970082E-4,4.389944E-3,-0E0,1.1900877E-2,-0E0,-0E0,1.3946622E-4,-0E0,2.6496095E-5,-0E0,7.0415546E-5],"categories":[],"categories_nodes":[],"categories_segments":[],"categories_sizes":[],"default_left":[0,0,0,0,0,0,0,0,0,0,0,0,0,0,0,0,0,0,0,0,0,0,0,0,0,0,0,0,0,0,0,0,0,0,0],"id":26,"left_children":[1,3,5,7,9,11,13,-1,15,-1,17,19,21,23,-1,-1,-1,25,-1,27,29,-1,-1,-1,-1,31,-1,33,-1,-1,-1,-1,-1,-1,-1],"loss_changes":[2.0103283E1,1.4408398E0,2.2443428E0,2.654934E-2,1.8101764E-1,1.9305623E-1,2.5861263E-1,0E0,1.4541828E-4,0E0,7.141967E-4,3.1206489E-2,4.2772293E-4,4.4374466E-3,0E0,0E0,0E0,1.6940432E-4,0E0,5.516339E-3,2.2129416E-3,0E0,0E0,0E0,0E0,1.06912106E-4,0E0,1.7428249E-3,0E0,0E0,0E0,0E0,0E0,0E0,0E0],"parents":[2147483647,0,0,1,1,2,2,3,3,4,4,5,5,6,6,8,8,10,10,11,11,12,12,13,13,17,17,19,19,20,20,25,25,27,27],"right_children":[2,4,6,8,10,12,14,-1,16,-1,18,20,22,24,-1,-1,-1,26,-1,28,30,-1,-1,-1,-1,32,-1,34,-1,-1,-1,-1,-1,-1,-1],"split_conditions":[7.8782976E-2,1.825506E-2,1.3571538E-1,2.4097814E-1,6.418337E-2,1.0928765E-1,1.6122948E-1,-3.5767106E-4,8.504663E-1,-1.644909E-4,1.1126265E-2,9.135106E-2,1.2428347E-1,1.4897951E-1,5.2387326E-4,-0E0,-2.9412384E-5,3.800001E-1,-0E0,3.975602E-2,-2.337644E0,2.117177E-4,2.738095E-4,3.3934746E-4,4.0970082E-4,-1.1079093E-2,-0E0,2.9923865E-1,-0E0,-0E0,1.3946622E-4,-0E0,2.6496095E-5,-0E0,7.0415546E-5],"split_indices":[2,2,2,0,2,2,2,0,7,0,11,2,2,2,0,0,0,23,0,11,21,0,0,0,0,9,0,0,0,0,0,0,0,0,0],"split_type":[0,0,0,0,0,0,0,0,0,0,0,0,0,0,0,0,0,0,0,0,0,0,0,0,0,0,0,0,0,0,0,0,0,0,0],"sum_hessian":[7.797E3,4.298E3,3.499E3,2.289E3,2.009E3,1.639E3,1.86E3,2.274E3,1.5E1,1.822E3,1.87E2,9.11E2,7.28E2,9.43E2,9.17E2,7E0,8E0,1.3E2,5.7E1,3.96E2,5.15E2,4.85E2,2.43E2,3.97E2,5.46E2,1.03E2,2.7E1,3.83E2,1.3E1,7E0,5.08E2,8E0,9.5E1,2.3E1,3.6E2],"tree_param":{"num_deleted":"0","num_feature":"30","num_nodes":"35","size_leaf_vector":"1"}},{"base_weights":[-1.0831961E-5,-4.556823E-2,5.585739E-2,-6.268495E-2,-2.5949335E-2,2.8886495E-2,7.9608195E-2,-3.55626E-4,-2.1699555E-3,-1.635797E-4,2.398791E-3,1.8793557E-2,4.122293E-2,6.7194074E-2,5.207782E-4,-0E0,-2.9246297E-5,3.7067693E-3,-0E0,1.1461166E-2,2.46655E-2,2.1047276E-4,2.72213E-4,3.4204198E-4,4.110112E-4,4.357981E-3,-0E0,1.2240567E-2,-0E0,-0E0,1.4065453E-4,-0E0,2.6318434E-5,-0E0,1.2759987E-2,7.280476E-5,-0E0],"categories":[],"categories_nodes":[],"categories_segments":[],"categories_sizes":[],"default_left":[0,0,0,0,0,0,0,0,0,0,0,0,0,0,0,0,0,0,0,0,0,0,0,0,0,0,0,0,0,0,0,0,0,0,0,0,0],"id":27,"left_children":[1,3,5,7,9,11,13,-1,15,-1,17,19,21,23,-1,-1,-1,25,-1,27,29,-1,-1,-1,-1,31,-1,33,-1,-1,-1,-1,-1,-1,35,-1,-1],"loss_changes":[1.9837536E1,1.4221096E0,2.2162542E0,2.6085854E-2,1.7812598E-1,1.9066656E-1,2.539072E-1,0E0,1.439986E-4,0E0,7.02198E-4,3.0982733E-2,3.0112267E-4,4.10223E-3,0E0,0E0,0E0,1.6470673E-4,0E0,5.734984E-3,9.830296E-4,0E0,0E0,0E0,0E0,1.0501954E-4,0E0,1.7422028E-3,0E0,0E0,0E0,0E0,0E0,0E0,3.1888485E-6,0E0,0E0],"parents":[2147483647,0,0,1,1,2,2,3,3,4,4,5,5,6,6,8,8,10,10,11,11,12,12,13,13,17,17,19,19,20,20,25,25,27,27,34,34],"right_children":[2,4,6,8,10,12,14,-1,16,-1,18,20,22,24,-1,-1,-1,26,-1,28,30,-1,-1,-1,-1,32,-1,34,-1,-1,-1,-1,-1,-1,36,-1,-1],"split_conditions":[7.8782976E-2,1.825506E-2,1.3571538E-1,2.4097814E-1,6.418337E-2,1.0928765E-1,1.6122948E-1,-3.55626E-4,8.504663E-1,-1.635797E-4,1.1126265E-2,9.5428295E-2,1.2428347E-1,1.5417247E-1,5.207782E-4,-0E0,-2.9246297E-5,3.800001E-1,-0E0,3.975602E-2,-2.2282038E0,2.1047276E-4,2.72213E-4,3.4204198E-4,4.110112E-4,-1.1079093E-2,-0E0,2.956539E-1,-0E0,-0E0,1.4065453E-4,-0E0,2.6318434E-5,-0E0,4.049999E0,7.280476E-5,-0E0],"split_indices":[2,2,2,0,2,2,2,0,7,0,11,2,2,3,0,0,0,23,0,11,21,0,0,0,0,9,0,0,0,0,0,0,0,0,23,0,0],"split_type":[0,0,0,0,0,0,0,0,0,0,0,0,0,0,0,0,0,0,0,0,0,0,0,0,0,0,0,0,0,0,0,0,0,0,0,0,0],"sum_hessian":[7.795E3,4.296E3,3.499E3,2.288E3,2.008E3,1.643E3,1.856E3,2.273E3,1.5E1,1.822E3,1.86E2,9.14E2,7.29E2,9.45E2,9.11E2,7E0,8E0,1.29E2,5.7E1,4.24E2,4.9E2,4.87E2,2.42E2,4.52E2,4.93E2,1.02E2,2.7E1,4.1E2,1.4E1,8E0,4.82E2,8E0,9.4E1,2.2E1,3.88E2,3.8E2,8E0],"tree_param":{"num_deleted":"0","num_feature":"30","num_nodes":"37","size_leaf_vector":"1"}},{"base_weights":[-2.6383637E-5,-4.5323085E-2,5.5584177E-2,-6.2332816E-2,-2.5813894E-2,2.8785387E-2,7.9202935E-2,-3.5362662E-4,-2.154359E-3,-1.6262625E-4,2.495248E-3,1.8697033E-2,4.1013334E-2,6.677846E-2,5.181656E-4,-0E0,-2.9081179E-5,2.5461783E-5,-0E0,1.0951763E-2,2.4198392E-2,2.0942575E-4,2.7068486E-4,3.3509498E-4,4.0507523E-4,1.1757107E-2,-0E0,-0E0,1.3806572E-4,-0E0,6.956072E-5],"categories":[],"categories_nodes":[],"categories_segments":[],"categories_sizes":[],"default_left":[0,0,0,0,0,0,0,0,0,0,0,0,0,0,0,0,0,0,0,0,0,0,0,0,0,0,0,0,0,0,0],"id":28,"left_children":[1,3,5,7,9,11,13,-1,15,-1,17,19,21,23,-1,-1,-1,-1,-1,25,27,-1,-1,-1,-1,29,-1,-1,-1,-1,-1],"loss_changes":[1.9600286E1,1.4035292E0,2.1846247E0,2.5636673E-2,1.7567492E-1,1.8847644E-1,2.522478E-1,0E0,1.425936E-4,0E0,6.437856E-4,3.0588418E-2,1.6331673E-4,4.2920113E-3,0E0,0E0,0E0,0E0,0E0,5.426962E-3,2.1522343E-3,0E0,0E0,0E0,0E0,1.6808808E-3,0E0,0E0,0E0,0E0,0E0],"parents":[2147483647,0,0,1,1,2,2,3,3,4,4,5,5,6,6,8,8,10,10,11,11,12,12,13,13,19,19,20,20,25,25],"right_children":[2,4,6,8,10,12,14,-1,16,-1,18,20,22,24,-1,-1,-1,-1,-1,26,28,-1,-1,-1,-1,30,-1,-1,-1,-1,-1],"split_conditions":[7.8782976E-2,1.825506E-2,1.3571538E-1,2.4097814E-1,6.418337E-2,1.0928765E-1,1.6122948E-1,-3.5362662E-4,8.504663E-1,-1.6262625E-4,-4.2000008E-1,9.135106E-2,1.2428347E-1,1.4897951E-1,5.181656E-4,-0E0,-2.9081179E-5,2.5461783E-5,-0E0,3.975602E-2,-2.337644E0,2.0942575E-4,2.7068486E-4,3.3509498E-4,4.0507523E-4,2.9923865E-1,-0E0,-0E0,1.3806572E-4,-0E0,6.956072E-5],"split_indices":[2,2,2,0,2,2,2,0,7,0,23,2,2,2,0,0,0,0,0,11,21,0,0,0,0,0,0,0,0,0,0],"split_type":[0,0,0,0,0,0,0,0,0,0,0,0,0,0,0,0,0,0,0,0,0,0,0,0,0,0,0,0,0,0,0],"sum_hessian":[7.782E3,4.291E3,3.491E3,2.286E3,2.005E3,1.64E3,1.851E3,2.271E3,1.5E1,1.821E3,1.84E2,9.09E2,7.31E2,9.4E2,9.11E2,7E0,8E0,8.8E1,9.6E1,3.95E2,5.14E2,4.88E2,2.43E2,3.95E2,5.45E2,3.82E2,1.3E1,7E0,5.07E2,2.3E1,3.59E2],"tree_param":{"num_deleted":"0","num_feature":"30","num_nodes":"31","size_leaf_vector":"1"}},{"base_weights":[-0E0,-4.5048017E-2,5.5362057E-2,-6.197993E-2,-2.5649358E-2,2.8595949E-2,7.875681E-2,-3.5162005E-4,-2.13885E-3,-1.6168262E-4,2.3621619E-3,1.8573785E-2,2.3015533E-4,6.643237E-2,5.150587E-4,-0E0,-2.8916984E-5,2.5053256E-5,-0E0,1.1325892E-2,2.4363682E-2,3.381147E-4,4.0644273E-4,1.2106725E-2,-0E0,-0E0,1.389338E-4,-0E0,1.2622545E-2,7.2025534E-5,-0E0],"categories":[],"categories_nodes":[],"categories_segments":[],"categories_sizes":[],"default_left":[0,0,0,0,0,0,0,0,0,0,0,0,0,0,0,0,0,0,0,0,0,0,0,0,0,0,0,0,0,0,0],"id":29,"left_children":[1,3,5,7,9,11,13,-1,15,-1,17,19,-1,21,-1,-1,-1,-1,-1,23,25,-1,-1,27,-1,-1,-1,-1,29,-1,-1],"loss_changes":[1.9447355E1,1.3910751E0,2.1667805E0,2.51894E-2,1.7407334E-1,1.8583906E-1,2.4959755E-1,0E0,1.4120279E-4,0E0,7.1429997E-4,2.9835194E-2,0E0,3.8437843E-3,0E0,0E0,0E0,0E0,0E0,5.650997E-3,9.251237E-4,0E0,0E0,1.6864054E-3,0E0,0E0,0E0,0E0,1.5236437E-6,0E0,0E0],"parents":[2147483647,0,0,1,1,2,2,3,3,4,4,5,5,6,6,8,8,10,10,11,11,13,13,19,19,20,20,23,23,28,28],"right_children":[2,4,6,8,10,12,14,-1,16,-1,18,20,-1,22,-1,-1,-1,-1,-1,24,26,-1,-1,28,-1,-1,-1,-1,30,-1,-1],"split_conditions":[7.8782976E-2,1.825506E-2,1.3571538E-1,2.4097814E-1,6.418337E-2,1.0928765E-1,1.6122948E-1,-3.5162005E-4,8.504663E-1,-1.6168262E-4,-4.2000008E-1,9.5428295E-2,2.3015533E-4,1.5417247E-1,5.150587E-4,-0E0,-2.8916984E-5,2.5053256E-5,-0E0,3.975602E-2,-2.2282038E0,3.381147E-4,4.0644273E-4,2.956539E-1,-0E0,-0E0,1.389338E-4,-0E0,4.049999E0,7.2025534E-5,-0E0],"split_indices":[2,2,2,0,2,2,2,0,7,0,23,2,0,3,0,0,0,0,0,11,21,0,0,0,0,0,0,0,23,0,0],"split_type":[0,0,0,0,0,0,0,0,0,0,0,0,0,0,0,0,0,0,0,0,0,0,0,0,0,0,0,0,0,0,0],"sum_hessian":[7.797E3,4.297E3,3.5E3,2.288E3,2.009E3,1.637E3,1.863E3,2.273E3,1.5E1,1.823E3,1.86E2,9.08E2,7.29E2,9.46E2,9.17E2,7E0,8E0,8.9E1,9.7E1,4.21E2,4.87E2,4.53E2,4.93E2,4.07E2,1.4E1,8E0,4.79E2,2.2E1,3.85E2,3.77E2,8E0],"tree_param":{"num_deleted":"0","num_feature":"30","num_nodes":"31","size_leaf_vector":"1"}},{"base_weights":[1.5973781E-5,-4.4784166E-2,5.4964144E-2,-6.163306E-2,-2.5478829E-2,2.8446997E-2,7.8305826E-2,-3.4964984E-4,-2.1234285E-3,-1.6073426E-4,2.376003E-3,1.848139E-2,4.057388E-2,6.606834E-2,5.120829E-4,-0E0,-2.8753717E-5,3.665871E-3,-0E0,1.0834289E-2,2.3905408E-2,2.0700699E-4,2.6791813E-4,3.3170308E-4,4.0049234E-4,4.3000397E-3,-0E0,1.1631462E-2,-0E0,-0E0,1.3638106E-4,-0E0,2.5954714E-5,-0E0,6.878848E-5],"categories":[],"categories_nodes":[],"categories_segments":[],"categories_sizes":[],"default_left":[0,0,0,0,0,0,0,0,0,0,0,0,0,0,0,0,0,0,0,0,0,0,0,0,0,0,0,0,0,0,0,0,0,0,0],"id":30,"left_children":[1,3,5,7,9,11,13,-1,15,-1,17,19,21,23,-1,-1,-1,25,-1,27,29,-1,-1,-1,-1,31,-1,33,-1,-1,-1,-1,-1,-1,-1],"loss_changes":[1.9205969E1,1.3768673E0,2.1453228E0,2.4754524E-2,1.7315221E-1,1.8523991E-1,2.4559689E-1,0E0,1.398261E-4,0E0,6.913325E-4,2.9862314E-2,2.0253658E-4,3.5877228E-3,0E0,0E0,0E0,1.574863E-4,0E0,5.3511336E-3,2.0798147E-3,0E0,0E0,0E0,0E0,1.027711E-4,0E0,1.6266815E-3,0E0,0E0,0E0,0E0,0E0,0E0,0E0],"parents":[2147483647,0,0,1,1,2,2,3,3,4,4,5,5,6,6,8,8,10,10,11,11,12,12,13,13,17,17,19,19,20,20,25,25,27,27],"right_children":[2,4,6,8,10,12,14,-1,16,-1,18,20,22,24,-1,-1,-1,26,-1,28,30,-1,-1,-1,-1,32,-1,34,-1,-1,-1,-1,-1,-1,-1],"split_conditions":[7.8782976E-2,1.825506E-2,1.3571538E-1,2.4097814E-1,6.418337E-2,1.0928765E-1,1.6122948E-1,-3.4964984E-4,8.504663E-1,-1.6073426E-4,1.1126265E-2,9.135106E-2,1.2428347E-1,1.4897951E-1,5.120829E-4,-0E0,-2.8753717E-5,3.800001E-1,-0E0,3.975602E-2,-2.337644E0,2.0700699E-4,2.6791813E-4,3.3170308E-4,4.0049234E-4,-1.1079093E-2,-0E0,2.9923865E-1,-0E0,-0E0,1.3638106E-4,-0E0,2.5954714E-5,-0E0,6.878848E-5],"split_indices":[2,2,2,0,2,2,2,0,7,0,11,2,2,2,0,0,0,23,0,11,21,0,0,0,0,9,0,0,0,0,0,0,0,0,0],"split_type":[0,0,0,0,0,0,0,0,0,0,0,0,0,0,0,0,0,0,0,0,0,0,0,0,0,0,0,0,0,0,0,0,0,0,0],"sum_hessian":[7.801E3,4.295E3,3.506E3,2.287E3,2.008E3,1.646E3,1.86E3,2.272E3,1.5E1,1.821E3,1.87E2,9.14E2,7.32E2,9.45E2,9.15E2,7E0,8E0,1.3E2,5.7E1,3.97E2,5.17E2,4.88E2,2.44E2,3.96E2,5.49E2,1.03E2,2.7E1,3.84E2,1.3E1,7E0,5.1E2,8E0,9.5E1,2.3E1,3.61E2],"tree_param":{"num_deleted":"0","num_feature":"30","num_nodes":"35","size_leaf_vector":"1"}},{"base_weights":[1.1425164E-5,-4.4530418E-2,5.4701544E-2,-6.1285987E-2,-2.5364753E-2,2.832123E-2,7.787614E-2,-3.4768065E-4,-2.1080943E-3,-1.5990011E-4,2.326264E-3,1.8400565E-2,2.280274E-4,6.56834E-2,5.093967E-4,-0E0,-2.8591374E-5,3.6041534E-3,-0E0,1.121372E-2,2.412892E-2,3.3425627E-4,4.0186182E-4,4.228202E-3,-0E0,1.1989124E-2,-0E0,-0E0,1.375837E-4,-0E0,2.5532383E-5,-0E0,1.24969045E-2,7.12443E-5,-0E0],"categories":[],"categories_nodes":[],"categories_segments":[],"categories_sizes":[],"default_left":[0,0,0,0,0,0,0,0,0,0,0,0,0,0,0,0,0,0,0,0,0,0,0,0,0,0,0,0,0,0,0,0,0,0,0],"id":31,"left_children":[1,3,5,7,9,11,13,-1,15,-1,17,19,-1,21,-1,-1,-1,23,-1,25,27,-1,-1,29,-1,31,-1,-1,-1,-1,-1,-1,33,-1,-1],"loss_changes":[1.8978786E1,1.3578997E0,2.114522E0,2.432251E-2,1.7027557E-1,1.8276513E-1,2.4341965E-1,0E0,1.3846338E-4,0E0,6.691611E-4,2.9316515E-2,0E0,3.3926964E-3,0E0,0E0,0E0,1.4782557E-4,0E0,5.5800974E-3,8.8343024E-4,0E0,0E0,9.851181E-5,0E0,1.63709E-3,0E0,0E0,0E0,0E0,0E0,0E0,5.530566E-5,0E0,0E0],"parents":[2147483647,0,0,1,1,2,2,3,3,4,4,5,5,6,6,8,8,10,10,11,11,13,13,17,17,19,19,20,20,23,23,25,25,32,32],"right_children":[2,4,6,8,10,12,14,-1,16,-1,18,20,-1,22,-1,-1,-1,24,-1,26,28,-1,-1,30,-1,32,-1,-1,-1,-1,-1,-1,34,-1,-1],"split_conditions":[7.8782976E-2,1.825506E-2,1.3571538E-1,2.4097814E-1,6.418337E-2,1.0928765E-1,1.6122948E-1,-3.4768065E-4,8.504663E-1,-1.5990011E-4,1.1126265E-2,9.5428295E-2,2.280274E-4,1.5417247E-1,5.093967E-4,-0E0,-2.8591374E-5,3.800001E-1,-0E0,3.975602E-2,-2.2282038E0,3.3425627E-4,4.0186182E-4,-1.1079093E-2,-0E0,2.956539E-1,-0E0,-0E0,1.375837E-4,-0E0,2.5532383E-5,-0E0,4.049999E0,7.12443E-5,-0E0],"split_indices":[2,2,2,0,2,2,2,0,7,0,11,2,0,3,0,0,0,23,0,11,21,0,0,9,0,0,0,0,0,0,0,0,23,0,0],"split_type":[0,0,0,0,0,0,0,0,0,0,0,0,0,0,0,0,0,0,0,0,0,0,0,0,0,0,0,0,0,0,0,0,0,0,0],"sum_hessian":[7.79E3,4.291E3,3.499E3,2.283E3,2.008E3,1.641E3,1.858E3,2.268E3,1.5E1,1.822E3,1.86E2,9.11E2,7.3E2,9.44E2,9.14E2,7E0,8E0,1.29E2,5.7E1,4.22E2,4.89E2,4.52E2,4.92E2,1.02E2,2.7E1,4.08E2,1.4E1,8E0,4.81E2,8E0,9.4E1,2.2E1,3.86E2,3.79E2,7E0],"tree_param":{"num_deleted":"0","num_feature":"30","num_nodes":"35","size_leaf_vector":"1"}},{"base_weights":[-0E0,-4.4294782E-2,5.4353986E-2,-6.0941614E-2,-2.5188591E-2,2.8119413E-2,7.74462E-2,-3.4572242E-4,-2.0928476E-3,-1.5895792E-4,2.3498447E-3,1.8226024E-2,4.0121336E-2,6.534209E-2,5.064548E-4,-0E0,-2.8429957E-5,3.628243E-3,-0E0,1.0705715E-2,2.3579553E-2,2.0448382E-4,2.6511782E-4,3.2784787E-4,3.9603925E-4,4.252548E-3,-0E0,1.1500605E-2,-0E0,-0E0,1.3452755E-4,-0E0,2.5663972E-5,-0E0,6.801104E-5],"categories":[],"categories_nodes":[],"categories_segments":[],"categories_sizes":[],"default_left":[0,0,0,0,0,0,0,0,0,0,0,0,0,0,0,0,0,0,0,0,0,0,0,0,0,0,0,0,0,0,0,0,0,0,0],"id":32,"left_children":[1,3,5,7,9,11,13,-1,15,-1,17,19,21,23,-1,-1,-1,25,-1,27,29,-1,-1,-1,-1,31,-1,33,-1,-1,-1,-1,-1,-1,-1],"loss_changes":[1.8726831E1,1.3438749E0,2.0904408E0,2.3897171E-2,1.6943252E-1,1.8109632E-1,2.3865032E-1,0E0,1.3711455E-4,0E0,6.787693E-4,2.8653234E-2,2.1481514E-4,3.1599998E-3,0E0,0E0,0E0,1.5133037E-4,0E0,5.2706003E-3,2.00063E-3,0E0,0E0,0E0,0E0,9.9888886E-5,0E0,1.5720092E-3,0E0,0E0,0E0,0E0,0E0,0E0,0E0],"parents":[2147483647,0,0,1,1,2,2,3,3,4,4,5,5,6,6,8,8,10,10,11,11,12,12,13,13,17,17,19,19,20,20,25,25,27,27],"right_children":[2,4,6,8,10,12,14,-1,16,-1,18,20,22,24,-1,-1,-1,26,-1,28,30,-1,-1,-1,-1,32,-1,34,-1,-1,-1,-1,-1,-1,-1],"split_conditions":[7.8782976E-2,1.825506E-2,1.3571538E-1,2.4097814E-1,6.418337E-2,1.0928765E-1,1.6122948E-1,-3.4572242E-4,8.504663E-1,-1.5895792E-4,1.1126265E-2,9.135106E-2,1.2428347E-1,1.4897951E-1,5.064548E-4,-0E0,-2.8429957E-5,3.800001E-1,-0E0,3.975602E-2,-2.337644E0,2.0448382E-4,2.6511782E-4,3.2784787E-4,3.9603925E-4,-1.1079093E-2,-0E0,2.9923865E-1,-0E0,-0E0,1.3452755E-4,-0E0,2.5663972E-5,-0E0,6.801104E-5],"split_indices":[2,2,2,0,2,2,2,0,7,0,11,2,2,2,0,0,0,23,0,11,21,0,0,0,0,9,0,0,0,0,0,0,0,0,0],"split_type":[0,0,0,0,0,0,0,0,0,0,0,0,0,0,0,0,0,0,0,0,0,0,0,0,0,0,0,0,0,0,0,0,0,0,0],"sum_hessian":[7.779E3,4.288E3,3.491E3,2.285E3,2.003E3,1.639E3,1.852E3,2.27E3,1.5E1,1.816E3,1.87E2,9.09E2,7.3E2,9.41E2,9.11E2,7E0,8E0,1.3E2,5.7E1,3.96E2,5.13E2,4.86E2,2.44E2,3.93E2,5.48E2,1.03E2,2.7E1,3.83E2,1.3E1,7E0,5.06E2,8E0,9.5E1,2.3E1,3.6E2],"tree_param":{"num_deleted":"0","num_feature":"30","num_nodes":"35","size_leaf_vector":"1"}},{"base_weights":[-0E0,-4.3995414E-2,5.4039206E-2,-6.056835E-2,-2.5073914E-2,2.8000008E-2,7.69776E-2,-3.4360358E-4,-2.0776843E-3,-1.581631E-4,2.336805E-3,1.81824E-2,3.990186E-2,6.4927325E-2,5.034186E-4,-0E0,-2.8269424E-5,3.6094862E-3,-0E0,1.1034225E-2,2.3851175E-2,2.0346383E-4,2.6362084E-4,3.2573394E-4,3.9373242E-4,4.2288746E-3,-0E0,1.1805691E-2,-0E0,-0E0,1.3598977E-4,-0E0,2.5519044E-5,-0E0,6.947551E-5],"categories":[],"categories_nodes":[],"categories_segments":[],"categories_sizes":[],"default_left":[0,0,0,0,0,0,0,0,0,0,0,0,0,0,0,0,0,0,0,0,0,0,0,0,0,0,0,0,0,0,0,0,0,0,0],"id":33,"left_children":[1,3,5,7,9,11,13,-1,15,-1,17,19,21,23,-1,-1,-1,25,-1,27,29,-1,-1,-1,-1,31,-1,33,-1,-1,-1,-1,-1,-1,-1],"loss_changes":[1.8524502E1,1.3263769E0,2.0650253E0,2.3436546E-2,1.6785645E-1,1.7852378E-1,2.3654652E-1,0E0,1.3577916E-4,0E0,6.725488E-4,2.8832674E-2,4.7802925E-5,3.2365322E-3,0E0,0E0,0E0,1.4829775E-4,0E0,5.4668672E-3,8.3240867E-4,0E0,0E0,0E0,0E0,9.846687E-5,0E0,1.5621148E-3,0E0,0E0,0E0,0E0,0E0,0E0,0E0],"parents":[2147483647,0,0,1,1,2,2,3,3,4,4,5,5,6,6,8,8,10,10,11,11,12,12,13,13,17,17,19,19,20,20,25,25,27,27],"right_children":[2,4,6,8,10,12,14,-1,16,-1,18,20,22,24,-1,-1,-1,26,-1,28,30,-1,-1,-1,-1,32,-1,34,-1,-1,-1,-1,-1,-1,-1],"split_conditions":[7.8782976E-2,1.825506E-2,1.3571538E-1,2.4097814E-1,6.418337E-2,1.0928765E-1,1.6122948E-1,-3.4360358E-4,8.504663E-1,-1.581631E-4,1.1126265E-2,9.5428295E-2,1.2428347E-1,1.4897951E-1,5.034186E-4,-0E0,-2.8269424E-5,3.800001E-1,-0E0,3.975602E-2,-2.2282038E0,2.0346383E-4,2.6362084E-4,3.2573394E-4,3.9373242E-4,-1.1079093E-2,-0E0,2.956539E-1,-0E0,-0E0,1.3598977E-4,-0E0,2.5519044E-5,-0E0,6.947551E-5],"split_indices":[2,2,2,0,2,2,2,0,7,0,11,2,2,2,0,0,0,23,0,11,21,0,0,0,0,9,0,0,0,0,0,0,0,0,0],"split_type":[0,0,0,0,0,0,0,0,0,0,0,0,0,0,0,0,0,0,0,0,0,0,0,0,0,0,0,0,0,0,0,0,0,0,0],"sum_hessian":[7.791E3,4.293E3,3.498E3,2.282E3,2.011E3,1.643E3,1.855E3,2.267E3,1.5E1,1.824E3,1.87E2,9.11E2,7.32E2,9.42E2,9.13E2,7E0,8E0,1.3E2,5.7E1,4.21E2,4.9E2,4.88E2,2.44E2,3.95E2,5.47E2,1.03E2,2.7E1,4.07E2,1.4E1,8E0,4.82E2,8E0,9.5E1,2.2E1,3.85E2],"tree_param":{"num_deleted":"0","num_feature":"30","num_nodes":"35","size_leaf_vector":"1"}},{"base_weights":[-0E0,-4.3762963E-2,5.3778715E-2,-6.0265552E-2,-2.4940012E-2,2.7859824E-2,7.651788E-2,-3.418831E-4,-2.0626085E-3,-1.5718305E-4,2.275843E-3,1.810264E-2,2.2395243E-4,6.5000676E-2,5.0314947E-4,-0E0,-2.8109815E-5,3.5314532E-3,-0E0,1.0596244E-2,2.3380954E-2,3.2792712E-4,3.9841275E-4,4.136258E-3,-0E0,1.1393664E-2,-0E0,-0E0,1.3338844E-4,-0E0,2.4969042E-5,-0E0,1.1903654E-2,-0E0,6.838229E-5],"categories":[],"categories_nodes":[],"categories_segments":[],"categories_sizes":[],"default_left":[0,0,0,0,0,0,0,0,0,0,0,0,0,0,0,0,0,0,0,0,0,0,0,0,0,0,0,0,0,0,0,0,0,0,0],"id":34,"left_children":[1,3,5,7,9,11,13,-1,15,-1,17,19,-1,21,-1,-1,-1,23,-1,25,27,-1,-1,29,-1,31,-1,-1,-1,-1,-1,-1,33,-1,-1],"loss_changes":[1.8339619E1,1.3144035E0,2.0368586E0,2.3069382E-2,1.6466606E-1,1.7536724E-1,2.3373604E-1,0E0,1.3445746E-4,0E0,6.454011E-4,2.8104097E-2,0E0,7.918835E-3,0E0,0E0,0E0,1.3630092E-4,0E0,5.203739E-3,1.9642413E-3,0E0,0E0,9.307731E-5,0E0,1.3975948E-3,0E0,0E0,0E0,0E0,0E0,0E0,1.9952655E-5,0E0,0E0],"parents":[2147483647,0,0,1,1,2,2,3,3,4,4,5,5,6,6,8,8,10,10,11,11,13,13,17,17,19,19,20,20,23,23,25,25,32,32],"right_children":[2,4,6,8,10,12,14,-1,16,-1,18,20,-1,22,-1,-1,-1,24,-1,26,28,-1,-1,30,-1,32,-1,-1,-1,-1,-1,-1,34,-1,-1],"split_conditions":[7.8782976E-2,1.825506E-2,1.3571538E-1,2.4097814E-1,6.418337E-2,1.0928765E-1,1.647414E-1,-3.418831E-4,8.504663E-1,-1.5718305E-4,1.1126265E-2,9.135106E-2,2.2395243E-4,1.5379551E-1,5.0314947E-4,-0E0,-2.8109815E-5,3.800001E-1,-0E0,3.975602E-2,-2.22392E0,3.2792712E-4,3.9841275E-4,-1.1079093E-2,-0E0,2.9923865E-1,-0E0,-0E0,1.3338844E-4,-0E0,2.4969042E-5,-0E0,-2.646695E-2,-0E0,6.838229E-5],"split_indices":[2,2,2,0,2,2,3,0,7,0,11,2,0,2,0,0,0,23,0,11,20,0,0,9,0,0,0,0,0,0,0,0,9,0,0],"split_type":[0,0,0,0,0,0,0,0,0,0,0,0,0,0,0,0,0,0,0,0,0,0,0,0,0,0,0,0,0,0,0,0,0,0,0],"sum_hessian":[7.792E3,4.295E3,3.497E3,2.282E3,2.013E3,1.639E3,1.858E3,2.267E3,1.5E1,1.827E3,1.86E2,9.08E2,7.31E2,9.8E2,8.78E2,7E0,8E0,1.29E2,5.7E1,3.93E2,5.15E2,4.55E2,5.25E2,1.02E2,2.7E1,3.8E2,1.3E1,7E0,5.08E2,8E0,9.4E1,2.2E1,3.58E2,1.2E1,3.46E2],"tree_param":{"num_deleted":"0","num_feature":"30","num_nodes":"35","size_leaf_vector":"1"}},{"base_weights":[-0E0,-4.3518763E-2,5.343386E-2,-5.9910618E-2,-2.4775961E-2,2.766805E-2,7.6130114E-2,-3.3986557E-4,-2.047616E-3,-1.5631139E-4,2.3111575E-3,1.7956013E-2,3.9438516E-2,6.4621046E-2,5.003779E-4,-0E0,-2.7951091E-5,3.5725932E-3,-0E0,1.0933267E-2,2.3568591E-2,2.00916E-4,2.6086782E-4,3.2593327E-4,3.9616993E-4,4.1823103E-3,-0E0,1.1697831E-2,-0E0,-0E0,1.3437778E-4,-0E0,2.5233983E-5,-0E0,1.218774E-2,6.963342E-5,-0E0],"categories":[],"categories_nodes":[],"categories_segments":[],"categories_sizes":[],"default_left":[0,0,0,0,0,0,0,0,0,0,0,0,0,0,0,0,0,0,0,0,0,0,0,0,0,0,0,0,0,0,0,0,0,0,0,0,0],"id":35,"left_children":[1,3,5,7,9,11,13,-1,15,-1,17,19,21,23,-1,-1,-1,25,-1,27,29,-1,-1,-1,-1,31,-1,33,-1,-1,-1,-1,-1,-1,35,-1,-1],"loss_changes":[1.8115955E1,1.2990074E0,2.0215378E0,2.2639275E-2,1.6408384E-1,1.7452264E-1,2.3111248E-1,0E0,1.33149E-4,0E0,6.603949E-4,2.7914286E-2,1.3697147E-4,7.6384544E-3,0E0,0E0,0E0,1.4240295E-4,0E0,5.4033846E-3,7.876754E-4,0E0,0E0,0E0,0E0,9.569782E-5,0E0,1.5181229E-3,0E0,0E0,0E0,0E0,0E0,0E0,2.771616E-6,0E0,0E0],"parents":[2147483647,0,0,1,1,2,2,3,3,4,4,5,5,6,6,8,8,10,10,11,11,12,12,13,13,17,17,19,19,20,20,25,25,27,27,34,34],"right_children":[2,4,6,8,10,12,14,-1,16,-1,18,20,22,24,-1,-1,-1,26,-1,28,30,-1,-1,-1,-1,32,-1,34,-1,-1,-1,-1,-1,-1,36,-1,-1],"split_conditions":[7.8782976E-2,1.825506E-2,1.3571538E-1,2.4097814E-1,6.418337E-2,1.0928765E-1,1.647414E-1,-3.3986557E-4,8.504663E-1,-1.5631139E-4,1.1126265E-2,9.5428295E-2,1.2428347E-1,1.5379551E-1,5.003779E-4,-0E0,-2.7951091E-5,3.800001E-1,-0E0,3.975602E-2,-2.2282038E0,2.00916E-4,2.6086782E-4,3.2593327E-4,3.9616993E-4,-1.1079093E-2,-0E0,2.956539E-1,-0E0,-0E0,1.3437778E-4,-0E0,2.5233983E-5,-0E0,3.8399992E0,6.963342E-5,-0E0],"split_indices":[2,2,2,0,2,2,3,0,7,0,11,2,2,2,0,0,0,23,0,11,21,0,0,0,0,9,0,0,0,0,0,0,0,0,23,0,0],"split_type":[0,0,0,0,0,0,0,0,0,0,0,0,0,0,0,0,0,0,0,0,0,0,0,0,0,0,0,0,0,0,0,0,0,0,0,0,0],"sum_hessian":[7.79E3,4.292E3,3.498E3,2.283E3,2.009E3,1.643E3,1.855E3,2.268E3,1.5E1,1.822E3,1.87E2,9.11E2,7.32E2,9.75E2,8.8E2,7E0,8E0,1.3E2,5.7E1,4.23E2,4.88E2,4.88E2,2.44E2,4.53E2,5.22E2,1.03E2,2.7E1,4.09E2,1.4E1,8E0,4.8E2,8E0,9.5E1,2.2E1,3.87E2,3.78E2,9E0],"tree_param":{"num_deleted":"0","num_feature":"30","num_nodes":"37","size_leaf_vector":"1"}},{"base_weights":[4.976452E-5,-4.326864E-2,5.321476E-2,-5.9571628E-2,-2.4651164E-2,2.7527556E-2,7.575124E-2,-3.3794148E-4,-2.032707E-3,-1.5543777E-4,2.3039202E-3,1.7478602E-2,3.8802225E-2,6.387226E-2,4.950539E-4,-1.8222368E-5,-0E0,2.4126153E-5,-0E0,1.0450331E-2,1.2858176E-4,1.81526E-4,2.4130469E-4,3.2032133E-4,3.8718578E-4,1.1261217E-2,-0E0,-0E0,6.660767E-5],"categories":[],"categories_nodes":[],"categories_segments":[],"categories_sizes":[],"default_left":[0,0,0,0,0,0,0,0,0,0,0,0,0,0,0,0,0,0,0,0,0,0,0,0,0,0,0,0,0],"id":36,"left_children":[1,3,5,7,9,11,13,-1,15,-1,17,19,21,23,-1,-1,-1,-1,-1,25,-1,-1,-1,-1,-1,27,-1,-1,-1],"loss_changes":[1.7938244E1,1.2822857E0,2.0016403E0,2.2233963E-2,1.6165805E-1,1.727705E-1,2.2821236E-1,0E0,2.1342654E-5,0E0,6.3756923E-4,2.4968773E-2,2.5931597E-3,2.554655E-3,0E0,0E0,0E0,0E0,0E0,4.815966E-3,0E0,0E0,0E0,0E0,0E0,1.4763661E-3,0E0,0E0,0E0],"parents":[2147483647,0,0,1,1,2,2,3,3,4,4,5,5,6,6,8,8,10,10,11,11,12,12,13,13,19,19,25,25],"right_children":[2,4,6,8,10,12,14,-1,16,-1,18,20,22,24,-1,-1,-1,-1,-1,26,-1,-1,-1,-1,-1,28,-1,-1,-1],"split_conditions":[7.8782976E-2,1.825506E-2,1.3571538E-1,2.4097814E-1,6.418337E-2,1.07175566E-1,1.6122948E-1,-3.3794148E-4,-2.4824562E-3,-1.5543777E-4,-4.2000008E-1,9.135106E-2,1.1771802E-1,1.4897951E-1,4.950539E-4,-1.8222368E-5,-0E0,2.4126153E-5,-0E0,2.8247306E-2,1.2858176E-4,1.81526E-4,2.4130469E-4,3.2032133E-4,3.8718578E-4,2.9923865E-1,-0E0,-0E0,6.660767E-5],"split_indices":[2,2,2,0,2,2,2,0,9,0,23,2,2,2,0,0,0,0,0,12,0,0,0,0,0,0,0,0,0],"split_type":[0,0,0,0,0,0,0,0,0,0,0,0,0,0,0,0,0,0,0,0,0,0,0,0,0,0,0,0,0],"sum_hessian":[7.788E3,4.289E3,3.499E3,2.28E3,2.009E3,1.64E3,1.859E3,2.265E3,1.5E1,1.823E3,1.86E2,8.78E2,7.62E2,9.41E2,9.18E2,8E0,7E0,8.9E1,9.7E1,3.96E2,4.82E2,3.05E2,4.57E2,3.93E2,5.48E2,3.79E2,1.7E1,2.3E1,3.56E2],"tree_param":{"num_deleted":"0","num_feature":"30","num_nodes":"29","size_leaf_vector":"1"}},{"base_weights":[5.2575735E-5,-4.3001883E-2,5.289683E-2,-5.924559E-2,-2.4459776E-2,2.7393024E-2,7.5283565E-2,-3.3608938E-4,-2.0229875E-3,-1.5432875E-4,2.2868556E-3,1.7771218E-2,2.2027748E-4,6.3902654E-2,4.94711E-4,-0E0,-2.7716076E-5,3.5385638E-3,-0E0,1.0793208E-2,2.3327807E-2,3.219823E-4,3.916959E-4,4.1393605E-3,-0E0,1.1557027E-2,-0E0,-0E0,1.3301097E-4,-0E0,2.497535E-5,-0E0,6.7991205E-5],"categories":[],"categories_nodes":[],"categories_segments":[],"categories_sizes":[],"default_left":[0,0,0,0,0,0,0,0,0,0,0,0,0,0,0,0,0,0,0,0,0,0,0,0,0,0,0,0,0,0,0,0,0],"id":37,"left_children":[1,3,5,7,9,11,13,-1,15,-1,17,19,-1,21,-1,-1,-1,23,-1,25,27,-1,-1,29,-1,31,-1,-1,-1,-1,-1,-1,-1],"loss_changes":[1.7716852E1,1.27212E0,1.9733839E0,2.1837234E-2,1.6014183E-1,1.7018521E-1,2.2564602E-1,0E0,1.3136999E-4,0E0,6.4983184E-4,2.730155E-2,0E0,7.42507E-3,0E0,0E0,0E0,1.3704784E-4,0E0,5.317211E-3,7.851124E-4,0E0,0E0,9.381748E-5,0E0,1.4626235E-3,0E0,0E0,0E0,0E0,0E0,0E0,0E0],"parents":[2147483647,0,0,1,1,2,2,3,3,4,4,5,5,6,6,8,8,10,10,11,11,13,13,17,17,19,19,20,20,23,23,25,25],"right_children":[2,4,6,8,10,12,14,-1,16,-1,18,20,-1,22,-1,-1,-1,24,-1,26,28,-1,-1,30,-1,32,-1,-1,-1,-1,-1,-1,-1],"split_conditions":[7.8782976E-2,1.825506E-2,1.3571538E-1,2.4097814E-1,6.418337E-2,1.0928765E-1,1.647414E-1,-3.3608938E-4,8.504663E-1,-1.5432875E-4,1.1126265E-2,9.5428295E-2,2.2027748E-4,1.5379551E-1,4.94711E-4,-0E0,-2.7716076E-5,3.800001E-1,-0E0,3.975602E-2,-2.2282038E0,3.219823E-4,3.916959E-4,-1.1079093E-2,-0E0,2.956539E-1,-0E0,-0E0,1.3301097E-4,-0E0,2.497535E-5,-0E0,6.7991205E-5],"split_indices":[2,2,2,0,2,2,3,0,7,0,11,2,0,2,0,0,0,23,0,11,21,0,0,9,0,0,0,0,0,0,0,0,0],"split_type":[0,0,0,0,0,0,0,0,0,0,0,0,0,0,0,0,0,0,0,0,0,0,0,0,0,0,0,0,0,0,0,0,0],"sum_hessian":[7.786E3,4.288E3,3.498E3,2.279E3,2.009E3,1.64E3,1.858E3,2.264E3,1.5E1,1.822E3,1.87E2,9.08E2,7.32E2,9.76E2,8.82E2,7E0,8E0,1.3E2,5.7E1,4.21E2,4.87E2,4.51E2,5.25E2,1.03E2,2.7E1,4.07E2,1.4E1,8E0,4.79E2,8E0,9.5E1,2.2E1,3.85E2],"tree_param":{"num_deleted":"0","num_feature":"30","num_nodes":"33","size_leaf_vector":"1"}},{"base_weights":[-0E0,-4.2829677E-2,5.2579787E-2,-5.8908872E-2,-2.4360953E-2,2.7223337E-2,7.4877396E-2,-3.341672E-4,-2.0082057E-3,-1.5364731E-4,2.315327E-3,1.7684013E-2,3.8778856E-2,6.355531E-2,4.918992E-4,-0E0,-2.7559581E-5,3.5893188E-3,-0E0,1.0347993E-2,2.2850769E-2,1.9736853E-4,2.5678857E-4,3.207402E-4,3.8943675E-4,-0E0,4.0133493E-3,1.1075862E-2,-0E0,-0E0,1.30366E-4,2.4604393E-5,-0E0,-0E0,6.556268E-5],"categories":[],"categories_nodes":[],"categories_segments":[],"categories_sizes":[],"default_left":[0,0,0,0,0,0,0,0,0,0,0,0,0,0,0,0,0,0,0,0,0,0,0,0,0,0,0,0,0,0,0,0,0,0,0],"id":38,"left_children":[1,3,5,7,9,11,13,-1,15,-1,17,19,21,23,-1,-1,-1,25,-1,27,29,-1,-1,-1,-1,-1,31,33,-1,-1,-1,-1,-1,-1,-1],"loss_changes":[1.7566822E1,1.2576442E0,1.9557695E0,2.1439075E-2,1.5845358E-1,1.6802955E-1,2.2256279E-1,0E0,1.3009322E-4,0E0,6.6483754E-4,2.6838481E-2,1.1873245E-4,6.5045357E-3,0E0,0E0,0E0,1.4204765E-4,0E0,5.055465E-3,1.896441E-3,0E0,0E0,0E0,0E0,0E0,1.8974638E-4,1.5883669E-3,0E0,0E0,0E0,0E0,0E0,0E0,0E0],"parents":[2147483647,0,0,1,1,2,2,3,3,4,4,5,5,6,6,8,8,10,10,11,11,12,12,13,13,17,17,19,19,20,20,26,26,27,27],"right_children":[2,4,6,8,10,12,14,-1,16,-1,18,20,22,24,-1,-1,-1,26,-1,28,30,-1,-1,-1,-1,-1,32,34,-1,-1,-1,-1,-1,-1,-1],"split_conditions":[7.8782976E-2,1.825506E-2,1.3571538E-1,2.4097814E-1,6.418337E-2,1.0928765E-1,1.647414E-1,-3.341672E-4,8.504663E-1,-1.5364731E-4,1.1126265E-2,9.135106E-2,1.2428347E-1,1.5379551E-1,4.918992E-4,-0E0,-2.7559581E-5,-1.1079093E-2,-0E0,4.3984443E-2,-2.22392E0,1.9736853E-4,2.5678857E-4,3.207402E-4,3.8943675E-4,-0E0,2.5820088E-2,2.9923865E-1,-0E0,-0E0,1.30366E-4,2.4604393E-5,-0E0,-0E0,6.556268E-5],"split_indices":[2,2,2,0,2,2,3,0,7,0,11,2,2,2,0,0,0,9,0,11,20,0,0,0,0,0,16,0,0,0,0,0,0,0,0],"split_type":[0,0,0,0,0,0,0,0,0,0,0,0,0,0,0,0,0,0,0,0,0,0,0,0,0,0,0,0,0,0,0,0,0,0,0],"sum_hessian":[7.801E3,4.3E3,3.501E3,2.292E3,2.008E3,1.643E3,1.858E3,2.277E3,1.5E1,1.822E3,1.86E2,9.11E2,7.32E2,9.75E2,8.83E2,7E0,8E0,1.29E2,5.7E1,3.95E2,5.16E2,4.88E2,2.44E2,4.53E2,5.22E2,1.7E1,1.12E2,3.86E2,9E0,7E0,5.09E2,1.05E2,7E0,2.3E1,3.63E2],"tree_param":{"num_deleted":"0","num_feature":"30","num_nodes":"35","size_leaf_vector":"1"}},{"base_weights":[-0E0,-4.2558655E-2,5.2259564E-2,-5.8574423E-2,-2.422729E-2,2.7079038E-2,7.4471734E-2,-3.322716E-4,-1.9935074E-3,-1.527602E-4,2.2345255E-3,1.760784E-2,3.8565464E-2,6.277639E-2,4.8691238E-4,-0E0,-2.740397E-5,3.4728143E-3,-0E0,1.0706894E-2,2.3089468E-2,1.9631023E-4,2.556893E-4,3.1934047E-4,3.8403703E-4,3.7221224E-3,-0E0,1.14365E-2,-0E0,-0E0,1.3164204E-4,-0E0,2.3692017E-5,-0E0,1.1911553E-2,6.8060755E-5,-0E0],"categories":[],"categories_nodes":[],"categories_segments":[],"categories_sizes":[],"default_left":[0,0,0,0,0,0,0,0,0,0,0,0,0,0,0,0,0,0,0,0,0,0,0,0,0,0,0,0,0,0,0,0,0,0,0,0,0],"id":39,"left_children":[1,3,5,7,9,11,13,-1,15,-1,17,19,21,23,-1,-1,-1,25,-1,27,29,-1,-1,-1,-1,31,-1,33,-1,-1,-1,-1,-1,-1,35,-1,-1],"loss_changes":[1.731706E1,1.2414951E0,1.9301577E0,2.1046638E-2,1.5603757E-1,1.6561925E-1,2.2009754E-1,0E0,1.2882933E-4,0E0,6.270802E-4,2.6631713E-2,1.06453896E-4,1.6987324E-3,0E0,0E0,0E0,1.3441546E-4,0E0,5.117487E-3,7.505715E-4,0E0,0E0,0E0,0E0,1.583948E-4,0E0,1.4149845E-3,0E0,0E0,0E0,0E0,0E0,0E0,1.1205673E-5,0E0,0E0],"parents":[2147483647,0,0,1,1,2,2,3,3,4,4,5,5,6,6,8,8,10,10,11,11,12,12,13,13,17,17,19,19,20,20,25,25,27,27,34,34],"right_children":[2,4,6,8,10,12,14,-1,16,-1,18,20,22,24,-1,-1,-1,26,-1,28,30,-1,-1,-1,-1,32,-1,34,-1,-1,-1,-1,-1,-1,36,-1,-1],"split_conditions":[7.8782976E-2,1.825506E-2,1.3571538E-1,2.4097814E-1,6.418337E-2,1.0928765E-1,1.6122948E-1,-3.322716E-4,8.504663E-1,-1.527602E-4,1.1126265E-2,9.5428295E-2,1.2428347E-1,1.5417247E-1,4.8691238E-4,-0E0,-2.740397E-5,1.0389779E0,-0E0,3.975602E-2,-2.2282038E0,1.9631023E-4,2.556893E-4,3.1934047E-4,3.8403703E-4,-1.1079093E-2,-0E0,2.956539E-1,-0E0,-0E0,1.3164204E-4,-0E0,2.3692017E-5,-0E0,3.8399992E0,6.8060755E-5,-0E0],"split_indices":[2,2,2,0,2,2,2,0,7,0,11,2,2,3,0,0,0,7,0,11,21,0,0,0,0,9,0,0,0,0,0,0,0,0,23,0,0],"split_type":[0,0,0,0,0,0,0,0,0,0,0,0,0,0,0,0,0,0,0,0,0,0,0,0,0,0,0,0,0,0,0,0,0,0,0,0,0],"sum_hessian":[7.787E3,4.294E3,3.493E3,2.285E3,2.009E3,1.642E3,1.851E3,2.27E3,1.5E1,1.823E3,1.86E2,9.11E2,7.31E2,9.38E2,9.13E2,7E0,8E0,1.29E2,5.7E1,4.22E2,4.89E2,4.89E2,2.42E2,4.49E2,4.89E2,1.22E2,7E0,4.09E2,1.3E1,8E0,4.81E2,1.7E1,1.05E2,2.2E1,3.87E2,3.78E2,9E0],"tree_param":{"num_deleted":"0","num_feature":"30","num_nodes":"37","size_leaf_vector":"1"}},{"base_weights":[-0E0,-4.3929826E-2,4.9832705E-2,-5.8193825E-2,-2.6238143E-2,2.55348E-2,7.404369E-2,-3.3047883E-4,-1.3623649E-4,-2.6722722E-2,-0E0,1.4595844E-2,3.7684064E-2,6.288676E-2,8.5683174E-2,-0E0,-2.6880244E-2,9.485869E-3,1.2649306E-4,1.7887013E-4,2.3920307E-4,3.1706996E-4,3.8362297E-4,4.867576E-4,-0E0,-1.5208198E-4,-0E0,1.0863353E-3,1.2128235E-2,2.6024152E-3,-0E0,1.2773562E-2,-0E0,-0E0,1.5665892E-5,7.4251446E-5,-0E0],"categories":[],"categories_nodes":[],"categories_segments":[],"categories_sizes":[],"default_left":[0,0,0,0,0,0,0,0,0,0,0,0,0,0,0,0,0,0,0,0,0,0,0,0,0,0,0,0,0,0,0,0,0,0,0,0,0],"id":40,"left_children":[1,3,5,7,9,11,13,-1,-1,15,-1,17,19,21,23,-1,25,27,-1,-1,-1,-1,-1,-1,-1,-1,-1,29,31,33,-1,35,-1,-1,-1,-1,-1],"loss_changes":[1.7078636E1,1.0261936E0,2.1282558E0,6.942272E-3,2.3377895E-2,2.310952E-1,2.0283508E-1,0E0,0E0,5.999565E-3,0E0,3.142576E-2,6.930232E-3,3.336668E-3,2.744627E-2,0E0,1.7249584E-4,1.0388393E-2,0E0,0E0,0E0,0E0,0E0,0E0,0E0,0E0,0E0,5.016742E-4,3.1547844E-3,3.370794E-5,0E0,7.755384E-4,0E0,0E0,0E0,0E0,0E0],"parents":[2147483647,0,0,1,1,2,2,3,3,4,4,5,5,6,6,9,9,11,11,12,12,13,13,14,14,16,16,17,17,27,27,28,28,29,29,31,31],"right_children":[2,4,6,8,10,12,14,-1,-1,16,-1,18,20,22,24,-1,26,28,-1,-1,-1,-1,-1,-1,-1,-1,-1,30,32,34,-1,36,-1,-1,-1,-1,-1],"split_conditions":[7.196468E-2,1.9753613E-2,1.3688207E-1,2.4097814E-1,6.576664E-2,1.051906E-1,1.647414E-1,-3.3047883E-4,-1.3623649E-4,-7.2508484E-2,-0E0,9.6355535E-2,1.1836298E-1,1.5417247E-1,1.00037515E-1,-0E0,4.9134906E-2,2.9236066E-1,1.2649306E-4,1.7887013E-4,2.3920307E-4,3.1706996E-4,3.8362297E-4,4.867576E-4,-0E0,-1.5208198E-4,-0E0,1.8219625E-3,3.1217547E-2,-2.532312E-2,-0E0,3E0,-0E0,-0E0,1.5665892E-5,7.4251446E-5,-0E0],"split_indices":[3,3,3,0,3,3,3,0,0,11,0,3,3,3,15,0,9,0,0,0,0,0,0,0,0,0,0,1,11,9,0,23,0,0,0,0,0],"split_type":[0,0,0,0,0,0,0,0,0,0,0,0,0,0,0,0,0,0,0,0,0,0,0,0,0,0,0,0,0,0,0,0,0,0,0,0,0],"sum_hessian":[7.801E3,4.144E3,3.657E3,2.287E3,1.857E3,1.83E3,1.827E3,2.258E3,2.9E1,1.823E3,3.4E1,9.73E2,8.57E2,9.43E2,8.84E2,1.3E1,1.81E3,6.06E2,3.67E2,3.97E2,4.6E2,4.24E2,5.19E2,8.77E2,7E0,1.803E3,7E0,1.66E2,4.4E2,1.03E2,6.3E1,4.16E2,2.4E1,8E0,9.5E1,3.97E2,1.9E1],"tree_param":{"num_deleted":"0","num_feature":"30","num_nodes":"37","size_leaf_vector":"1"}},{"base_weights":[-0E0,-4.205416E-2,5.1685415E-2,-5.7930835E-2,-2.3912612E-2,2.675909E-2,7.35978E-2,-3.2862087E-4,-1.8709439E-3,-1.5082907E-4,2.2813403E-3,1.7369332E-2,2.1539326E-4,6.205749E-2,4.8136388E-4,-1.695538E-5,-0E0,3.5415115E-3,-0E0,1.0139445E-2,2.2488695E-2,3.1567353E-4,3.8003342E-4,4.1548796E-3,-0E0,1.08612375E-2,-0E0,-0E0,1.2830614E-4,-0E0,2.5083054E-5,-0E0,6.432756E-5],"categories":[],"categories_nodes":[],"categories_segments":[],"categories_sizes":[],"default_left":[0,0,0,0,0,0,0,0,0,0,0,0,0,0,0,0,0,0,0,0,0,0,0,0,0,0,0,0,0,0,0,0,0],"id":41,"left_children":[1,3,5,7,9,11,13,-1,15,-1,17,19,-1,21,-1,-1,-1,23,-1,25,27,-1,-1,29,-1,31,-1,-1,-1,-1,-1,-1,-1],"loss_changes":[1.692357E1,1.2166762E0,1.8857021E0,2.0461082E-2,1.5298784E-1,1.6249883E-1,2.1533203E-1,0E0,1.9630941E-5,0E0,6.499187E-4,2.6121974E-2,0E0,1.857996E-3,0E0,0E0,0E0,1.428721E-4,0E0,4.9409233E-3,1.8394291E-3,0E0,0E0,9.415415E-5,0E0,1.4611781E-3,0E0,0E0,0E0,0E0,0E0,0E0,0E0],"parents":[2147483647,0,0,1,1,2,2,3,3,4,4,5,5,6,6,8,8,10,10,11,11,13,13,17,17,19,19,20,20,23,23,25,25],"right_children":[2,4,6,8,10,12,14,-1,16,-1,18,20,-1,22,-1,-1,-1,24,-1,26,28,-1,-1,30,-1,32,-1,-1,-1,-1,-1,-1,-1],"split_conditions":[7.8782976E-2,1.825506E-2,1.3571538E-1,2.4097814E-1,6.418337E-2,1.0928765E-1,1.6122948E-1,-3.2862087E-4,-2.4824562E-3,-1.5082907E-4,1.1126265E-2,9.135106E-2,2.1539326E-4,1.5379551E-1,4.8136388E-4,-1.695538E-5,-0E0,3.800001E-1,-0E0,4.3984443E-2,-2.22392E0,3.1567353E-4,3.8003342E-4,-1.1079093E-2,-0E0,2.9923865E-1,-0E0,-0E0,1.2830614E-4,-0E0,2.5083054E-5,-0E0,6.432756E-5],"split_indices":[2,2,2,0,2,2,2,0,9,0,11,2,0,2,0,0,0,23,0,11,20,0,0,9,0,0,0,0,0,0,0,0,0],"split_type":[0,0,0,0,0,0,0,0,0,0,0,0,0,0,0,0,0,0,0,0,0,0,0,0,0,0,0,0,0,0,0,0,0],"sum_hessian":[7.785E3,4.29E3,3.495E3,2.281E3,2.009E3,1.64E3,1.855E3,2.266E3,1.5E1,1.823E3,1.86E2,9.1E2,7.3E2,9.42E2,9.13E2,8E0,7E0,1.29E2,5.7E1,3.96E2,5.14E2,4.54E2,4.88E2,1.02E2,2.7E1,3.87E2,9E0,7E0,5.07E2,8E0,9.4E1,2.4E1,3.63E2],"tree_param":{"num_deleted":"0","num_feature":"30","num_nodes":"33","size_leaf_vector":"1"}},{"base_weights":[-0E0,-4.1852638E-2,5.1460322E-2,-5.7591096E-2,-2.3810882E-2,2.6608203E-2,7.316821E-2,-5.7718985E-2,-0E0,-1.502716E-4,2.2272768E-3,1.7264852E-2,3.7917804E-2,6.212363E-2,4.8095433E-4,-6.587133E-7,-3.267635E-4,3.4540496E-3,-0E0,1.0480168E-2,2.270174E-2,1.9266488E-4,2.5149997E-4,3.1340186E-4,3.807343E-4,3.700505E-3,-0E0,6.342972E-5,-0E0,-0E0,1.2944313E-4,2.174265E-5,-0E0],"categories":[],"categories_nodes":[],"categories_segments":[],"categories_sizes":[],"default_left":[0,0,0,0,0,0,0,0,0,0,0,0,0,0,0,0,0,0,0,0,0,0,0,0,0,0,0,0,0,0,0,0,0],"id":42,"left_children":[1,3,5,7,9,11,13,15,-1,-1,17,19,21,23,-1,-1,-1,25,-1,27,29,-1,-1,-1,-1,31,-1,-1,-1,-1,-1,-1,-1],"loss_changes":[1.6772491E1,1.2001352E0,1.8618517E0,1.03907585E-2,1.5211225E-1,1.5987921E-1,2.1259594E-1,6.4868927E-3,0E0,0E0,6.232981E-4,2.5732517E-2,8.070469E-5,5.8994293E-3,0E0,0E0,0E0,1.333704E-4,0E0,5.1369853E-3,7.2029233E-4,0E0,0E0,0E0,0E0,6.0366E-6,0E0,0E0,0E0,0E0,0E0,0E0,0E0],"parents":[2147483647,0,0,1,1,2,2,3,3,4,4,5,5,6,6,7,7,10,10,11,11,12,12,13,13,17,17,19,19,20,20,25,25],"right_children":[2,4,6,8,10,12,14,16,-1,-1,18,20,22,24,-1,-1,-1,26,-1,28,30,-1,-1,-1,-1,32,-1,-1,-1,-1,-1,-1,-1],"split_conditions":[7.8782976E-2,1.825506E-2,1.3571538E-1,3.7570707E-2,6.418337E-2,1.0928765E-1,1.647414E-1,-5.525253E-1,-0E0,-1.502716E-4,1.1126265E-2,9.5428295E-2,1.2428347E-1,1.5379551E-1,4.8095433E-4,-6.587133E-7,-3.267635E-4,1.0389779E0,-0E0,3.975602E-2,-2.2282038E0,1.9266488E-4,2.5149997E-4,3.1340186E-4,3.807343E-4,1.3299999E0,-0E0,6.342972E-5,-0E0,-0E0,1.2944313E-4,2.174265E-5,-0E0],"split_indices":[2,2,2,3,2,2,3,4,0,0,11,2,2,2,0,0,0,7,0,11,21,0,0,0,0,23,0,0,0,0,0,0,0],"split_type":[0,0,0,0,0,0,0,0,0,0,0,0,0,0,0,0,0,0,0,0,0,0,0,0,0,0,0,0,0,0,0,0,0],"sum_hessian":[7.787E3,4.293E3,3.494E3,2.286E3,2.007E3,1.634E3,1.86E3,2.279E3,7E0,1.82E3,1.87E2,9.06E2,7.28E2,9.79E2,8.81E2,1E1,2.269E3,1.3E2,5.7E1,4.22E2,4.84E2,4.85E2,2.43E2,4.55E2,5.24E2,1.23E2,7E0,4.08E2,1.4E1,8E0,4.76E2,1.14E2,9E0],"tree_param":{"num_deleted":"0","num_feature":"30","num_nodes":"33","size_leaf_vector":"1"}},{"base_weights":[-0E0,-4.1591562E-2,5.111209E-2,-5.727242E-2,-2.36779E-2,2.6463808E-2,7.280683E-2,-3.2487887E-4,-1.7744151E-3,-1.493756E-4,2.214023E-3,1.7187512E-2,2.1298377E-4,6.1797813E-2,4.7826165E-4,-0E0,-2.5417208E-5,3.4349845E-3,-0E0,1.002825E-2,2.2232832E-2,3.1177548E-4,3.7860984E-4,3.6803551E-3,-0E0,1.0747455E-2,-0E0,-0E0,1.2683851E-4,-0E0,2.3394665E-5,-0E0,1.1275307E-2,-0E0,6.4941974E-5],"categories":[],"categories_nodes":[],"categories_segments":[],"categories_sizes":[],"default_left":[0,0,0,0,0,0,0,0,0,0,0,0,0,0,0,0,0,0,0,0,0,0,0,0,0,0,0,0,0,0,0,0,0,0,0],"id":43,"left_children":[1,3,5,7,9,11,13,-1,15,-1,17,19,-1,21,-1,-1,-1,23,-1,25,27,-1,-1,29,-1,31,-1,-1,-1,-1,-1,-1,33,-1,-1],"loss_changes":[1.6579338E1,1.1891212E0,1.8480501E0,1.9821167E-2,1.5042341E-1,1.5883446E-1,2.0909882E-1,0E0,1.1487919E-4,0E0,6.1723153E-4,2.5467843E-2,0E0,5.359173E-3,0E0,0E0,0E0,1.3215141E-4,0E0,4.8774704E-3,1.7867684E-3,0E0,0E0,1.5362492E-4,0E0,1.4476068E-3,0E0,0E0,0E0,0E0,0E0,0E0,1.7426908E-5,0E0,0E0],"parents":[2147483647,0,0,1,1,2,2,3,3,4,4,5,5,6,6,8,8,10,10,11,11,13,13,17,17,19,19,20,20,23,23,25,25,32,32],"right_children":[2,4,6,8,10,12,14,-1,16,-1,18,20,-1,22,-1,-1,-1,24,-1,26,28,-1,-1,30,-1,32,-1,-1,-1,-1,-1,-1,34,-1,-1],"split_conditions":[7.8782976E-2,1.825506E-2,1.3571538E-1,2.4097814E-1,6.418337E-2,1.0928765E-1,1.647414E-1,-3.2487887E-4,8.504663E-1,-1.493756E-4,1.1126265E-2,9.135106E-2,2.1298377E-4,1.5379551E-1,4.7826165E-4,-0E0,-2.5417208E-5,1.0389779E0,-0E0,4.3984443E-2,-2.22392E0,3.1177548E-4,3.7860984E-4,-1.1079093E-2,-0E0,2.9923865E-1,-0E0,-0E0,1.2683851E-4,-0E0,2.3394665E-5,-0E0,-2.646695E-2,-0E0,6.4941974E-5],"split_indices":[2,2,2,0,2,2,3,0,7,0,11,2,0,2,0,0,0,7,0,11,20,0,0,9,0,0,0,0,0,0,0,0,9,0,0],"split_type":[0,0,0,0,0,0,0,0,0,0,0,0,0,0,0,0,0,0,0,0,0,0,0,0,0,0,0,0,0,0,0,0,0,0,0],"sum_hessian":[7.799E3,4.3E3,3.499E3,2.286E3,2.014E3,1.643E3,1.856E3,2.271E3,1.5E1,1.827E3,1.87E2,9.12E2,7.31E2,9.74E2,8.82E2,7E0,8E0,1.3E2,5.7E1,3.96E2,5.16E2,4.52E2,5.22E2,1.23E2,7E0,3.87E2,9E0,7E0,5.09E2,1.7E1,1.06E2,2.4E1,3.63E2,1.4E1,3.49E2],"tree_param":{"num_deleted":"0","num_feature":"30","num_nodes":"35","size_leaf_vector":"1"}},{"base_weights":[1.5869624E-5,-4.138623E-2,5.080287E-2,-5.6934047E-2,-2.3542697E-2,2.6284551E-2,7.235934E-2,-3.2295682E-4,-1.7608611E-3,-1.48521E-4,2.1962076E-3,1.7104048E-2,3.744909E-2,6.105085E-2,4.7337112E-4,-0E0,-2.5273712E-5,3.415909E-3,-0E0,1.0397246E-2,2.2420974E-2,1.9020452E-4,2.486567E-4,3.0626002E-4,3.7003224E-4,3.6601936E-3,-0E0,1.11464495E-2,-0E0,-0E0,1.2782027E-4,-0E0,2.3262566E-5,-0E0,1.1579842E-2,6.6161214E-5,-0E0],"categories":[],"categories_nodes":[],"categories_segments":[],"categories_sizes":[],"default_left":[0,0,0,0,0,0,0,0,0,0,0,0,0,0,0,0,0,0,0,0,0,0,0,0,0,0,0,0,0,0,0,0,0,0,0,0,0],"id":44,"left_children":[1,3,5,7,9,11,13,-1,15,-1,17,19,21,23,-1,-1,-1,25,-1,27,29,-1,-1,-1,-1,31,-1,33,-1,-1,-1,-1,-1,-1,35,-1,-1],"loss_changes":[1.6382126E1,1.1712432E0,1.8275242E0,1.9436836E-2,1.4798903E-1,1.5576208E-1,2.0755768E-1,0E0,1.1377273E-4,0E0,6.1975804E-4,2.4953812E-2,9.346008E-5,1.1358261E-3,0E0,0E0,0E0,1.3093709E-4,0E0,5.0880685E-3,6.772876E-4,0E0,0E0,0E0,0E0,1.5133712E-4,0E0,1.212474E-3,0E0,0E0,0E0,0E0,0E0,0E0,7.212162E-6,0E0,0E0],"parents":[2147483647,0,0,1,1,2,2,3,3,4,4,5,5,6,6,8,8,10,10,11,11,12,12,13,13,17,17,19,19,20,20,25,25,27,27,34,34],"right_children":[2,4,6,8,10,12,14,-1,16,-1,18,20,22,24,-1,-1,-1,26,-1,28,30,-1,-1,-1,-1,32,-1,34,-1,-1,-1,-1,-1,-1,36,-1,-1],"split_conditions":[7.8782976E-2,1.825506E-2,1.3571538E-1,2.4097814E-1,6.418337E-2,1.0928765E-1,1.6122948E-1,-3.2295682E-4,8.504663E-1,-1.48521E-4,1.1126265E-2,9.5428295E-2,1.2428347E-1,1.4897951E-1,4.7337112E-4,-0E0,-2.5273712E-5,1.0389779E0,-0E0,3.975602E-2,-2.2282038E0,1.9020452E-4,2.486567E-4,3.0626002E-4,3.7003224E-4,-1.1079093E-2,-0E0,2.956539E-1,-0E0,-0E0,1.2782027E-4,-0E0,2.3262566E-5,-0E0,3.8399992E0,6.6161214E-5,-0E0],"split_indices":[2,2,2,0,2,2,2,0,7,0,11,2,2,2,0,0,0,7,0,11,21,0,0,0,0,9,0,0,0,0,0,0,0,0,23,0,0],"split_type":[0,0,0,0,0,0,0,0,0,0,0,0,0,0,0,0,0,0,0,0,0,0,0,0,0,0,0,0,0,0,0,0,0,0,0,0,0],"sum_hessian":[7.79E3,4.289E3,3.501E3,2.285E3,2.004E3,1.643E3,1.858E3,2.27E3,1.5E1,1.818E3,1.86E2,9.13E2,7.3E2,9.46E2,9.12E2,7E0,8E0,1.3E2,5.6E1,4.23E2,4.9E2,4.87E2,2.43E2,3.96E2,5.5E2,1.23E2,7E0,4.09E2,1.4E1,8E0,4.82E2,1.7E1,1.06E2,2.1E1,3.88E2,3.79E2,9E0],"tree_param":{"num_deleted":"0","num_feature":"30","num_nodes":"37","size_leaf_vector":"1"}},{"base_weights":[-0E0,-4.2719178E-2,4.8493076E-2,-5.65827E-2,-2.5503969E-2,2.4845803E-2,7.197453E-2,-3.213103E-4,-1.3263462E-4,-2.5975587E-2,-0E0,1.3860621E-2,3.6290687E-2,6.1138045E-2,8.329778E-2,-0E0,-2.6130002E-2,9.232143E-3,1.21144025E-4,1.6684522E-4,4.055973E-2,3.0842616E-4,3.7286812E-4,4.7324938E-4,-0E0,-1.4784059E-4,-0E0,9.682794E-4,1.17915785E-2,2.3059007E-4,-0E0,2.455389E-3,-0E0,1.2315319E-2,-0E0,-0E0,1.4785197E-5,7.1824405E-5,-0E0],"categories":[],