{"learner":{"attributes":{"best_iteration":"17","best_score":"0.00807045099802691","scikit_learn":"{\"_estimator_type\": \"regressor\"}"},"feature_names":[],"feature_types":[],"gradient_booster":{"model":{"cats":{"enc":[],"feature_segments":[],"sorted_idx":[]},"gbtree_model_param":{"num_parallel_tree":"1","num_trees":"28"},"iteration_indptr":[0,1,2,3,4,5,6,7,8,9,10,11,12,13,14,15,16,17,18,19,20,21,22,23,24,25,26,27,28],"tree_info":[0,0,0,0,0,0,0,0,0,0,0,0,0,0,0,0,0,0,0,0,0,0,0,0,0,0,0,0],"trees":[{"base_weights":[5.5331446E-4,-5.543896E-2,6.166394E-2,-7.28834E-2,-3.3543143E-2,3.1468537E-2,9.320162E-2,-1.1249093E-2,-7.3050566E-2,-1.4690487E-2,-3.328423E-2,1.8914122E-2,4.822115E-2,7.90036E-2,1.0819866E-1,-7.327654E-2,-6.366253E-2,-2.1009289E-2,-3.348953E-2,1.1039303E-2,2.8231798E-2,4.3074585E-2,5.701897E-2,7.030294E-2,8.5149355E-2,1.0547035E-1,1.1403961E-1,-1.8224858E-2,-1.6603872E-2,-1.004234E-2,-1.6359221E-2,-2.1872525E-3,-7.3292097E-3,-8.964678E-3,-7.5146602E-3,1.2088644E-3,3.3138972E-3,5.3258277E-3,6.8480866E-3,1.3066198E-2,9.556708E-3,1.1913867E-2,1.3383559E-2,1.8873563E-2,1.5789635E-2,1.9384135E-2,1.6618518E-2,2.345048E-2,2.4486642E-2,2.4349956E-2,2.618646E-2],"categories":[],"categories_nodes":[],"categories_segments":[],"categories_sizes":[],"default_left":[0,0,0,0,0,0,0,0,0,0,0,0,0,0,0,0,0,0,0,0,0,0,0,0,0,0,0,0,0,0,0,0,0,0,0,0,0,0,0,0,0,0,0,0,0,0,0,0,0,0,0],"id":0,"left_children":[1,3,5,7,9,11,13,-1,15,-1,17,19,21,23,25,27,29,31,33,35,37,39,41,43,45,47,49,-1,-1,-1,-1,-1,-1,-1,-1,-1,-1,-1,-1,-1,-1,-1,-1,-1,-1,-1,-1,-1,-1,-1,-1],"loss_changes":[1.808399E1,1.0533905E0,2.4063902E0,5.8755875E-3,9.831548E-3,2.715026E-1,2.6295376E-1,0E0,3.107071E-3,0E0,3.037572E-3,5.4144025E-2,2.497375E-2,3.379488E-2,9.254932E-3,5.1498413E-4,5.8288425E-3,2.564964E-3,2.5191307E-3,8.157305E-3,3.1327903E-3,4.681468E-3,1.7414093E-3,2.1561384E-3,1.2555122E-3,1.8205643E-3,1.4841557E-3,0E0,0E0,0E0,0E0,0E0,0E0,0E0,0E0,0E0,0E0,0E0,0E0,0E0,0E0,0E0,0E0,0E0,0E0,0E0,0E0,0E0,0E0,0E0,0E0],"parents":[2147483647,0,0,1,1,2,2,3,3,4,4,5,5,6,6,8,8,10,10,11,11,12,12,13,13,14,14,15,15,16,16,17,17,18,18,19,19,20,20,21,21,22,22,23,23,24,24,25,25,26,26],"right_children":[2,4,6,8,10,12,14,-1,16,-1,18,20,22,24,26,28,30,32,34,36,38,40,42,44,46,48,50,-1,-1,-1,-1,-1,-1,-1,-1,-1,-1,-1,-1,-1,-1,-1,-1,-1,-1,-1,-1,-1,-1,-1,-1],"split_conditions":[6.576664E-2,1.9753613E-2,1.3688207E-1,8.068664E-1,8.504663E-1,1.0664513E-1,1.647414E-1,-1.1249093E-2,1.1654729E-2,-1.4690487E-2,-1.2162196E-1,9.186632E-2,1.23336755E-1,1.5152732E-1,1.8367463E-1,-1.5837628E-1,9.8611224E-1,9.6029544E-1,3.1815823E-2,8.065609E-2,9.874613E-2,9.739802E-1,1.275391E-1,9.518733E-1,1.0232756E0,1.77566E-1,9.6933675E-1,-1.8224858E-2,-1.6603872E-2,-1.004234E-2,-1.6359221E-2,-2.1872525E-3,-7.3292097E-3,-8.964678E-3,-7.5146602E-3,1.2088644E-3,3.3138972E-3,5.3258277E-3,6.8480866E-3,1.3066198E-2,9.556708E-3,1.1913867E-2,1.3383559E-2,1.8873563E-2,1.5789635E-2,1.9384135E-2,1.6618518E-2,2.345048E-2,2.4486642E-2,2.4349956E-2,2.618646E-2],"split_indices":[0,0,0,2,2,0,0,0,0,0,4,0,0,0,0,4,3,3,0,0,0,3,0,2,3,0,2,0,0,0,0,0,0,0,0,0,0,0,0,0,0,0,0,0,0,0,0,0,0,0,0],"split_type":[0,0,0,0,0,0,0,0,0,0,0,0,0,0,0,0,0,0,0,0,0,0,0,0,0,0,0,0,0,0,0,0,0,0,0,0,0,0,0,0,0,0,0,0,0,0,0,0,0,0,0],"sum_hessian":[5.285E3,2.758E3,2.527E3,1.535E3,1.223E3,1.291E3,1.236E3,1.1E1,1.524E3,1E1,1.213E3,7.38E2,5.53E2,6.35E2,6.01E2,1.488E3,3.6E1,2E1,1.193E3,4E2,3.38E2,3.49E2,2.04E2,2.63E2,3.72E2,4.1E2,1.91E2,1.3E1,1.475E3,1.1E1,2.5E1,1E1,1E1,6.6E1,1.127E3,1.54E2,2.46E2,9.9E1,2.39E2,2.1E1,3.28E2,6.3E1,1.41E2,1.3E1,2.5E2,3.62E2,1E1,2.25E2,1.85E2,3.4E1,1.57E2],"tree_param":{"num_deleted":"0","num_feature":"7","num_nodes":"51","size_leaf_vector":"1"}},{"base_weights":[1.5855587E-5,-4.1178502E-2,4.980376E-2,-5.6570552E-2,-2.3753827E-2,2.4940562E-2,7.125794E-2,-1.8887846E-2,-5.637628E-2,-2.5999237E-2,2.1930416E-3,1.5290951E-2,3.5386946E-2,6.0680237E-2,8.276127E-2,-6.930496E-3,-5.6580625E-2,-2.6158404E-2,-2.9237317E-3,-2.4585272E-3,3.452192E-3,1.019295E-2,2.2275172E-2,3.0069582E-2,3.9464653E-2,5.4242246E-2,6.6578634E-2,8.324879E-2,1.3183777E-2,-1.2871278E-2,-9.54936E-3,-8.925531E-3,-5.902844E-3,-1.0097018E-3,-2.0824817E-4,1.4308924E-3,3.9112862E-4,-3.1530422E-3,2.4810953E-3,7.2231777E-3,4.9282135E-3,8.61467E-3,6.610236E-3,8.46895E-3,9.959605E-3,1.1752953E-2,1.2969808E-2,1.8249994E-2,1.5004972E-2,1.8459586E-2,2.0011509E-2],"categories":[],"categories_nodes":[],"categories_segments":[],"categories_sizes":[],"default_left":[0,0,0,0,0,0,0,0,0,0,0,0,0,0,0,0,0,0,0,0,0,0,0,0,0,0,0,0,0,0,0,0,0,0,0,0,0,0,0,0,0,0,0,0,0,0,0,0,0,0,0],"id":1,"left_children":[1,3,5,7,9,11,13,-1,15,17,19,21,23,25,27,-1,29,31,-1,33,35,37,39,41,43,45,47,49,-1,-1,-1,-1,-1,-1,-1,-1,-1,-1,-1,-1,-1,-1,-1,-1,-1,-1,-1,-1,-1,-1,-1],"loss_changes":[1.0835442E1,7.7534056E-1,1.2759047E0,7.839203E-3,7.90056E-2,1.1167812E-1,1.5610361E-1,0E0,7.993221E-3,2.5944114E-3,6.329516E-4,2.0503387E-2,1.1503339E-2,2.5307655E-2,7.2541237E-3,0E0,3.7350655E-3,2.0968318E-3,0E0,7.0548165E-5,4.1931437E-4,5.9993602E-3,1.248762E-3,1.6569644E-3,2.7984679E-3,2.200842E-3,1.8740892E-3,5.3834915E-3,0E0,0E0,0E0,0E0,0E0,0E0,0E0,0E0,0E0,0E0,0E0,0E0,0E0,0E0,0E0,0E0,0E0,0E0,0E0,0E0,0E0,0E0,0E0],"parents":[2147483647,0,0,1,1,2,2,3,3,4,4,5,5,6,6,8,8,9,9,10,10,11,11,12,12,13,13,14,14,16,16,17,17,19,19,20,20,21,21,22,22,23,23,24,24,25,25,26,26,27,27],"right_children":[2,4,6,8,10,12,14,-1,16,18,20,22,24,26,28,-1,30,32,-1,34,36,38,40,42,44,46,48,50,-1,-1,-1,-1,-1,-1,-1,-1,-1,-1,-1,-1,-1,-1,-1,-1,-1,-1,-1,-1,-1,-1,-1],"split_conditions":[7.791973E-2,1.9753613E-2,1.3257399E-1,8.57474E-1,6.576664E-2,1.051906E-1,1.647414E-1,-1.8887846E-2,-1.0510177E-1,5.471607E-2,7.196468E-2,9.6355535E-2,1.16557285E-1,1.5417247E-1,6.757343E-2,-6.930496E-3,1.4117886E-2,8.766625E-1,-2.9237317E-3,9.7686505E-1,9.919994E-1,9.364454E-1,-3.7590362E-2,-3.1255733E-2,1.275391E-1,1.4421163E-1,9.172532E-1,1.851219E-1,1.3183777E-2,-1.2871278E-2,-9.54936E-3,-8.925531E-3,-5.902844E-3,-1.0097018E-3,-2.0824817E-4,1.4308924E-3,3.9112862E-4,-3.1530422E-3,2.4810953E-3,7.2231777E-3,4.9282135E-3,8.61467E-3,6.610236E-3,8.46895E-3,9.959605E-3,1.1752953E-2,1.2969808E-2,1.8249994E-2,1.5004972E-2,1.8459586E-2,2.0011509E-2],"split_indices":[0,0,0,1,0,0,0,0,5,0,0,0,0,0,5,0,0,2,0,2,1,2,5,5,0,0,2,0,0,0,0,0,0,0,0,0,0,0,0,0,0,0,0,0,0,0,0,0,0,0,0],"split_type":[0,0,0,0,0,0,0,0,0,0,0,0,0,0,0,0,0,0,0,0,0,0,0,0,0,0,0,0,0,0,0,0,0,0,0,0,0,0,0,0,0,0,0,0,0,0,0,0,0,0,0],"sum_hessian":[5.283E3,2.891E3,2.392E3,1.535E3,1.356E3,1.108E3,1.284E3,1.1E1,1.524E3,1.248E3,1.08E2,5.76E2,5.32E2,6.69E2,6.15E2,1.2E1,1.512E3,1.233E3,1.5E1,2.3E1,8.5E1,3.33E2,2.43E2,2.31E2,3.01E2,3.2E2,3.49E2,6.03E2,1.2E1,1.494E3,1.8E1,1.2E1,1.221E3,1E1,1.3E1,3.2E1,5.3E1,1E1,3.23E2,1.3E1,2.3E2,2.4E1,2.07E2,2.04E2,9.7E1,1.76E2,1.44E2,1E1,3.39E2,4.4E2,1.63E2],"tree_param":{"num_deleted":"0","num_feature":"7","num_nodes":"51","size_leaf_vector":"1"}},{"base_weights":[-1.2762779E-4,-3.1206435E-2,3.9842315E-2,-4.3501038E-2,-1.7707955E-2,2.182655E-2,5.492181E-2,-4.0479634E-2,-4.3951076E-2,-2.0312548E-2,2.3570422E-3,1.4603712E-2,2.9741557E-2,4.7072243E-2,6.413152E-2,-4.140353E-2,-3.292096E-2,-4.7234114E-2,-4.3731723E-2,-8.6343605E-3,-2.0168267E-2,3.511467E-3,-3.4362825E-3,1.0446874E-2,1.8115442E-2,2.691208E-2,3.4200173E-2,4.2281613E-2,5.12242E-2,6.489876E-2,6.3515343E-3,-5.4402566E-3,-9.67277E-3,-8.972383E-3,-6.193597E-3,-1.0328863E-2,-1.2605461E-2,-9.899126E-3,-1.2025741E-2,-4.5132954E-3,-5.741865E-3,2.8017284E-3,6.546257E-4,1.8589398E-3,2.6743931E-3,5.8047427E-3,4.023929E-3,9.636771E-3,5.9831445E-3,9.04736E-3,7.537034E-3,1.2523336E-2,9.491411E-3,1.1676408E-2,9.504391E-3,2.1000477E-2,1.4603962E-2],"categories":[],"categories_nodes":[],"categories_segments":[],"categories_sizes":[],"default_left":[0,0,0,0,0,0,0,0,0,0,0,0,0,0,0,0,0,0,0,0,0,0,0,0,0,0,0,0,0,0,0,0,0,0,0,0,0,0,0,0,0,0,0,0,0,0,0,0,0,0,0,0,0,0,0,0,0],"id":2,"left_children":[1,3,5,7,9,11,13,15,17,19,21,23,25,27,29,31,33,35,37,-1,39,41,-1,43,45,47,49,51,53,55,-1,-1,-1,-1,-1,-1,-1,-1,-1,-1,-1,-1,-1,-1,-1,-1,-1,-1,-1,-1,-1,-1,-1,-1,-1,-1,-1],"loss_changes":[6.5316496E0,4.9088812E-1,6.248121E-1,2.0565987E-3,7.369113E-2,5.990243E-2,9.043002E-2,1.3667643E-3,9.138584E-4,3.1767488E-3,3.2763067E-3,7.994585E-3,6.2829256E-3,1.338768E-2,1.591611E-2,3.8609207E-3,7.913448E-4,1.1170655E-3,9.0932846E-4,0E0,1.6913414E-3,8.3904713E-4,0E0,7.572267E-4,8.149147E-4,2.4971813E-3,1.0315627E-3,1.686275E-3,8.2308054E-4,7.7204704E-3,0E0,0E0,0E0,0E0,0E0,0E0,0E0,0E0,0E0,0E0,0E0,0E0,0E0,0E0,0E0,0E0,0E0,0E0,0E0,0E0,0E0,0E0,0E0,0E0,0E0,0E0,0E0],"parents":[2147483647,0,0,1,1,2,2,3,3,4,4,5,5,6,6,7,7,8,8,9,9,10,10,11,11,12,12,13,13,14,14,15,15,16,16,17,17,18,18,20,20,21,21,23,23,24,24,25,25,26,26,27,27,28,28,29,29],"right_children":[2,4,6,8,10,12,14,16,18,20,22,24,26,28,30,32,34,36,38,-1,40,42,-1,44,46,48,50,52,54,56,-1,-1,-1,-1,-1,-1,-1,-1,-1,-1,-1,-1,-1,-1,-1,-1,-1,-1,-1,-1,-1,-1,-1,-1,-1,-1,-1],"split_conditions":[8.2331516E-2,1.9753613E-2,1.3529404E-1,9.797415E-1,6.576664E-2,1.09375626E-1,1.647414E-1,6.083117E-3,9.851119E-1,-1.5837628E-1,1.0169804E0,9.6355535E-2,1.23336755E-1,1.5417247E-1,1.0457395E0,-2.7974394E-1,-7.755817E-2,-2.347552E-3,1.00037515E-1,-8.6343605E-3,1.0286068E0,-5.664443E-2,-3.4362825E-3,8.763181E-2,9.703587E-1,-9.442633E-2,-1.90798E-2,9.608867E-1,3.0779084E-2,9.1137826E-1,6.3515343E-3,-5.4402566E-3,-9.67277E-3,-8.972383E-3,-6.193597E-3,-1.0328863E-2,-1.2605461E-2,-9.899126E-3,-1.2025741E-2,-4.5132954E-3,-5.741865E-3,2.8017284E-3,6.546257E-4,1.8589398E-3,2.6743931E-3,5.8047427E-3,4.023929E-3,9.636771E-3,5.9831445E-3,9.04736E-3,7.537034E-3,1.2523336E-2,9.491411E-3,1.1676408E-2,9.504391E-3,2.1000477E-2,1.4603962E-2],"split_indices":[0,0,0,3,0,0,0,0,3,4,3,0,0,0,3,4,6,6,5,0,3,4,0,0,3,4,5,1,5,1,0,0,0,0,0,0,0,0,0,0,0,0,0,0,0,0,0,0,0,0,0,0,0,0,0,0,0],"split_type":[0,0,0,0,0,0,0,0,0,0,0,0,0,0,0,0,0,0,0,0,0,0,0,0,0,0,0,0,0,0,0,0,0,0,0,0,0,0,0,0,0,0,0,0,0,0,0,0,0,0,0,0,0,0,0,0,0],"sum_hessian":[5.258E3,2.958E3,2.3E3,1.548E3,1.41E3,1.048E3,1.252E3,2.01E2,1.347E3,1.248E3,1.62E2,5.48E2,5E2,6.76E2,5.76E2,1.79E2,2.2E1,8.4E1,1.263E3,1E1,1.238E3,1.52E2,1E1,2.51E2,2.97E2,3.06E2,1.94E2,3.14E2,3.62E2,5.64E2,1.2E1,1.2E1,1.67E2,1E1,1.2E1,7E1,1.4E1,1.252E3,1.1E1,1.177E3,6.1E1,1E1,1.42E2,9.4E1,1.57E2,1.4E1,2.83E2,1E1,2.96E2,2.8E1,1.66E2,1E1,3.04E2,3.52E2,1E1,1E1,5.54E2],"tree_param":{"num_deleted":"0","num_feature":"7","num_nodes":"57","size_leaf_vector":"1"}},{"base_weights":[1.2900053E-4,-2.49188E-2,3.0101119E-2,-3.410395E-2,-1.4386838E-2,1.5786113E-2,4.315542E-2,-1.128339E-2,-3.399057E-2,-1.589244E-2,2.959826E-4,1.0029251E-2,2.2198265E-2,3.6436513E-2,4.919464E-2,-4.9710195E-3,-3.4069594E-2,6.159175E-4,-1.604642E-2,2.5390543E-3,-5.9541315E-3,6.381912E-3,1.3534059E-2,1.898941E-2,2.4476955E-2,3.1347096E-2,3.8683992E-2,1.59617E-2,4.873543E-2,-9.388177E-3,-7.709904E-3,-4.986257E-3,-3.5562566E-3,-1.6201261E-3,8.440982E-4,-4.543918E-3,2.4993188E-4,2.2542344E-3,1.096277E-3,1.9123084E-3,3.128233E-3,6.523538E-3,4.181479E-3,2.6910147E-3,5.6727733E-3,7.2708675E-3,4.984317E-3,6.696052E-3,8.824091E-3,1.02347685E-2,1.1678678E-2],"categories":[],"categories_nodes":[],"categories_segments":[],"categories_sizes":[],"default_left":[0,0,0,0,0,0,0,0,0,0,0,0,0,0,0,0,0,0,0,0,0,0,0,0,0,0,0,0,0,0,0,0,0,0,0,0,0,0,0,0,0,0,0,0,0,0,0,0,0,0,0],"id":3,"left_children":[1,3,5,7,9,11,13,-1,15,17,19,21,23,25,27,-1,29,-1,31,33,35,37,39,41,43,45,47,-1,49,-1,-1,-1,-1,-1,-1,-1,-1,-1,-1,-1,-1,-1,-1,-1,-1,-1,-1,-1,-1,-1,-1],"loss_changes":[3.975936E0,2.790773E-1,4.505353E-1,2.6880503E-3,2.9711992E-2,4.244572E-2,5.1120043E-2,0E0,1.4390945E-3,3.4941435E-3,1.7531775E-3,7.7444687E-3,3.96505E-3,6.7960024E-3,6.367445E-3,0E0,7.829666E-4,0E0,2.6156902E-3,1.0547207E-3,3.2824022E-3,1.6344814E-3,4.0579215E-4,1.2043715E-3,2.1431297E-3,1.20309E-3,8.2063675E-4,0E0,6.407857E-3,0E0,0E0,0E0,0E0,0E0,0E0,0E0,0E0,0E0,0E0,0E0,0E0,0E0,0E0,0E0,0E0,0E0,0E0,0E0,0E0,0E0,0E0],"parents":[2147483647,0,0,1,1,2,2,3,3,4,4,5,5,6,6,8,8,9,9,10,10,11,11,12,12,13,13,14,14,16,16,18,18,19,19,20,20,21,21,22,22,23,23,24,24,25,25,26,26,28,28],"right_children":[2,4,6,8,10,12,14,-1,16,18,20,22,24,26,28,-1,30,-1,32,34,36,38,40,42,44,46,48,-1,50,-1,-1,-1,-1,-1,-1,-1,-1,-1,-1,-1,-1,-1,-1,-1,-1,-1,-1,-1,-1,-1,-1],"split_conditions":[7.791973E-2,1.9753613E-2,1.3688207E-1,9.152346E-1,5.471607E-2,1.0796757E-1,1.5949327E-1,-1.128339E-2,9.3186533E-1,9.1137826E-1,1.0055443E0,9.4201066E-2,1.1836298E-1,1.4672205E-1,8.766625E-1,-4.9710195E-3,9.1137826E-1,6.159175E-4,3.1815823E-2,-4.647211E-2,7.196468E-2,9.930234E-1,9.531106E-1,9.721259E-1,-6.9321245E-2,1.0372103E0,-6.2116306E-2,1.59617E-2,1.77566E-1,-9.388177E-3,-7.709904E-3,-4.986257E-3,-3.5562566E-3,-1.6201261E-3,8.440982E-4,-4.543918E-3,2.4993188E-4,2.2542344E-3,1.096277E-3,1.9123084E-3,3.128233E-3,6.523538E-3,4.181479E-3,2.6910147E-3,5.6727733E-3,7.2708675E-3,4.984317E-3,6.696052E-3,8.824091E-3,1.02347685E-2,1.1678678E-2],"split_indices":[0,0,0,3,0,0,0,0,3,1,3,0,0,0,2,0,1,0,0,5,0,3,2,3,4,2,4,0,0,0,0,0,0,0,0,0,0,0,0,0,0,0,0,0,0,0,0,0,0,0,0],"split_type":[0,0,0,0,0,0,0,0,0,0,0,0,0,0,0,0,0,0,0,0,0,0,0,0,0,0,0,0,0,0,0,0,0,0,0,0,0,0,0,0,0,0,0,0,0,0,0,0,0,0,0],"sum_hessian":[5.296E3,2.885E3,2.411E3,1.541E3,1.344E3,1.15E3,1.261E3,1.1E1,1.53E3,1.219E3,1.25E2,6.06E2,5.44E2,5.97E2,6.64E2,1E1,1.52E3,1E1,1.209E3,9.2E1,3.3E1,2.97E2,3.09E2,2.26E2,3.18E2,1.83E2,4.14E2,1.4E1,6.5E2,1.5E1,1.505E3,7E1,1.139E3,1E1,8.2E1,1.1E1,2.2E1,9E1,2.07E2,1.5E1,2.94E2,1.2E1,2.14E2,1.3E1,3.05E2,1.7E2,1.3E1,1E1,4.04E2,2.82E2,3.68E2],"tree_param":{"num_deleted":"0","num_feature":"7","num_nodes":"51","size_leaf_vector":"1"}},{"base_weights":[1.13629605E-4,-1.8751504E-2,2.3305437E-2,-2.5871182E-2,-1.0476362E-2,1.2786941E-2,3.3779398E-2,-1.5085822E-2,-2.6087316E-2,-1.1951864E-2,4.754478E-4,8.208053E-3,1.8335374E-2,2.8717984E-2,3.8567305E-2,-6.676668E-3,-1.358688E-3,-3.0777752E-3,-2.619328E-2,-1.1854108E-2,-4.8851357E-3,1.5298321E-3,-5.2555264E-3,5.7588504E-3,1.0892756E-2,1.6549656E-2,2.0724442E-2,2.5937494E-2,3.078646E-2,3.8973205E-2,4.119071E-3,-8.264174E-3,-5.9249513E-3,-2.7135492E-3,-1.2235774E-3,7.16492E-4,9.584611E-5,-3.0182435E-3,4.965227E-4,1.1077382E-3,1.6709218E-3,4.830503E-3,2.3503306E-3,3.2342235E-3,3.987893E-3,1.2890241E-3,4.871234E-3,6.5323943E-3,5.6647575E-3,5.724589E-3,7.024523E-3,8.506113E-3,9.710793E-3],"categories":[],"categories_nodes":[],"categories_segments":[],"categories_sizes":[],"default_left":[0,0,0,0,0,0,0,0,0,0,0,0,0,0,0,0,0,0,0,0,0,0,0,0,0,0,0,0,0,0,0,0,0,0,0,0,0,0,0,0,0,0,0,0,0,0,0,0,0,0,0,0,0],"id":4,"left_children":[1,3,5,7,9,11,13,15,17,19,21,23,25,27,29,-1,-1,-1,31,33,-1,35,37,39,41,43,45,47,49,51,-1,-1,-1,-1,-1,-1,-1,-1,-1,-1,-1,-1,-1,-1,-1,-1,-1,-1,-1,-1,-1,-1,-1],"loss_changes":[2.3262992E0,1.7273664E-1,2.6274693E-1,3.6629438E-3,2.1912858E-2,3.0229121E-2,2.8929472E-2,4.045435E-3,2.0393133E-3,1.1129975E-3,9.7320694E-4,4.285492E-3,2.2858232E-3,3.3198297E-3,5.066097E-3,0E0,0E0,0E0,1.0409355E-3,8.457899E-4,0E0,2.453413E-4,1.5013341E-3,4.786849E-4,1.7069392E-3,7.222891E-4,2.6073232E-3,6.623566E-4,3.2436848E-4,3.35145E-3,0E0,0E0,0E0,0E0,0E0,0E0,0E0,0E0,0E0,0E0,0E0,0E0,0E0,0E0,0E0,0E0,0E0,0E0,0E0,0E0,0E0,0E0,0E0],"parents":[2147483647,0,0,1,1,2,2,3,3,4,4,5,5,6,6,7,7,8,8,9,9,10,10,11,11,12,12,13,13,14,14,18,18,19,19,21,21,22,22,23,23,24,24,25,25,26,26,27,27,28,28,29,29],"right_children":[2,4,6,8,10,12,14,16,18,20,22,24,26,28,30,-1,-1,-1,32,34,-1,36,38,40,42,44,46,48,50,52,-1,-1,-1,-1,-1,-1,-1,-1,-1,-1,-1,-1,-1,-1,-1,-1,-1,-1,-1,-1,-1,-1,-1],"split_conditions":[8.065609E-2,2.3499703E-2,1.3985509E-1,-1.5837628E-1,5.471607E-2,1.11655444E-1,1.647414E-1,-1.4035324E-2,-2.7073767E-2,1.0457395E0,1.0119135E0,9.874613E-2,1.2644121E-1,1.5569839E-1,1.0915548E0,-6.676668E-3,-1.358688E-3,-3.0777752E-3,-9.086498E-2,1.1037798E0,-4.8851357E-3,9.891829E-1,7.196468E-2,9.0503246E-2,9.662781E-1,1.1571429E-1,-7.688697E-2,9.7686505E-1,-2.531126E-2,1.851219E-1,4.119071E-3,-8.264174E-3,-5.9249513E-3,-2.7135492E-3,-1.2235774E-3,7.16492E-4,9.584611E-5,-3.0182435E-3,4.965227E-4,1.1077382E-3,1.6709218E-3,4.830503E-3,2.3503306E-3,3.2342235E-3,3.987893E-3,1.2890241E-3,4.871234E-3,6.5323943E-3,5.6647575E-3,5.724589E-3,7.024523E-3,8.506113E-3,9.710793E-3],"split_indices":[0,0,0,4,0,0,0,0,0,3,3,0,0,0,2,0,0,0,5,2,0,1,0,0,3,0,4,2,5,0,0,0,0,0,0,0,0,0,0,0,0,0,0,0,0,0,0,0,0,0,0,0,0],"split_type":[0,0,0,0,0,0,0,0,0,0,0,0,0,0,0,0,0,0,0,0,0,0,0,0,0,0,0,0,0,0,0,0,0,0,0,0,0,0,0,0,0,0,0,0,0,0,0,0,0,0,0,0,0],"sum_hessian":[5.317E3,2.932E3,2.385E3,1.576E3,1.356E3,1.19E3,1.195E3,3.1E1,1.545E3,1.195E3,1.61E2,6.52E2,5.38E2,5.81E2,6.14E2,1.2E1,1.9E1,1.3E1,1.532E3,1.183E3,1.2E1,1.36E2,2.5E1,3.41E2,3.11E2,3.08E2,2.3E2,2.48E2,3.33E2,6.02E2,1.2E1,1E1,1.522E3,1.163E3,2E1,5.5E1,8.1E1,1.2E1,1.3E1,2.21E2,1.2E2,1.5E1,2.96E2,9.6E1,2.12E2,1.1E1,2.19E2,6.2E1,1.86E2,1.1E1,3.22E2,4.36E2,1.66E2],"tree_param":{"num_deleted":"0","num_feature":"7","num_nodes":"53","size_leaf_vector":"1"}},{"base_weights":[1.004517E-4,-1.4232406E-2,1.8323354E-2,-2.0194564E-2,-8.050222E-3,1.0407413E-2,2.629981E-2,-7.3714154E-3,-2.009597E-2,-9.3738595E-3,3.9507737E-5,6.4202244E-3,1.4069458E-2,2.2163657E-2,2.9717518E-2,2.157098E-3,-2.0313844E-2,1.6058078E-3,-9.572421E-3,6.278016E-4,-2.5992438E-3,4.353701E-3,8.088793E-3,7.4424082E-3,1.3757625E-2,2.0035287E-2,2.339448E-2,3.0296277E-2,-1.2930695E-4,-2.8172233E-3,-4.620175E-3,-3.5325494E-3,-2.1138273E-3,4.7413E-4,-2.404136E-4,-1.6996978E-3,1.1102048E-3,2.8447614E-3,1.6639027E-3,2.7325365E-3,3.724017E-3,4.7072223E-3,3.2618414E-3,3.2630072E-3,5.3681964E-3,1.209442E-2,6.768602E-3],"categories":[],"categories_nodes":[],"categories_segments":[],"categories_sizes":[],"default_left":[0,0,0,0,0,0,0,0,0,0,0,0,0,0,0,0,0,0,0,0,0,0,0,0,0,0,0,0,0,0,0,0,0,0,0,0,0,0,0,0,0,0,0,0,0,0,0],"id":5,"left_children":[1,3,5,7,9,11,13,-1,15,17,19,21,23,25,27,-1,29,-1,31,33,-1,35,37,-1,39,41,43,45,-1,-1,-1,-1,-1,-1,-1,-1,-1,-1,-1,-1,-1,-1,-1,-1,-1,-1,-1],"loss_changes":[1.3923981E0,1.099841E-1,1.4818627E-1,1.8254519E-3,1.5687406E-2,1.719807E-2,1.6507506E-2,0E0,9.726584E-3,4.1153654E-3,1.3940021E-3,1.9437782E-3,3.5770088E-3,1.3729036E-3,1.1219978E-2,0E0,6.803274E-4,0E0,1.8763617E-3,4.8406818E-4,0E0,1.6182354E-3,1.0426845E-3,0E0,2.743125E-3,7.820204E-4,8.2302094E-4,6.480336E-3,0E0,0E0,0E0,0E0,0E0,0E0,0E0,0E0,0E0,0E0,0E0,0E0,0E0,0E0,0E0,0E0,0E0,0E0,0E0],"parents":[2147483647,0,0,1,1,2,2,3,3,4,4,5,5,6,6,8,8,9,9,10,10,11,11,12,12,13,13,14,14,16,16,18,18,19,19,21,21,22,22,24,24,25,25,26,26,27,27],"right_children":[2,4,6,8,10,12,14,-1,16,18,20,22,24,26,28,-1,30,-1,32,34,-1,36,38,-1,40,42,44,46,-1,-1,-1,-1,-1,-1,-1,-1,-1,-1,-1,-1,-1,-1,-1,-1,-1,-1,-1],"split_conditions":[8.3648E-2,1.1654729E-2,1.4176962E-1,-1.3992018E-1,5.471607E-2,1.09375626E-1,1.6036107E-1,-7.3714154E-3,8.504663E-1,9.485918E-1,1.0232756E0,9.6355535E-2,9.6029544E-1,1.5417247E-1,1.0425069E0,2.157098E-3,-2.7073767E-2,1.6058078E-3,2.3499703E-2,9.9865097E-1,-2.5992438E-3,9.531106E-1,9.8710114E-1,7.4424082E-3,1.275391E-1,3.453353E-2,-4.1894764E-2,-1.4319862E-1,-1.2930695E-4,-2.8172233E-3,-4.620175E-3,-3.5325494E-3,-2.1138273E-3,4.7413E-4,-2.404136E-4,-1.6996978E-3,1.1102048E-3,2.8447614E-3,1.6639027E-3,2.7325365E-3,3.724017E-3,4.7072223E-3,3.2618414E-3,3.2630072E-3,5.3681964E-3,1.209442E-2,6.768602E-3],"split_indices":[0,0,0,5,0,0,0,0,2,3,3,0,3,0,3,0,0,0,0,3,0,2,3,0,0,4,4,4,0,0,0,0,0,0,0,0,0,0,0,0,0,0,0,0,0,0,0],"split_type":[0,0,0,0,0,0,0,0,0,0,0,0,0,0,0,0,0,0,0,0,0,0,0,0,0,0,0,0,0,0,0,0,0,0,0,0,0,0,0,0,0,0,0,0,0,0,0],"sum_hessian":[5.331E3,2.984E3,2.347E3,1.519E3,1.465E3,1.178E3,1.169E3,1.2E1,1.507E3,1.259E3,2.06E2,5.64E2,6.14E2,5.29E2,6.4E2,1.1E1,1.496E3,1.5E1,1.244E3,1.96E2,1E1,2.52E2,3.12E2,1E1,6.04E2,1.94E2,3.35E2,6.28E2,1.2E1,1.1E1,1.485E3,5E1,1.194E3,1.05E2,9.1E1,1.1E1,2.41E2,4.5E1,2.67E2,3.68E2,2.36E2,1.72E2,2.2E1,1E1,3.25E2,1.2E1,6.16E2],"tree_param":{"num_deleted":"0","num_feature":"7","num_nodes":"47","size_leaf_vector":"1"}},{"base_weights":[7.479216E-5,-1.1087729E-2,1.4723115E-2,-1.5641244E-2,-5.9234067E-3,8.719442E-3,2.0984642E-2,-5.641608E-3,-1.5570592E-2,-6.954663E-3,2.7449706E-4,5.3766132E-3,1.1475086E-2,1.8403746E-2,2.4774715E-2,-1.9008279E-4,-1.5702445E-2,-4.1068E-3,-6.8417764E-3,-3.731622E-3,1.1571908E-3,3.7066108E-3,4.987153E-3,1.1683948E-2,-3.711794E-4,1.8856917E-2,-1.9226716E-3,2.3777887E-2,2.8276168E-2,-6.348678E-3,-3.541298E-3,-1.5201544E-3,-3.078043E-3,2.1278139E-3,1.4749423E-4,-1.3369926E-3,1.1908184E-3,5.205362E-3,2.6040107E-3,8.663341E-3,4.180081E-3,5.27622E-3,6.9750985E-3,6.6045276E-3,4.6734633E-3],"categories":[],"categories_nodes":[],"categories_segments":[],"categories_sizes":[],"default_left":[0,0,0,0,0,0,0,0,0,0,0,0,0,0,0,0,0,0,0,0,0,0,0,0,0,0,0,0,0,0,0,0,0,0,0,0,0,0,0,0,0,0,0,0,0],"id":6,"left_children":[1,3,5,7,9,11,13,-1,15,17,19,21,23,25,27,-1,29,-1,31,-1,33,-1,35,37,-1,39,-1,41,43,-1,-1,-1,-1,-1,-1,-1,-1,-1,-1,-1,-1,-1,-1,-1,-1],"loss_changes":[8.620451E-1,7.035723E-2,8.5705996E-2,1.02669E-3,8.96135E-3,1.0720789E-2,1.0904133E-2,0E0,3.064841E-3,1.5099384E-3,2.9540027E-3,2.2444297E-3,1.7478764E-3,8.093506E-3,1.5592575E-3,0E0,1.6708374E-3,0E0,1.1094846E-3,0E0,7.919189E-4,0E0,1.4581969E-3,1.4214292E-3,0E0,5.353868E-3,0E0,1.2406707E-3,6.3219666E-4,0E0,0E0,0E0,0E0,0E0,0E0,0E0,0E0,0E0,0E0,0E0,0E0,0E0,0E0,0E0,0E0],"parents":[2147483647,0,0,1,1,2,2,3,3,4,4,5,5,6,6,8,8,9,9,10,10,11,11,12,12,13,13,14,14,16,16,18,18,20,20,22,22,23,23,25,25,27,27,28,28],"right_children":[2,4,6,8,10,12,14,-1,16,18,20,22,24,26,28,-1,30,-1,32,-1,34,-1,36,38,-1,40,-1,42,44,-1,-1,-1,-1,-1,-1,-1,-1,-1,-1,-1,-1,-1,-1,-1,-1],"split_conditions":[8.3648E-2,2.3499703E-2,1.4306946E-1,8.57474E-1,5.471607E-2,1.0796757E-1,1.7454165E-1,-5.641608E-3,-1.0510177E-1,8.9153594E-1,9.2870665E-1,9.608867E-1,5.815898E-2,1.0308518E0,1.8976998E-1,-1.9008279E-4,9.1137826E-1,-4.1068E-3,6.757343E-2,-3.731622E-3,9.660263E-1,3.7066108E-3,9.6785027E-1,9.172532E-1,-3.711794E-4,9.5682335E-1,-1.9226716E-3,5.5569872E-2,1.0375463E0,-6.348678E-3,-3.541298E-3,-1.5201544E-3,-3.078043E-3,2.1278139E-3,1.4749423E-4,-1.3369926E-3,1.1908184E-3,5.205362E-3,2.6040107E-3,8.663341E-3,4.180081E-3,5.27622E-3,6.9750985E-3,6.6045276E-3,4.6734633E-3],"split_indices":[0,0,0,1,0,0,0,0,5,2,2,1,5,3,0,0,1,0,5,0,1,0,1,2,0,3,0,6,3,0,0,0,0,0,0,0,0,0,0,0,0,0,0,0,0],"split_type":[0,0,0,0,0,0,0,0,0,0,0,0,0,0,0,0,0,0,0,0,0,0,0,0,0,0,0,0,0,0,0,0,0,0,0,0,0,0,0,0,0,0,0,0,0],"sum_hessian":[5.272E3,2.992E3,2.28E3,1.59E3,1.402E3,1.164E3,1.116E3,1.2E1,1.578E3,1.202E3,2E2,5.26E2,6.38E2,6.64E2,4.52E2,1.4E1,1.564E3,1.2E1,1.19E3,1E1,1.9E2,1.8E1,5.08E2,6.28E2,1E1,6.53E2,1.1E1,3.52E2,1E2,1.1E1,1.553E3,1.166E3,2.4E1,1.1E1,1.79E2,1.2E1,4.96E2,1.1E1,6.17E2,1.4E1,6.39E2,3.28E2,2.4E1,9E1,1E1],"tree_param":{"num_deleted":"0","num_feature":"7","num_nodes":"45","size_leaf_vector":"1"}},{"base_weights":[1.1555212E-4,-8.414302E-3,1.0925069E-2,-1.2027841E-2,-4.7372538E-3,5.7235905E-3,1.5385596E-2,1.7758881E-3,-1.220055E-2,-5.539263E-3,9.765164E-5,3.8863204E-3,8.075542E-3,1.369257E-2,1.91253E-2,-2.0036101E-4,-1.23461075E-2,1.4081114E-3,-5.632492E-3,9.020133E-4,-2.54012E-3,-5.5084024E-3,4.2039603E-3,8.799854E-3,3.027672E-3,1.3987253E-2,-2.1387208E-3,1.8163811E-2,2.6425969E-2,-2.7753823E-3,-4.7857394E-3,-2.6777342E-3,-1.2303095E-3,1.9924187E-3,7.7968834E-5,1.4746686E-3,-3.9700544E-3,4.8164307E-4,1.1611279E-3,3.187329E-4,2.0410104E-3,1.0413296E-3,-8.918114E-4,6.4222505E-3,3.1184312E-3,2.8444636E-3,4.2386325E-3,5.5230022E-3,7.1726106E-3],"categories":[],"categories_nodes":[],"categories_segments":[],"categories_sizes":[],"default_left":[0,0,0,0,0,0,0,0,0,0,0,0,0,0,0,0,0,0,0,0,0,0,0,0,0,0,0,0,0,0,0,0,0,0,0,0,0,0,0,0,0,0,0,0,0,0,0,0,0],"id":7,"left_children":[1,3,5,7,9,11,13,-1,15,17,19,21,23,25,27,-1,29,-1,31,33,-1,35,37,39,41,43,-1,45,47,-1,-1,-1,-1,-1,-1,-1,-1,-1,-1,-1,-1,-1,-1,-1,-1,-1,-1,-1,-1],"loss_changes":[4.9357086E-1,3.975384E-2,5.477643E-2,5.1781386E-3,5.750712E-3,4.7092363E-3,8.0400705E-3,0E0,2.4639666E-3,1.3941303E-3,1.9179108E-3,1.8269783E-3,1.7469488E-3,5.965963E-3,2.766654E-3,0E0,1.3948828E-3,0E0,1.6158633E-3,8.668698E-4,0E0,2.8888718E-3,1.1275914E-3,6.169081E-4,6.5388E-4,2.9229224E-3,0E0,1.0282397E-3,4.7509745E-4,0E0,0E0,0E0,0E0,0E0,0E0,0E0,0E0,0E0,0E0,0E0,0E0,0E0,0E0,0E0,0E0,0E0,0E0,0E0,0E0],"parents":[2147483647,0,0,1,1,2,2,3,3,4,4,5,5,6,6,8,8,9,9,10,10,11,11,12,12,13,13,14,14,16,16,18,18,19,19,21,21,22,22,23,23,24,24,25,25,27,27,28,28],"right_children":[2,4,6,8,10,12,14,-1,16,18,20,22,24,26,28,-1,30,-1,32,34,-1,36,38,40,42,44,-1,46,48,-1,-1,-1,-1,-1,-1,-1,-1,-1,-1,-1,-1,-1,-1,-1,-1,-1,-1,-1,-1],"split_conditions":[8.3648E-2,1.4117886E-2,1.3688207E-1,8.068664E-1,5.471607E-2,1.1253351E-1,1.7662524E-1,1.7758881E-3,9.3186533E-1,9.3186533E-1,1.0182437E0,9.2870665E-1,1.0166358E0,4.1501183E-2,1.0657542E0,-2.0036101E-4,1.1654729E-2,1.4081114E-3,-6.641448E-2,-4.933055E-2,-2.54012E-3,-7.38121E-2,9.186632E-2,-9.84572E-2,1.0298046E0,-5.9349306E-2,-2.1387208E-3,9.335931E-1,1.0286068E0,-2.7753823E-3,-4.7857394E-3,-2.6777342E-3,-1.2303095E-3,1.9924187E-3,7.7968834E-5,1.4746686E-3,-3.9700544E-3,4.8164307E-4,1.1611279E-3,3.187329E-4,2.0410104E-3,1.0413296E-3,-8.918114E-4,6.4222505E-3,3.1184312E-3,2.8444636E-3,4.2386325E-3,5.5230022E-3,7.1726106E-3],"split_indices":[0,0,0,2,0,0,0,0,3,3,3,2,3,5,2,0,0,0,6,6,0,6,0,4,3,5,0,2,3,0,0,0,0,0,0,0,0,0,0,0,0,0,0,0,0,0,0,0,0],"split_type":[0,0,0,0,0,0,0,0,0,0,0,0,0,0,0,0,0,0,0,0,0,0,0,0,0,0,0,0,0,0,0,0,0,0,0,0,0,0,0,0,0,0,0,0,0,0,0,0,0],"sum_hessian":[5.353E3,2.992E3,2.361E3,1.509E3,1.483E3,1.09E3,1.271E3,1.3E1,1.496E3,1.272E3,2.11E2,6.12E2,4.78E2,8.75E2,3.96E2,1.9E1,1.477E3,1E1,1.262E3,1.97E2,1.4E1,2E1,5.92E2,4.18E2,6E1,8.64E2,1.1E1,3.5E2,4.6E1,1.459E3,1.8E1,4.1E1,1.221E3,1.3E1,1.84E2,1E1,1E1,1.81E2,4.11E2,1.1E1,4.07E2,4.9E1,1.1E1,1.4E1,8.5E2,3E1,3.2E2,3.3E1,1.3E1],"tree_param":{"num_deleted":"0","num_feature":"7","num_nodes":"49","size_leaf_vector":"1"}},{"base_weights":[-1.0171417E-4,-7.089974E-3,7.769526E-3,-9.398311E-3,-4.2127143E-3,3.4967973E-3,1.1659024E-2,-5.505131E-3,-9.301791E-3,4.120921E-3,-4.393621E-3,3.6831924E-3,-3.7209848E-3,9.681901E-3,1.3626588E-2,1.3538345E-4,-9.418261E-3,-4.1664187E-3,-9.192867E-3,5.47573E-3,3.5073026E-3,9.809098E-3,1.1793829E-3,1.3920032E-2,-7.9781824E-4,-3.0995486E-3,-2.1100398E-3,-2.4343918E-3,-9.3087583E-4,-2.448614E-3,-5.941862E-4,4.0099552E-4,1.1567769E-3,1.4016513E-3,2.2472483E-3,6.124367E-3,3.0906107E-3],"categories":[],"categories_nodes":[],"categories_segments":[],"categories_sizes":[],"default_left":[0,0,0,0,0,0,0,0,0,0,0,0,0,0,0,0,0,0,0,0,0,0,0,0,0,0,0,0,0,0,0,0,0,0,0,0,0],"id":8,"left_children":[1,3,5,7,9,11,13,-1,15,-1,17,19,-1,21,23,-1,25,27,29,-1,31,33,-1,35,-1,-1,-1,-1,-1,-1,-1,-1,-1,-1,-1,-1,-1],"loss_changes":[2.9159117E-1,1.8648848E-2,4.1429818E-2,2.2307038E-3,5.0637387E-3,4.409083E-3,5.0729513E-3,0E0,1.7849803E-3,0E0,1.3509691E-3,4.2335223E-3,0E0,3.696084E-4,3.2917783E-3,0E0,7.39485E-4,4.7957897E-4,5.897917E-4,0E0,3.2336507E-3,2.2758171E-4,0E0,2.4497882E-3,0E0,0E0,0E0,0E0,0E0,0E0,0E0,0E0,0E0,0E0,0E0,0E0,0E0],"parents":[2147483647,0,0,1,1,2,2,3,3,4,4,5,5,6,6,8,8,10,10,11,11,13,13,14,14,16,16,17,17,18,18,20,20,21,21,23,23],"right_children":[2,4,6,8,10,12,14,-1,16,-1,18,20,-1,22,24,-1,26,28,30,-1,32,34,-1,36,-1,-1,-1,-1,-1,-1,-1,-1,-1,-1,-1,-1,-1],"split_conditions":[6.576664E-2,1.9753613E-2,1.3011473E-1,-1.7799851E-1,9.3186533E-1,7.529851E-2,1.586517E-1,-5.505131E-3,-2.7073767E-2,4.120921E-3,1.0308518E0,9.207349E-1,-3.7209848E-3,6.1203063E-2,1.107965E-1,1.3538345E-4,9.5682335E-1,8.9153594E-1,8.784465E-2,5.47573E-3,1.0027782E-1,-4.1845117E-2,1.1793829E-3,-7.933905E-2,-7.9781824E-4,-3.0995486E-3,-2.1100398E-3,-2.4343918E-3,-9.3087583E-4,-2.448614E-3,-5.941862E-4,4.0099552E-4,1.1567769E-3,1.4016513E-3,2.2472483E-3,6.124367E-3,3.0906107E-3],"split_indices":[0,0,0,6,3,6,0,0,0,0,3,2,0,4,4,0,3,2,6,0,0,5,0,5,0,0,0,0,0,0,0,0,0,0,0,0,0],"split_type":[0,0,0,0,0,0,0,0,0,0,0,0,0,0,0,0,0,0,0,0,0,0,0,0,0,0,0,0,0,0,0,0,0,0,0,0,0],"sum_hessian":[5.301E3,2.808E3,2.493E3,1.558E3,1.25E3,1.188E3,1.305E3,1E1,1.548E3,1E1,1.24E3,1.177E3,1.1E1,6.51E2,6.54E2,1.8E1,1.53E3,1.184E3,5.6E1,1E1,1.167E3,6.33E2,1.8E1,6.43E2,1.1E1,4E1,1.49E3,1.1E1,1.173E3,4.5E1,1.1E1,5.58E2,6.09E2,1.7E1,6.16E2,1.4E1,6.29E2],"tree_param":{"num_deleted":"0","num_feature":"7","num_nodes":"37","size_leaf_vector":"1"}},{"base_weights":[-6.517788E-5,2.6876041E-5,-2.2077458E-2,3.1730135E-3,-2.9092173E-5,-7.690979E-4,-9.232448E-3,-1.3827526E-2,3.4393197E-5,-6.109026E-3,-1.5570517E-4,3.010616E-3,-1.4023855E-5,-4.5791283E-4,5.901548E-5],"categories":[],"categories_nodes":[],"categories_segments":[],"categories_sizes":[],"default_left":[0,0,0,0,0,0,0,0,0,0,0,0,0,0,0],"id":9,"left_children":[1,3,5,-1,7,-1,-1,9,11,-1,-1,-1,13,-1,-1],"loss_changes":[1.0717472E-2,4.116574E-3,7.6646786E-3,0E0,4.595658E-3,0E0,0E0,4.1383393E-3,3.3478045E-3,0E0,0E0,0E0,2.8610935E-3,0E0,0E0],"parents":[2147483647,0,0,1,1,2,2,4,4,7,7,8,8,12,12],"right_children":[2,4,6,-1,8,-1,-1,10,12,-1,-1,-1,14,-1,-1],"split_conditions":[1.0925258E0,9.152346E-1,8.4680095E-2,3.1730135E-3,8.504663E-1,-7.690979E-4,-9.232448E-3,9.6029544E-1,-1.5837628E-1,-6.109026E-3,-1.5570517E-4,3.010616E-3,-3.440472E-2,-4.5791283E-4,5.901548E-5],"split_indices":[1,3,5,0,2,0,0,3,4,0,0,0,6,0,0],"split_type":[0,0,0,0,0,0,0,0,0,0,0,0,0,0,0],"sum_hessian":[5.289E3,5.267E3,2.2E1,2.1E1,5.246E3,1.1E1,1.1E1,2.4E1,5.222E3,1.2E1,1.2E1,1.9E1,5.203E3,6.26E2,4.577E3],"tree_param":{"num_deleted":"0","num_feature":"7","num_nodes":"15","size_leaf_vector":"1"}},{"base_weights":[-2.0166293E-5,-5.296958E-3,5.958054E-3,-7.054531E-3,-2.8601752E-3,2.7039621E-3,9.136639E-3,-3.141835E-3,-6.9911093E-3,-3.0292547E-3,1.8150109E-3,1.7896149E-3,4.948172E-3,9.375255E-3,-4.023285E-3,6.6645927E-4,-7.084313E-3,1.4663874E-3,-3.15146E-3,3.061071E-3,-1.9615705E-3,1.9210563E-3,-1.9145012E-3,-2.3313342E-3,5.391635E-3,8.483984E-3,1.3250051E-2,-3.598048E-3,-1.5788061E-3,1.8735518E-3,-1.0165443E-3,-1.8395953E-3,-6.810932E-4,-1.0638861E-3,-1.03327235E-4,4.1555314E-4,1.8500619E-3,1.5950669E-3,8.7938685E-4,1.4733342E-3,2.0724868E-3,1.3876646E-3,3.1827458E-3],"categories":[],"categories_nodes":[],"categories_segments":[],"categories_sizes":[],"default_left":[0,0,0,0,0,0,0,0,0,0,0,0,0,0,0,0,0,0,0,0,0,0,0,0,0,0,0,0,0,0,0,0,0,0,0,0,0,0,0,0,0,0,0],"id":10,"left_children":[1,3,5,7,9,11,13,-1,15,17,19,21,23,25,-1,-1,27,29,31,-1,33,35,-1,-1,37,39,41,-1,-1,-1,-1,-1,-1,-1,-1,-1,-1,-1,-1,-1,-1,-1,-1],"loss_changes":[1.665321E-1,1.20085105E-2,2.5599435E-2,6.996542E-4,9.289924E-4,2.5093332E-3,8.033887E-3,0E0,1.4943555E-3,6.2316377E-4,1.8108969E-3,1.1690587E-3,2.3921803E-3,4.2826682E-3,0E0,0E0,1.7206147E-3,1.2147145E-3,8.1114937E-4,0E0,1.2742929E-4,4.7429954E-4,0E0,0E0,8.542603E-4,1.3105869E-3,1.2945309E-3,0E0,0E0,0E0,0E0,0E0,0E0,0E0,0E0,0E0,0E0,0E0,0E0,0E0,0E0,0E0,0E0],"parents":[2147483647,0,0,1,1,2,2,3,3,4,4,5,5,6,6,8,8,9,9,10,10,11,11,12,12,13,13,16,16,17,17,18,18,20,20,21,21,24,24,25,25,26,26],"right_children":[2,4,6,8,10,12,14,-1,16,18,20,22,24,26,-1,-1,28,30,32,-1,34,36,-1,-1,38,40,42,-1,-1,-1,-1,-1,-1,-1,-1,-1,-1,-1,-1,-1,-1,-1,-1],"split_conditions":[7.196468E-2,3.1815823E-2,1.3529404E-1,-1.3992018E-1,1.0834202E0,1.1571429E-1,9.567362E-2,-3.141835E-3,8.504663E-1,9.6029544E-1,1.6702654E-2,1.0308518E0,-6.366512E-2,1.8133241E-1,-4.023285E-3,6.6645927E-4,9.412639E-1,-8.2823925E-2,-8.034341E-2,3.061071E-3,1.0239279E0,4.002757E-2,-1.9145012E-3,-2.3313342E-3,1.0024422E0,1.4868031E-1,9.364454E-1,-3.598048E-3,-1.5788061E-3,1.8735518E-3,-1.0165443E-3,-1.8395953E-3,-6.810932E-4,-1.0638861E-3,-1.03327235E-4,4.1555314E-4,1.8500619E-3,1.5950669E-3,8.7938685E-4,1.4733342E-3,2.0724868E-3,1.3876646E-3,3.1827458E-3],"split_indices":[0,0,0,5,2,0,6,0,2,3,5,3,6,0,0,0,3,4,4,0,3,5,0,0,3,0,2,0,0,0,0,0,0,0,0,0,0,0,0,0,0,0,0],"split_type":[0,0,0,0,0,0,0,0,0,0,0,0,0,0,0,0,0,0,0,0,0,0,0,0,0,0,0,0,0,0,0,0,0,0,0,0,0,0,0,0,0,0,0],"sum_hessian":[5.279E3,2.804E3,2.475E3,1.629E3,1.175E3,1.223E3,1.252E3,1.5E1,1.614E3,1.134E3,4.1E1,8.69E2,3.54E2,1.241E3,1.1E1,1.5E1,1.599E3,3E1,1.104E3,1E1,3.1E1,8.58E2,1.1E1,1E1,3.44E2,1.009E3,2.32E2,2.2E1,1.577E3,1.4E1,1.6E1,3.2E1,1.072E3,1.1E1,2E1,8.46E2,1.2E1,1.65E2,1.79E2,2.5E2,7.59E2,2.3E1,2.09E2],"tree_param":{"num_deleted":"0","num_feature":"7","num_nodes":"43","size_leaf_vector":"1"}},{"base_weights":[1.4752275E-4,-3.6558758E-3,5.518942E-3,-5.558514E-3,-1.859135E-3,3.7219122E-3,7.6477313E-3,1.3738483E-3,-5.7183397E-3,3.9058598E-3,-1.9795897E-3,3.483633E-3,9.0526845E-3,7.868242E-3,-2.4067743E-3,3.4927302E-3,-4.48092E-3,-2.8956837E-3,-5.650546E-3,-4.6234047E-3,-1.8625943E-3,2.251264E-3,4.616416E-3,1.0927596E-2,3.0751582E-4,7.641835E-3,1.5969438E-2,-2.7725284E-3,2.4101128E-4,-1.316727E-3,-9.86488E-4,-5.6657294E-4,1.1449408E-4,1.4123304E-3,4.691079E-4,-9.71648E-4,1.0850236E-3,3.1844347E-3,1.9224631E-3,2.9736282E-3,1.6711102E-3,4.537137E-3,3.076809E-3],"categories":[],"categories_nodes":[],"categories_segments":[],"categories_sizes":[],"default_left":[0,0,0,0,0,0,0,0,0,0,0,0,0,0,0,0,0,0,0,0,0,0,0,0,0,0,0,0,0,0,0,0,0,0,0,0,0,0,0,0,0,0,0],"id":11,"left_children":[1,3,5,7,9,11,13,15,17,-1,19,21,23,25,-1,-1,27,-1,29,-1,31,33,35,37,-1,39,41,-1,-1,-1,-1,-1,-1,-1,-1,-1,-1,-1,-1,-1,-1,-1,-1],"loss_changes":[1.0842125E-1,1.0621168E-2,8.4153265E-3,1.6722046E-3,3.6737598E-3,1.514433E-3,4.0570498E-3,2.796368E-3,7.02858E-4,0E0,3.418584E-3,1.5939334E-3,7.3583657E-4,1.8215589E-3,0E0,0E0,1.0319436E-3,0E0,2.9454008E-4,0E0,2.3747175E-3,3.9716857E-4,8.895537E-4,3.0967733E-4,0E0,1.4443137E-3,2.5453512E-4,0E0,0E0,0E0,0E0,0E0,0E0,0E0,0E0,0E0,0E0,0E0,0E0,0E0,0E0,0E0,0E0],"parents":[2147483647,0,0,1,1,2,2,3,3,4,4,5,5,6,6,7,7,8,8,10,10,11,11,12,12,13,13,16,16,18,18,20,20,21,21,22,22,23,23,25,25,26,26],"right_children":[2,4,6,8,10,12,14,16,18,-1,20,22,24,26,-1,-1,28,-1,30,-1,32,34,36,38,-1,40,42,-1,-1,-1,-1,-1,-1,-1,-1,-1,-1,-1,-1,-1,-1,-1,-1],"split_conditions":[8.899801E-2,9.505288E-3,1.4981687E-1,-9.086498E-2,8.984566E-1,4.800887E-2,1.0614405E0,-2.7974394E-1,9.1931105E-1,3.9058598E-3,9.412639E-1,1.1476971E-1,1.0375463E0,6.0506236E-2,-2.4067743E-3,3.4927302E-3,-1.4319862E-1,-2.8956837E-3,3.65422E-2,-4.6234047E-3,5.471607E-2,9.721259E-1,-4.8512623E-2,5.437832E-2,3.0751582E-4,9.674567E-1,4.926342E-2,-2.7725284E-3,2.4101128E-4,-1.316727E-3,-9.86488E-4,-5.6657294E-4,1.1449408E-4,1.4123304E-3,4.691079E-4,-9.71648E-4,1.0850236E-3,3.1844347E-3,1.9224631E-3,2.9736282E-3,1.6711102E-3,4.537137E-3,3.076809E-3],"split_indices":[0,0,0,5,1,6,1,4,1,0,3,0,3,6,0,0,4,0,5,0,0,3,5,4,0,3,4,0,0,0,0,0,0,0,0,0,0,0,0,0,0,0,0],"split_type":[0,0,0,0,0,0,0,0,0,0,0,0,0,0,0,0,0,0,0,0,0,0,0,0,0,0,0,0,0,0,0,0,0,0,0,0,0,0,0,0,0,0,0],"sum_hessian":[5.307E3,3.107E3,2.2E3,1.509E3,1.598E3,1.193E3,1.007E3,3.4E1,1.475E3,1E1,1.588E3,1.142E3,5.1E1,9.95E2,1.2E1,1E1,2.4E1,1.4E1,1.461E3,1E1,1.578E3,5.47E2,5.95E2,4.1E1,1E1,9.68E2,2.7E1,1E1,1.4E1,1.305E3,1.56E2,1.244E3,3.34E2,2.4E1,5.23E2,1.1E1,5.84E2,1.8E1,2.3E1,4.6E1,9.22E2,1E1,1.7E1],"tree_param":{"num_deleted":"0","num_feature":"7","num_nodes":"43","size_leaf_vector":"1"}},{"base_weights":[-1.904588E-4,-1.0452641E-4,-1.9138418E-2,-1.2168015E-3,3.019731E-4,-1.5551996E-3,-8.224915E-3,-7.853353E-4,-3.7548528E-3,9.4519235E-4,-2.3760005E-4,-6.6314973E-3,-5.7013764E-4,-2.770364E-3,-3.3215282E-3,8.530822E-4,2.136414E-3,-5.169786E-3,-6.578621E-5,1.3395787E-3,-4.216669E-3,-3.4704592E-4,8.0042875E-5,-9.856112E-4,-1.5746756E-4,1.7065591E-4,1.5957871E-3,-3.7697433E-3,-7.451689E-4,-4.226648E-5,7.6553517E-4],"categories":[],"categories_nodes":[],"categories_segments":[],"categories_sizes":[],"default_left":[0,0,0,0,0,0,0,0,0,0,0,0,0,0,0,0,0,0,0,0,0,0,0,0,0,0,0,0,0,0,0],"id":12,"left_children":[1,3,5,7,9,-1,-1,11,13,15,17,19,21,-1,23,25,-1,27,29,-1,-1,-1,-1,-1,-1,-1,-1,-1,-1,-1,-1],"loss_changes":[8.665317E-3,2.3954646E-3,5.0470047E-3,1.5527352E-3,1.3466298E-3,0E0,0E0,1.5246568E-3,7.5410795E-4,1.3814367E-3,1.7880145E-3,6.455944E-3,1.0360888E-3,0E0,5.274364E-4,1.0889645E-3,0E0,1.5308943E-3,8.46105E-4,0E0,0E0,0E0,0E0,0E0,0E0,0E0,0E0,0E0,0E0,0E0,0E0],"parents":[2147483647,0,0,1,1,2,2,3,3,4,4,7,7,8,8,9,9,10,10,11,11,12,12,14,14,15,15,17,17,18,18],"right_children":[2,4,6,8,10,-1,-1,12,14,16,18,20,22,-1,24,26,-1,28,30,-1,-1,-1,-1,-1,-1,-1,-1,-1,-1,-1,-1],"split_conditions":[1.00037515E-1,-2.0726204E-2,9.567362E-2,1.0071802E0,1.0108887E0,-1.5551996E-3,-8.224915E-3,8.504663E-1,9.7210675E-1,5.573507E-2,9.87429E-1,-1.0510177E-1,-2.9314356E-2,-2.770364E-3,3.4524452E-2,4.3977886E-2,2.136414E-3,8.885775E-3,6.1577693E-2,1.3395787E-3,-4.216669E-3,-3.4704592E-4,8.0042875E-5,-9.856112E-4,-1.5746756E-4,1.7065591E-4,1.5957871E-3,-3.7697433E-3,-7.451689E-4,-4.226648E-5,7.6553517E-4],"split_indices":[5,4,6,3,2,0,0,2,1,4,3,5,6,0,5,6,0,4,5,0,0,0,0,0,0,0,0,0,0,0,0],"split_type":[0,0,0,0,0,0,0,0,0,0,0,0,0,0,0,0,0,0,0,0,0,0,0,0,0,0,0,0,0,0,0],"sum_hessian":[5.322E3,5.298E3,2.4E1,1.418E3,3.88E3,1.4E1,1E1,1.212E3,2.06E2,1.77E3,2.11E3,4.3E1,1.169E3,1E1,1.96E2,1.751E3,1.9E1,7.1E1,2.039E3,2.1E1,2.2E1,5.73E2,5.96E2,1.41E2,5.5E1,1.723E3,2.8E1,1E1,6.1E1,1.97E3,6.9E1],"tree_param":{"num_deleted":"0","num_feature":"7","num_nodes":"31","size_leaf_vector":"1"}},{"base_weights":[7.06098E-5,-2.9448413E-3,3.9259805E-3,-4.1614748E-3,-1.6601377E-3,4.0430524E-3,-5.2551785E-3,-4.6161925E-3,-4.0438487E-3,5.314338E-3,-1.9198495E-3,1.8669595E-3,5.491107E-3,4.390417E-3,-4.2661848E-3,4.1931025E-3,4.506988E-4,-3.709297E-3,-1.7733967E-3,-3.7115184E-3,2.0794694E-3,4.988423E-3,5.3713373E-3,2.8153174E-3,3.6615794E-4,-9.812682E-4,8.653334E-4,-1.4124032E-3,8.9056924E-4,-3.880201E-4,-2.016239E-3,7.0638774E-4,-3.6754021E-3,3.1304846E-3,4.3834525E-4,1.1917339E-3,4.833923E-3],"categories":[],"categories_nodes":[],"categories_segments":[],"categories_sizes":[],"default_left":[0,0,0,0,0,0,0,0,0,0,0,0,0,0,0,0,0,0,0,0,0,0,0,0,0,0,0,0,0,0,0,0,0,0,0,0,0],"id":13,"left_children":[1,3,5,7,9,11,-1,-1,13,15,17,19,21,23,25,-1,27,-1,29,31,33,-1,35,-1,-1,-1,-1,-1,-1,-1,-1,-1,-1,-1,-1,-1,-1],"loss_changes":[6.172138E-2,4.656017E-3,7.3941126E-3,2.9118396E-3,2.6249401E-3,7.31029E-3,0E0,0E0,2.8490424E-3,3.3332878E-3,2.952598E-3,1.0991639E-3,2.7502552E-3,8.685313E-4,7.2519854E-4,0E0,8.8344124E-4,0E0,6.1439816E-4,2.9036773E-3,1.5344582E-3,0E0,2.5664307E-3,0E0,0E0,0E0,0E0,0E0,0E0,0E0,0E0,0E0,0E0,0E0,0E0,0E0,0E0],"parents":[2147483647,0,0,1,1,2,2,3,3,4,4,5,5,8,8,9,9,10,10,11,11,12,12,13,13,14,14,16,16,18,18,19,19,20,20,22,22],"right_children":[2,4,6,8,10,12,-1,-1,14,16,18,20,22,24,26,-1,28,-1,30,32,34,-1,36,-1,-1,-1,-1,-1,-1,-1,-1,-1,-1,-1,-1,-1,-1],"split_conditions":[8.3648E-2,1.1654729E-2,1.0713993E0,-1.7799851E-1,9.172532E-1,1.2644121E-1,-5.2551785E-3,-4.6161925E-3,9.276208E-1,2.3499703E-2,9.2870665E-1,-5.8648612E-2,8.984566E-1,8.504663E-1,1.0626887E0,4.1931025E-3,8.766625E-1,-3.709297E-3,1.481751E-1,-6.945899E-2,9.703587E-1,4.988423E-3,1.0457395E0,2.8153174E-3,3.6615794E-4,-9.812682E-4,8.653334E-4,-1.4124032E-3,8.9056924E-4,-3.880201E-4,-2.016239E-3,7.0638774E-4,-3.6754021E-3,3.1304846E-3,4.3834525E-4,1.1917339E-3,4.833923E-3],"split_indices":[0,0,1,6,2,0,0,0,1,0,2,6,1,2,3,0,2,0,4,6,3,0,3,0,0,0,0,0,0,0,0,0,0,0,0,0,0],"split_type":[0,0,0,0,0,0,0,0,0,0,0,0,0,0,0,0,0,0,0,0,0,0,0,0,0,0,0,0,0,0,0,0,0,0,0,0,0],"sum_hessian":[5.309E3,2.979E3,2.33E3,1.53E3,1.449E3,2.32E3,1E1,1.1E1,1.519E3,5.2E1,1.397E3,9.27E2,1.393E3,3.9E1,1.48E3,1.4E1,3.8E1,1.4E1,1.383E3,3.4E1,8.93E2,1E1,1.383E3,1E1,2.9E1,1.469E3,1.1E1,1.3E1,2.5E1,1.371E3,1.2E1,2.2E1,1.2E1,1.1E1,8.82E2,1.373E3,1E1],"tree_param":{"num_deleted":"0","num_feature":"7","num_nodes":"37","size_leaf_vector":"1"}},{"base_weights":[7.8065874E-5,-2.5208867E-3,2.9275697E-3,-3.4282242E-3,-1.4564665E-3,1.960972E-3,5.2446425E-3,-6.8040327E-3,-3.2148582E-3,4.5132367E-3,-1.6846781E-3,1.8613075E-3,4.08195E-3,3.4396206E-3,4.9984213E-3,-5.205628E-3,-1.2303743E-2,2.1664277E-3,-3.3431777E-3,7.532248E-3,-1.5073456E-3,-2.2089866E-3,-1.5984086E-3,6.844571E-3,1.6105601E-3,5.189833E-3,-1.449624E-3,-1.6511256E-3,5.131502E-4,-4.6940423E-3,-8.7902637E-4,-3.9651993E-4,-8.1211055E-4,3.2544981E-3,7.642536E-4,-2.6385026E-4,-6.107982E-4,-1.8826621E-3,2.0634022E-3,-2.2950617E-3,3.8432088E-4,1.1049906E-3,5.0551295E-3],"categories":[],"categories_nodes":[],"categories_segments":[],"categories_sizes":[],"default_left":[0,0,0,0,0,0,0,0,0,0,0,0,0,0,0,0,0,0,0,0,0,0,0,0,0,0,0,0,0,0,0,0,0,0,0,0,0,0,0,0,0,0,0],"id":14,"left_children":[1,3,5,7,9,11,13,15,17,19,21,23,-1,-1,25,27,29,-1,31,33,-1,-1,35,37,39,41,-1,-1,-1,-1,-1,-1,-1,-1,-1,-1,-1,-1,-1,-1,-1,-1,-1],"loss_changes":[3.929518E-2,2.6799068E-3,5.6683347E-3,1.0783225E-3,1.7399399E-3,2.8537079E-3,1.8178727E-3,7.807324E-4,2.309218E-3,1.5857337E-3,8.542808E-4,2.2175927E-3,0E0,0E0,1.5859753E-3,1.0700726E-3,1.4143724E-3,0E0,5.286485E-4,1.049326E-3,0E0,0E0,5.79481E-4,2.9044058E-3,1.6667047E-3,3.8791522E-3,0E0,0E0,0E0,0E0,0E0,0E0,0E0,0E0,0E0,0E0,0E0,0E0,0E0,0E0,0E0,0E0,0E0],"parents":[2147483647,0,0,1,1,2,2,3,3,4,4,5,5,6,6,7,7,8,8,9,9,10,10,11,11,14,14,15,15,16,16,18,18,19,19,22,22,23,23,24,24,25,25],"right_children":[2,4,6,8,10,12,14,16,18,20,22,24,-1,-1,26,28,30,-1,32,34,-1,-1,36,38,40,42,-1,-1,-1,-1,-1,-1,-1,-1,-1,-1,-1,-1,-1,-1,-1,-1,-1],"split_conditions":[5.471607E-2,9.505288E-3,1.5822922E-1,-1.2278927E-2,9.172532E-1,7.133953E-2,-1.4319862E-1,1.0151372E0,9.1931105E-1,-3.2762226E-2,9.2870665E-1,9.6383935E-1,4.08195E-3,3.4396206E-3,1.107965E-1,-1.4035324E-2,8.5594855E-2,2.1664277E-3,-4.666819E-3,2.3499703E-2,-1.5073456E-3,-2.2089866E-3,1.40937315E-2,-9.591836E-2,-4.3225978E-2,6.1577693E-2,-1.449624E-3,-1.6511256E-3,5.131502E-4,-4.6940423E-3,-8.7902637E-4,-3.9651993E-4,-8.1211055E-4,3.2544981E-3,7.642536E-4,-2.6385026E-4,-6.107982E-4,-1.8826621E-3,2.0634022E-3,-2.2950617E-3,3.8432088E-4,1.1049906E-3,5.0551295E-3],"split_indices":[0,0,0,0,2,6,4,2,1,6,2,1,0,0,4,0,4,0,0,0,0,0,5,6,5,5,0,0,0,0,0,0,0,0,0,0,0,0,0,0,0,0,0],"split_type":[0,0,0,0,0,0,0,0,0,0,0,0,0,0,0,0,0,0,0,0,0,0,0,0,0,0,0,0,0,0,0,0,0,0,0,0,0,0,0,0,0,0,0],"sum_hessian":[5.306E3,2.775E3,2.531E3,1.498E3,1.277E3,1.786E3,7.45E2,8.9E1,1.409E3,4.7E1,1.23E3,1.775E3,1.1E1,1.8E1,7.27E2,6.9E1,2E1,1.4E1,1.395E3,3.7E1,1E1,1.3E1,1.217E3,8.5E1,1.69E3,7.15E2,1.2E1,5.4E1,1.5E1,1E1,1E1,1.81E2,1.214E3,1.4E1,2.3E1,8.71E2,3.46E2,1.1E1,7.4E1,1.2E1,1.678E3,7.02E2,1.3E1],"tree_param":{"num_deleted":"0","num_feature":"7","num_nodes":"43","size_leaf_vector":"1"}},{"base_weights":[4.8150087E-5,-1.6049759E-3,2.8539803E-3,-2.5279042E-3,-7.921619E-4,-3.0586934E-3,2.9464432E-3,-2.4040865E-3,-5.2792663E-3,-7.141159E-4,-3.282376E-3,4.751899E-3,2.8438938E-3,-7.184582E-3,-2.3389098E-3,-2.85548E-3,-3.16458E-3,3.4201392E-3,-8.277384E-4,2.6089302E-3,8.089713E-3,-2.2350029E-4,-3.030717E-3,1.7042522E-3,-5.5506383E-4,-1.588157E-3,2.9141835E-5,-8.3832E-4,2.4589107E-3,-2.6306932E-4,1.7392583E-4,3.6509216E-4,7.9726666E-4,1.2318635E-3,2.31848E-3],"categories":[],"categories_nodes":[],"categories_segments":[],"categories_sizes":[],"default_left":[0,0,0,0,0,0,0,0,0,0,0,0,0,0,0,0,0,0,0,0,0,0,0,0,0,0,0,0,0,0,0,0,0,0,0],"id":15,"left_children":[1,3,5,7,9,-1,11,13,15,17,-1,-1,19,21,23,-1,25,27,29,31,33,-1,-1,-1,-1,-1,-1,-1,-1,-1,-1,-1,-1,-1,-1],"loss_changes":[2.4509516E-2,2.4942467E-3,2.9608998E-3,5.300166E-4,1.8873907E-3,0E0,3.5952982E-3,4.637167E-4,1.035134E-3,8.2587363E-4,0E0,0E0,2.386868E-3,7.666133E-4,1.5731258E-3,0E0,6.5768056E-4,2.485102E-3,9.0651447E-4,1.678993E-3,4.6915328E-4,0E0,0E0,0E0,0E0,0E0,0E0,0E0,0E0,0E0,0E0,0E0,0E0,0E0,0E0],"parents":[2147483647,0,0,1,1,2,2,3,3,4,4,6,6,7,7,8,8,9,9,12,12,13,13,14,14,16,16,17,17,18,18,19,19,20,20],"right_children":[2,4,6,8,10,-1,12,14,16,18,-1,-1,20,22,24,-1,26,28,30,32,34,-1,-1,-1,-1,-1,-1,-1,-1,-1,-1,-1,-1,-1,-1],"split_conditions":[1.0027782E-1,1.9753613E-2,-2.109281E-1,5.2157495E-2,1.0513117E0,-3.0586934E-3,8.9153594E-1,-1.0510177E-1,2.9701687E-2,9.172532E-1,-3.282376E-3,4.751899E-3,1.0634115E0,8.504663E-1,9.1931105E-1,-2.85548E-3,1.0425069E0,8.9153594E-1,8.682346E-2,1.4672205E-1,1.0198671E0,-2.2350029E-4,-3.030717E-3,1.7042522E-3,-5.5506383E-4,-1.588157E-3,2.9141835E-5,-8.3832E-4,2.4589107E-3,-2.6306932E-4,1.7392583E-4,3.6509216E-4,7.9726666E-4,1.2318635E-3,2.31848E-3],"split_indices":[0,0,4,5,3,0,2,5,4,2,0,0,2,2,1,0,3,2,0,0,3,0,0,0,0,0,0,0,0,0,0,0,0,0,0],"split_type":[0,0,0,0,0,0,0,0,0,0,0,0,0,0,0,0,0,0,0,0,0,0,0,0,0,0,0,0,0,0,0,0,0,0,0],"sum_hessian":[5.284E3,3.325E3,1.959E3,1.557E3,1.768E3,1.1E1,1.948E3,1.49E3,6.7E1,1.758E3,1E1,1.1E1,1.937E3,2E1,1.47E3,1.5E1,5.2E1,4.7E1,1.711E3,1.854E3,8.3E1,1E1,1E1,1.6E1,1.454E3,2.4E1,2.8E1,2.4E1,2.3E1,1.416E3,2.95E2,8.82E2,9.72E2,3.7E1,4.6E1],"tree_param":{"num_deleted":"0","num_feature":"7","num_nodes":"35","size_leaf_vector":"1"}},{"base_weights":[-6.567186E-5,-1.32165E-3,2.0644665E-3,-8.240696E-3,-1.1836727E-3,1.9644236E-3,3.3602098E-3,-5.1803463E-3,-3.945505E-3,-1.4825875E-3,3.3178885E-4,3.1571405E-3,1.8951836E-3,-1.0213235E-3,-2.8916532E-3,1.5729062E-3,-1.5236626E-3,2.9582111E-3,8.6177504E-5,-2.7856876E-3,1.985239E-3,-2.5171726E-3,1.0269975E-3,-3.706015E-4,1.6854254E-4,1.3145879E-3,-2.1713367E-5,4.0521903E-4,1.6763131E-3],"categories":[],"categories_nodes":[],"categories_segments":[],"categories_sizes":[],"default_left":[0,0,0,0,0,0,0,0,0,0,0,0,0,0,0,0,0,0,0,0,0,0,0,0,0,0,0,0,0],"id":16,"left_children":[1,3,5,7,9,11,-1,13,-1,15,17,-1,19,21,-1,-1,23,-1,25,-1,27,-1,-1,-1,-1,-1,-1,-1,-1],"loss_changes":[1.3928307E-2,3.1262217E-3,2.462551E-3,1.7915368E-3,1.4546001E-3,1.5853709E-3,0E0,1.5115885E-3,0E0,9.276075E-4,1.6515848E-3,0E0,2.4329606E-3,1.7367088E-3,0E0,0E0,6.68332E-4,0E0,5.3924613E-4,0E0,2.030815E-3,0E0,0E0,0E0,0E0,0E0,0E0,0E0,0E0],"parents":[2147483647,0,0,1,1,2,2,3,3,4,4,5,5,7,7,9,9,10,10,12,12,13,13,16,16,18,18,20,20],"right_children":[2,4,6,8,10,12,-1,14,-1,16,18,-1,20,22,-1,-1,24,-1,26,-1,28,-1,-1,-1,-1,-1,-1,-1,-1],"split_conditions":[1.0027782E-1,-1.3218257E-1,6.757343E-2,-7.38121E-2,5.471607E-2,-1.3194373E-1,3.3602098E-3,9.527248E-1,-3.945505E-3,9.3186533E-1,-8.2823925E-2,3.1571405E-3,8.9153594E-1,-1.3992018E-1,-2.8916532E-3,1.5729062E-3,1.0098632E-1,2.9582111E-3,-4.933055E-2,-2.7856876E-3,1.9054313E-1,-2.5171726E-3,1.0269975E-3,-3.706015E-4,1.6854254E-4,1.3145879E-3,-2.1713367E-5,4.0521903E-4,1.6763131E-3],"split_indices":[0,4,5,6,0,6,0,3,0,3,4,0,2,5,0,0,4,0,6,0,0,0,0,0,0,0,0,0,0],"split_type":[0,0,0,0,0,0,0,0,0,0,0,0,0,0,0,0,0,0,0,0,0,0,0,0,0,0,0,0,0],"sum_hessian":[5.206E3,3.275E3,1.931E3,6.4E1,3.211E3,1.916E3,1.5E1,4.8E1,1.6E1,2.682E3,5.29E2,1.1E1,1.905E3,3.1E1,1.7E1,1.3E1,2.669E3,1E1,5.19E2,1.2E1,1.893E3,1.1E1,2E1,2.545E3,1.24E2,1.6E1,5.03E2,1.826E3,6.7E1],"tree_param":{"num_deleted":"0","num_feature":"7","num_nodes":"29","size_leaf_vector":"1"}},{"base_weights":[5.243384E-6,-1.0559829E-3,1.8068039E-3,-3.5319857E-3,-9.804475E-4,1.096989E-3,3.4809362E-3,2.2696587E-3,-1.0755191E-3,-2.794505E-3,1.2922253E-3,4.1946913E-3,3.2152447E-3,5.1801745E-4,3.8026255E-3,-3.6884672E-3,-8.736712E-4,7.6020055E-4,-8.86162E-3,2.2561415E-3,1.1838131E-3,2.7348117E-3,6.922869E-3,4.36133E-4,-2.203423E-3,-6.412212E-4,-5.0804485E-3,-3.619421E-4,-8.641285E-5,-9.1244315E-4,2.5062491E-3,-3.2707502E-3,-9.380132E-4,1.1494841E-3,2.3560919E-4,1.1034599E-3,4.3326776E-4,2.4088682E-3,1.1684145E-3],"categories":[],"categories_nodes":[],"categories_segments":[],"categories_sizes":[],"default_left":[0,0,0,0,0,0,0,0,0,0,0,0,0,0,0,0,0,0,0,0,0,0,0,0,0,0,0,0,0,0,0,0,0,0,0,0,0,0,0],"id":17,"left_children":[1,3,5,-1,7,9,11,13,15,17,19,-1,21,23,-1,25,27,29,31,-1,33,35,37,-1,-1,-1,-1,-1,-1,-1,-1,-1,-1,-1,-1,-1,-1,-1,-1],"loss_changes":[9.995332E-3,3.607314E-3,2.3028576E-3,0E0,1.0113956E-3,1.0341369E-3,2.300168E-3,2.3619656E-3,1.6770731E-3,1.402677E-3,1.2157822E-3,0E0,1.0094261E-3,1.1942614E-3,0E0,3.6723914E-3,1.0503568E-3,2.0208366E-3,6.2954705E-4,0E0,7.204389E-4,8.8151405E-4,4.2431452E-4,0E0,0E0,0E0,0E0,0E0,0E0,0E0,0E0,0E0,0E0,0E0,0E0,0E0,0E0,0E0,0E0],"parents":[2147483647,0,0,1,1,2,2,4,4,5,5,6,6,7,7,8,8,9,9,10,10,12,12,13,13,15,15,16,16,17,17,18,18,20,20,21,21,22,22],"right_children":[2,4,6,-1,8,10,12,14,16,18,20,-1,22,24,-1,26,28,30,32,-1,34,36,38,-1,-1,-1,-1,-1,-1,-1,-1,-1,-1,-1,-1,-1,-1,-1,-1],"split_conditions":[1.0027782E-1,-2.7974394E-1,1.647414E-1,-3.5319857E-3,9.121496E-1,-4.8183303E-2,-1.5837628E-1,4.2531367E-2,9.518733E-1,9.749887E-1,-8.034341E-2,4.1946913E-3,1.055039E0,3.4696456E-2,3.8026255E-3,1.0182437E0,5.3779297E-3,-7.4220315E-2,1.17535226E-1,2.2561415E-3,9.831584E-1,9.934066E-1,1.851219E-1,4.36133E-4,-2.203423E-3,-6.412212E-4,-5.0804485E-3,-3.619421E-4,-8.641285E-5,-9.1244315E-4,2.5062491E-3,-3.2707502E-3,-9.380132E-4,1.1494841E-3,2.3560919E-4,1.1034599E-3,4.3326776E-4,2.4088682E-3,1.1684145E-3],"split_indices":[0,4,0,0,2,6,4,0,2,3,4,0,2,0,0,3,0,4,0,0,3,3,0,0,0,0,0,0,0,0,0,0,0,0,0,0,0,0,0],"split_type":[0,0,0,0,0,0,0,0,0,0,0,0,0,0,0,0,0,0,0,0,0,0,0,0,0,0,0,0,0,0,0,0,0,0,0,0,0,0,0],"sum_hessian":[5.228E3,3.29E3,1.938E3,1.7E1,3.273E3,1.361E3,5.77E2,9.3E1,3.18E3,6.5E1,1.296E3,1E1,5.67E2,8.3E1,1E1,2.28E2,2.952E3,4.1E1,2.4E1,1.6E1,1.28E3,5.02E2,6.5E1,7.3E1,1E1,2.18E2,1E1,1.197E3,1.755E3,2.8E1,1.3E1,1.1E1,1.3E1,4.6E1,1.234E3,1.4E2,3.62E2,2.1E1,4.4E1],"tree_param":{"num_deleted":"0","num_feature":"7","num_nodes":"39","size_leaf_vector":"1"}},{"base_weights":[-1.9430132E-4,-1.0432471E-3,1.0938983E-3,-1.250188E-2,-9.282308E-4,1.2317279E-3,-6.342841E-3,-7.509579E-3,-5.3147464E-3,-1.261249E-3,-2.1012628E-4,-1.941379E-3,1.2924288E-3,-4.1716835E-3,7.694227E-4,8.885911E-4,-1.2971861E-3,1.913871E-3,-6.640521E-4,1.1972465E-3,6.7469887E-3,-1.841161E-3,-2.8119516E-4,2.8609612E-4,2.6738623E-3,-1.15168325E-4,-1.294324E-3,7.832576E-5,3.787365E-4,1.2130958E-3,2.1599643E-3],"categories":[],"categories_nodes":[],"categories_segments":[],"categories_sizes":[],"default_left":[0,0,0,0,0,0,0,0,0,0,0,0,0,0,0,0,0,0,0,0,0,0,0,0,0,0,0,0,0,0,0],"id":18,"left_children":[1,3,5,7,9,11,-1,13,-1,15,17,-1,19,-1,-1,-1,21,23,25,27,29,-1,-1,-1,-1,-1,-1,-1,-1,-1,-1],"loss_changes":[5.8476008E-3,4.2472812E-3,8.508626E-3,1.7430135E-3,7.6308683E-4,1.2567667E-3,0E0,2.615727E-3,0E0,4.0588435E-4,9.747904E-4,0E0,1.0905142E-3,0E0,0E0,0E0,8.457324E-4,1.1464842E-3,6.562002E-4,8.3159306E-4,1.3836438E-4,0E0,0E0,0E0,0E0,0E0,0E0,0E0,0E0,0E0,0E0],"parents":[2147483647,0,0,1,1,2,2,3,3,4,4,5,5,7,7,9,9,10,10,12,12,16,16,17,17,18,18,19,19,20,20],"right_children":[2,4,6,8,10,12,-1,14,-1,16,18,-1,20,-1,-1,-1,22,24,26,28,30,-1,-1,-1,-1,-1,-1,-1,-1,-1,-1],"split_conditions":[9.0503246E-2,-1.3194373E-1,1.1037798E0,-7.460204E-2,3.940978E-2,-2.109281E-1,-6.342841E-3,8.57474E-1,-5.3147464E-3,-2.7073767E-2,-2.4021555E-2,-1.941379E-3,1.0497866E0,-4.1716835E-3,7.694227E-4,8.885911E-4,-9.086498E-2,-2.5142135E-2,6.851654E-2,1.275391E-1,1.8844493E-1,-1.841161E-3,-2.8119516E-4,2.8609612E-4,2.6738623E-3,-1.15168325E-4,-1.294324E-3,7.832576E-5,3.787365E-4,1.2130958E-3,2.1599643E-3],"split_indices":[0,6,2,5,0,4,0,1,0,0,6,0,1,0,0,0,5,6,6,0,0,0,0,0,0,0,0,0,0,0,0],"split_type":[0,0,0,0,0,0,0,0,0,0,0,0,0,0,0,0,0,0,0,0,0,0,0,0,0,0,0,0,0,0,0],"sum_hessian":[5.347E3,3.223E3,2.124E3,3.2E1,3.191E3,2.114E3,1E1,2.2E1,1E1,2.18E3,1.011E3,1.3E1,2.101E3,1.1E1,1.1E1,1.5E1,2.165E3,1.78E2,8.33E2,2.065E3,3.6E1,1.8E1,2.147E3,1.67E2,1.1E1,8.08E2,2.5E1,7.37E2,1.328E3,2.4E1,1.2E1],"tree_param":{"num_deleted":"0","num_feature":"7","num_nodes":"31","size_leaf_vector":"1"}},{"base_weights":[4.8260983E-5,1.14540475E-4,-4.137375E-3,-6.871942E-4,1.0603821E-3,-6.190747E-3,-6.264387E-4,9.6954574E-4,2.82778E-3,4.992052E-4,-3.7117335E-3,1.3705565E-3,-6.6708133E-4,-6.5186378E-3,1.032814E-3,-4.065823E-3,-1.3718665E-4,-3.7879464E-3,8.34949E-4,2.2247448E-4,2.2084333E-3],"categories":[],"categories_nodes":[],"categories_segments":[],"categories_sizes":[],"default_left":[0,0,0,0,0,0,0,0,0,0,0,0,0,0,0,0,0,0,0,0,0],"id":19,"left_children":[1,3,-1,5,7,9,11,13,-1,-1,-1,-1,15,17,19,-1,-1,-1,-1,-1,-1],"loss_changes":[6.389E-3,3.9819507E-3,0E0,9.5012144E-4,2.4960071E-3,2.650578E-3,7.620561E-4,1.1324368E-3,0E0,0E0,0E0,0E0,2.9979968E-3,2.0820936E-3,1.0691844E-3,0E0,0E0,0E0,0E0,0E0,0E0],"parents":[2147483647,0,0,1,1,3,3,4,4,5,5,6,6,7,7,12,12,13,13,14,14],"right_children":[2,4,-1,6,8,10,12,14,-1,-1,-1,-1,16,18,20,-1,-1,-1,-1,-1,-1],"split_conditions":[1.00037515E-1,7.554548E-2,-4.137375E-3,9.3186533E-1,1.1746946E-1,-8.211038E-3,-2.109281E-1,9.1137826E-1,2.82778E-3,4.992052E-4,-3.7117335E-3,1.3705565E-3,9.1137826E-1,1.7454165E-1,6.757343E-2,-4.065823E-3,-1.3718665E-4,-3.7879464E-3,8.34949E-4,2.2247448E-4,2.2084333E-3],"split_indices":[5,0,0,3,4,0,4,1,0,0,0,0,1,0,5,0,0,0,0,0,0],"split_type":[0,0,0,0,0,0,0,0,0,0,0,0,0,0,0,0,0,0,0,0,0],"sum_hessian":[5.27E3,5.251E3,1.9E1,2.842E3,2.409E3,3.1E1,2.811E3,2.39E3,1.9E1,1.7E1,1.4E1,1.7E1,2.794E3,2E1,2.37E3,1E1,2.784E3,1E1,1E1,2.356E3,1.4E1],"tree_param":{"num_deleted":"0","num_feature":"7","num_nodes":"21","size_leaf_vector":"1"}},{"base_weights":[4.9114005E-5,-4.1082135E-4,1.1948256E-3,5.182855E-3,-4.7110504E-4,3.1378048E-3,1.0931081E-3,-8.296139E-4,9.942595E-3,-3.3317239E-3,-4.1719244E-4,9.487136E-4,7.29192E-3,4.9688024E-3,-4.6350446E-4,-1.0148288E-3,-2.897015E-5,-1.8465837E-3,1.0115223E-3,5.132616E-3,2.546767E-3,-2.561614E-4,1.3897541E-3,-2.0848745E-3,3.696268E-6,1.9216111E-4,8.13021E-4,1.5656704E-3,6.789428E-4],"categories":[],"categories_nodes":[],"categories_segments":[],"categories_sizes":[],"default_left":[0,0,0,0,0,0,0,0,0,0,0,0,0,0,0,0,0,0,0,0,0,0,0,0,0,0,0,0,0],"id":20,"left_children":[1,3,5,7,9,-1,11,-1,13,-1,15,17,19,-1,-1,21,23,-1,25,27,-1,-1,-1,-1,-1,-1,-1,-1,-1],"loss_changes":[2.772336E-3,1.2659054E-3,1.9371919E-3,1.6853783E-3,2.8469425E-3,0E0,1.3378952E-3,0E0,3.7345872E-3,0E0,8.584537E-4,8.343876E-4,2.8762233E-4,0E0,0E0,1.1936566E-3,9.3058986E-4,0E0,6.130551E-4,8.2789804E-5,0E0,0E0,0E0,0E0,0E0,0E0,0E0,0E0,0E0],"parents":[2147483647,0,0,1,1,2,2,3,3,4,4,6,6,8,8,10,10,11,11,12,12,15,15,16,16,18,18,19,19],"right_children":[2,4,6,8,10,-1,12,-1,14,-1,16,18,20,-1,-1,22,24,-1,26,28,-1,-1,-1,-1,-1,-1,-1,-1,-1],"split_conditions":[1.1836298E-1,-1.0510177E-1,-9.086498E-2,-1.8197354E-2,8.984566E-1,3.1378048E-3,7.133953E-2,-8.296139E-4,-2.109281E-1,-3.3317239E-3,9.505288E-3,9.276208E-1,9.567362E-2,4.9688024E-3,-4.6350446E-4,1.0457395E0,-1.1667406E-1,-1.8465837E-3,6.559707E-2,6.1577693E-2,2.546767E-3,-2.561614E-4,1.3897541E-3,-2.0848745E-3,3.696268E-6,1.9216111E-4,8.13021E-4,1.5656704E-3,6.789428E-4],"split_indices":[0,5,5,0,1,0,6,0,4,0,0,1,6,0,0,3,6,0,4,5,0,0,0,0,0,0,0,0,0],"split_type":[0,0,0,0,0,0,0,0,0,0,0,0,0,0,0,0,0,0,0,0,0,0,0,0,0,0,0,0,0],"sum_hessian":[5.261E3,3.754E3,1.507E3,4E1,3.714E3,1.2E1,1.495E3,1.4E1,2.6E1,1.4E1,3.7E3,1.461E3,3.4E1,1.3E1,1.3E1,1.457E3,2.243E3,1E1,1.451E3,2.2E1,1.2E1,1.434E3,2.3E1,1.1E1,2.232E3,1.364E3,8.7E1,1.2E1,1E1],"tree_param":{"num_deleted":"0","num_feature":"7","num_nodes":"29","size_leaf_vector":"1"}},{"base_weights":[-1.6763603E-4,3.821026E-3,-2.3194577E-4,-1.777599E-4,-1.2646664E-2,1.6129485E-3,-1.930282E-4,-5.208162E-3,-3.0873955E-4,-6.5863817E-3,-1.477454E-4,-2.9812395E-4,-3.6956763E-3,2.7638823E-3,-3.9419952E-5],"categories":[],"categories_nodes":[],"categories_segments":[],"categories_sizes":[],"default_left":[0,0,0,0,0,0,0,0,0,0,0,0,0,0,0],"id":21,"left_children":[1,-1,3,5,7,-1,9,-1,-1,11,13,-1,-1,-1,-1],"loss_changes":[5.8205132E-3,0E0,3.5644835E-3,5.87211E-4,2.6802213E-3,0E0,1.5241816E-3,0E0,0E0,1.89449E-3,1.6812156E-3,0E0,0E0,0E0,0E0],"parents":[2147483647,0,0,2,2,3,3,4,4,6,6,9,9,10,10],"right_children":[2,-1,4,6,8,-1,10,-1,-1,12,14,-1,-1,-1,-1],"split_conditions":[8.068664E-1,3.821026E-3,1.0626887E0,9.152346E-1,1.1746946E-1,1.6129485E-3,-1.1667406E-1,-5.208162E-3,-3.0873955E-4,-5.9349306E-2,9.1137826E-1,-2.9812395E-4,-3.6956763E-3,2.7638823E-3,-3.9419952E-5],"split_indices":[2,0,3,3,4,0,6,0,0,5,1,0,0,0,0],"split_type":[0,0,0,0,0,0,0,0,0,0,0,0,0,0,0],"sum_hessian":[5.319E3,2E1,5.299E3,5.276E3,2.3E1,1.1E1,5.265E3,1.2E1,1.1E1,3.7E1,5.228E3,2.4E1,1.3E1,1.1E1,5.217E3],"tree_param":{"num_deleted":"0","num_feature":"7","num_nodes":"15","size_leaf_vector":"1"}},{"base_weights":[3.8632337E-5,8.446129E-6,1.8817913E-3,-2.4328346E-4,8.3442894E-4,-4.4444012E-3,-1.9963365E-4,7.3485123E-4,2.4495001E-3,-1.4305034E-3,-3.120129E-3,5.7046814E-3,-2.2972976E-4,-2.0487995E-3,8.3340297E-4,-1.8272733E-3,2.827802E-3,3.7663244E-3,-1.1820288E-3,-1.9365386E-3,-4.3897588E-5,1.5234945E-3,1.5921408E-4],"categories":[],"categories_nodes":[],"categories_segments":[],"categories_sizes":[],"default_left":[0,0,0,0,0,0,0,0,0,0,0,0,0,0,0,0,0,0,0,0,0,0,0],"id":22,"left_children":[1,3,-1,5,7,9,11,13,-1,15,-1,17,19,-1,21,-1,-1,-1,-1,-1,-1,-1,-1],"loss_changes":[1.3025402E-3,1.0824706E-3,0E0,7.316145E-4,1.2064907E-3,1.1509336E-3,7.01712E-4,1.1592738E-3,0E0,2.8603787E-3,0E0,2.3859744E-3,1.1806814E-3,0E0,9.212482E-4,0E0,0E0,0E0,0E0,0E0,0E0,0E0,0E0],"parents":[2147483647,0,0,1,1,3,3,4,4,5,5,6,6,7,7,9,9,11,11,12,12,14,14],"right_children":[2,4,-1,6,8,10,12,14,-1,16,-1,18,20,-1,22,-1,-1,-1,-1,-1,-1,-1,-1],"split_conditions":[1.0626887E0,1.3688207E-1,1.8817913E-3,9.3186533E-1,1.107965E-1,2.7694348E-2,-9.086498E-2,-1.1667406E-1,2.4495001E-3,-2.5015327E-3,-3.120129E-3,1.1581319E-3,-1.5837628E-1,-2.0487995E-3,9.674567E-1,-1.8272733E-3,2.827802E-3,3.7663244E-3,-1.1820288E-3,-1.9365386E-3,-4.3897588E-5,1.5234945E-3,1.5921408E-4],"split_indices":[3,0,0,3,4,0,5,6,0,0,0,0,4,0,3,0,0,0,0,0,0,0,0],"split_type":[0,0,0,0,0,0,0,0,0,0,0,0,0,0,0,0,0,0,0,0,0,0,0],"sum_hessian":[5.225E3,5.206E3,1.9E1,3.99E3,1.216E3,4.1E1,3.949E3,1.204E3,1.2E1,3.1E1,1E1,2E1,3.929E3,1.2E1,1.192E3,2.1E1,1E1,1E1,1E1,1.7E1,3.912E3,2.6E1,1.166E3],"tree_param":{"num_deleted":"0","num_feature":"7","num_nodes":"23","size_leaf_vector":"1"}},{"base_weights":[4.8707978E-5,1.9027051E-3,1.577623E-5,-5.456318E-3,5.7213634E-5,-2.351926E-3,-3.3423E-3,4.3108836E-3,1.246588E-5,9.4165135E-4,-1.5168147E-3,2.6616042E-3,9.829536E-4,4.4490567E-5,-8.32001E-3,-1.643803E-3,1.3125557E-3,1.987057E-5,-5.339375E-4,-8.106537E-4,-2.957884E-3],"categories":[],"categories_nodes":[],"categories_segments":[],"categories_sizes":[],"default_left":[0,0,0,0,0,0,0,0,0,0,0,0,0,0,0,0,0,0,0,0,0],"id":23,"left_children":[1,-1,3,5,7,9,-1,11,13,-1,-1,-1,15,17,19,-1,-1,-1,-1,-1,-1],"loss_changes":[1.468661E-3,0E0,1.2076297E-3,1.1521688E-3,1.0061108E-3,8.476161E-4,0E0,1.3592945E-3,1.3958031E-3,0E0,0E0,0E0,1.5049515E-3,5.39074E-4,4.4739922E-4,0E0,0E0,0E0,0E0,0E0,0E0],"parents":[2147483647,0,0,2,2,3,3,4,4,5,5,7,7,8,8,12,12,13,13,14,14],"right_children":[2,-1,4,6,8,10,-1,12,14,-1,-1,-1,16,18,20,-1,-1,-1,-1,-1,-1],"split_conditions":[9.152346E-1,1.9027051E-3,9.1137826E-1,-5.9349306E-2,-1.3218257E-1,-1.3194373E-1,-3.3423E-3,9.662781E-1,1.00037515E-1,9.4165135E-4,-1.5168147E-3,2.6616042E-3,-1.90798E-2,5.815898E-2,1.0537838E0,-1.643803E-3,1.3125557E-3,1.987057E-5,-5.339375E-4,-8.106537E-4,-2.957884E-3],"split_indices":[3,0,1,5,4,6,0,3,5,0,0,0,5,5,2,0,0,0,0,0,0],"split_type":[0,0,0,0,0,0,0,0,0,0,0,0,0,0,0,0,0,0,0,0,0],"sum_hessian":[5.347E3,2.1E1,5.326E3,4E1,5.286E3,3E1,1E1,5.5E1,5.231E3,1.2E1,1.8E1,1.7E1,3.8E1,5.211E3,2E1,1.4E1,2.4E1,5.119E3,9.2E1,1E1,1E1],"tree_param":{"num_deleted":"0","num_feature":"7","num_nodes":"21","size_leaf_vector":"1"}},{"base_weights":[-4.768571E-5,-3.725363E-4,7.360741E-4,-4.1635847E-4,4.6710637E-3,-1.9181286E-3,8.548776E-4,-3.413601E-4,-2.9002375E-3,2.0989727E-3,2.5782497E-3,-3.2987442E-5,-2.5672675E-3,5.254805E-3,6.421274E-4,-2.9227538E-3,-2.6864104E-4,-1.4887459E-3,-3.78536E-3,-4.559323E-4,1.6241544E-3,4.511416E-3,-3.0640808E-3,3.7678287E-3,2.3795003E-3,1.0437892E-3,-4.092887E-5,-4.5350922E-4,-2.3132388E-3,1.417853E-3,-7.034461E-5,-1.0768537E-3,1.9430555E-4,-4.6391168E-4,2.2608137E-3,-1.7002053E-3,-3.9948744E-5,1.8122856E-3,4.753678E-4,1.92255E-4,8.953197E-4,-1.6454246E-3,2.6087177E-5],"categories":[],"categories_nodes":[],"categories_segments":[],"categories_sizes":[],"default_left":[0,0,0,0,0,0,0,0,0,0,0,0,0,0,0,0,0,0,0,0,0,0,0,0,0,0,0,0,0,0,0,0,0,0,0,0,0,0,0,0,0,0,0],"id":24,"left_children":[1,3,5,7,9,11,13,15,17,-1,19,21,-1,23,25,27,29,31,-1,-1,-1,33,35,37,-1,39,41,-1,-1,-1,-1,-1,-1,-1,-1,-1,-1,-1,-1,-1,-1,-1,-1],"loss_changes":[1.3389775E-3,8.2177465E-4,4.8596313E-4,6.866005E-4,3.06501E-4,1.170133E-3,1.3806035E-3,6.7160313E-4,2.1019685E-3,0E0,4.6367437E-4,7.5832166E-4,0E0,5.285804E-4,3.8603932E-4,6.578114E-4,9.4247214E-4,7.495801E-4,0E0,0E0,0E0,7.888194E-4,4.2268223E-4,3.7383317E-4,0E0,5.043464E-4,5.863136E-4,0E0,0E0,0E0,0E0,0E0,0E0,0E0,0E0,0E0,0E0,0E0,0E0,0E0,0E0,0E0,0E0],"parents":[2147483647,0,0,1,1,2,2,3,3,4,4,5,5,6,6,7,7,8,8,10,10,11,11,13,13,14,14,15,15,16,16,17,17,21,21,22,22,23,23,25,25,26,26],"right_children":[2,4,6,8,10,12,14,16,18,-1,20,22,-1,24,26,28,30,32,-1,-1,-1,34,36,38,-1,40,42,-1,-1,-1,-1,-1,-1,-1,-1,-1,-1,-1,-1,-1,-1,-1,-1],"split_conditions":[1.16557285E-1,1.0718365E-1,9.563759E-1,1.0334961E0,1.0613782E0,1.9412725E-1,9.729152E-1,-1.0648369E-2,4.8904642E-2,2.0989727E-3,4.3668146E-3,-8.952674E-2,-2.5672675E-3,9.9136686E-1,1.0059377E0,4.480389E-2,-1.3194373E-1,1.0634115E0,-3.78536E-3,-4.559323E-4,1.6241544E-3,-1.0667997E-1,1.6983809E-1,1.3985509E-1,2.3795003E-3,4.730797E-2,-2.1262297E-2,-4.5350922E-4,-2.3132388E-3,1.417853E-3,-7.034461E-5,-1.0768537E-3,1.9430555E-4,-4.6391168E-4,2.2608137E-3,-1.7002053E-3,-3.9948744E-5,1.8122856E-3,4.753678E-4,1.92255E-4,8.953197E-4,-1.6454246E-3,2.6087177E-5],"split_indices":[0,6,1,3,2,0,1,0,0,0,0,6,0,3,3,6,6,2,0,0,0,6,0,0,0,4,6,0,0,0,0,0,0,0,0,0,0,0,0,0,0,0,0],"split_type":[0,0,0,0,0,0,0,0,0,0,0,0,0,0,0,0,0,0,0,0,0,0,0,0,0,0,0,0,0,0,0,0,0,0,0,0,0,0,0,0,0,0,0],"sum_hessian":[5.259E3,3.718E3,1.541E3,3.686E3,3.2E1,6.6E1,1.475E3,3.578E3,1.08E2,1E1,2.2E1,5.5E1,1.1E1,6.8E1,1.407E3,9.8E1,3.48E3,9.8E1,1E1,1.1E1,1.1E1,2.2E1,3.3E1,5.3E1,1.5E1,8.86E2,5.21E2,8.7E1,1.1E1,2.2E1,3.458E3,4.1E1,5.7E1,1E1,1.2E1,1.3E1,2E1,1.5E1,3.8E1,8.3E2,5.6E1,1.1E1,5.1E2],"tree_param":{"num_deleted":"0","num_feature":"7","num_nodes":"43","size_leaf_vector":"1"}},{"base_weights":[5.0330935E-5,1.0585502E-2,4.235509E-6,3.3521577E-4,5.077522E-3,-5.34238E-3,3.2861466E-5,5.064062E-4,-4.2973277E-3,-1.4823102E-5,3.0285756E-3,2.8120587E-4,-4.8844184E-4,1.8862534E-3,2.2062557E-3,5.317609E-5,1.6513577E-3,-1.7924965E-3,-9.87848E-5,-4.3008802E-4,8.653131E-4],"categories":[],"categories_nodes":[],"categories_segments":[],"categories_sizes":[],"default_left":[0,0,0,0,0,0,0,0,0,0,0,0,0,0,0,0,0,0,0,0,0],"id":25,"left_children":[1,3,5,-1,-1,7,9,-1,-1,11,13,15,17,-1,19,-1,-1,-1,-1,-1,-1],"loss_changes":[2.566914E-3,2.4741753E-3,8.054702E-4,0E0,0E0,2.8900267E-3,7.4785034E-4,0E0,0E0,7.224851E-4,3.5613705E-4,1.0372533E-3,7.7677524E-4,0E0,4.69141E-4,0E0,0E0,0E0,0E0,0E0,0E0],"parents":[2147483647,0,0,1,1,2,2,5,5,6,6,9,9,10,10,11,11,12,12,14,14],"right_children":[2,4,6,-1,-1,8,10,-1,-1,12,14,16,18,-1,20,-1,-1,-1,-1,-1,-1],"split_conditions":[9.152346E-1,3.770654E-4,8.504663E-1,3.3521577E-4,5.077522E-3,-7.38121E-2,1.0425069E0,5.064062E-4,-4.2973277E-3,1.0047847E0,9.629447E-1,4.800887E-2,-1.2278927E-2,1.8862534E-3,1.058208E0,5.317609E-5,1.6513577E-3,-1.7924965E-3,-9.87848E-5,-4.3008802E-4,8.653131E-4],"split_indices":[3,0,2,0,0,6,3,0,0,3,2,6,0,0,1,0,0,0,0,0,0],"split_type":[0,0,0,0,0,0,0,0,0,0,0,0,0,0,0,0,0,0,0,0,0],"sum_hessian":[5.286E3,2.3E1,5.263E3,1.3E1,1E1,2.8E1,5.235E3,1.8E1,1E1,5.153E3,8.2E1,3.171E3,1.982E3,1.1E1,7.1E1,3.15E3,2.1E1,1.4E1,1.968E3,2E1,5.1E1],"tree_param":{"num_deleted":"0","num_feature":"7","num_nodes":"21","size_leaf_vector":"1"}},{"base_weights":[3.2935386E-5,-3.20409E-3,7.6289994E-5,1.1689178E-4,-9.532519E-3,-3.535205E-4,4.6417507E-4,1.0108552E-3,-4.8023737E-3,-1.6323497E-4,-1.9946885E-3,-2.155972E-3,5.1102653E-4,1.3758984E-3,-5.0701452E-5,-1.404751E-4,-1.2269946E-3,1.0616067E-4,1.6331631E-3],"categories":[],"categories_nodes":[],"categories_segments":[],"categories_sizes":[],"default_left":[0,0,0,0,0,0,0,0,0,0,0,0,0,0,0,0,0,0,0],"id":26,"left_children":[1,-1,3,5,7,9,11,-1,-1,13,15,-1,17,-1,-1,-1,-1,-1,-1],"loss_changes":[3.2237237E-3,0E0,2.042305E-3,8.516386E-4,3.5904348E-3,6.9139013E-4,1.4010081E-3,0E0,0E0,7.456555E-4,1.0803782E-3,0E0,8.5706013E-4,0E0,0E0,0E0,0E0,0E0,0E0],"parents":[2147483647,0,0,2,2,3,3,4,4,5,5,6,6,9,9,10,10,12,12],"right_children":[2,-1,4,6,8,10,12,-1,-1,14,16,-1,18,-1,-1,-1,-1,-1,-1],"split_conditions":[8.57474E-1,-3.20409E-3,1.0626887E0,3.9584268E-2,9.303641E-2,1.0211489E0,9.1137826E-1,1.0108552E-3,-4.8023737E-3,-1.3194373E-1,9.505288E-3,-2.155972E-3,8.784465E-2,1.3758984E-3,-5.0701452E-5,-1.404751E-4,-1.2269946E-3,1.0616067E-4,1.6331631E-3],"split_indices":[1,0,3,0,0,3,1,0,0,6,0,0,6,0,0,0,0,0,0],"split_type":[0,0,0,0,0,0,0,0,0,0,0,0,0,0,0,0,0,0,0],"sum_hessian":[5.251E3,1.6E1,5.235E3,5.213E3,2.2E1,2.214E3,2.999E3,1E1,1.2E1,1.984E3,2.3E2,1.4E1,2.985E3,1.9E1,1.965E3,1.64E2,6.6E1,2.966E3,1.9E1],"tree_param":{"num_deleted":"0","num_feature":"7","num_nodes":"19","size_leaf_vector":"1"}},{"base_weights":[-5.0032068E-5,-9.175522E-6,-1.0396447E-2,2.6434558E-3,-4.4391694E-5,8.9757843E-4,-5.9317974E-3,-1.9134485E-4,1.0238284E-3,-2.2440266E-3,-1.5581131E-4,2.0099913E-3,8.359081E-4,1.443906E-3,-4.4306395E-5,-1.415164E-3,2.507465E-4],"categories":[],"categories_nodes":[],"categories_segments":[],"categories_sizes":[],"default_left":[0,0,0,0,0,0,0,0,0,0,0,0,0,0,0,0,0],"id":27,"left_children":[1,3,5,-1,7,-1,-1,9,11,-1,13,-1,15,-1,-1,-1,-1],"loss_changes":[2.2597627E-3,2.187434E-3,4.7594067E-3,0E0,8.333993E-4,0E0,0E0,1.6090351E-3,9.454791E-4,0E0,1.1995848E-3,0E0,1.1968494E-3,0E0,0E0,0E0,0E0],"parents":[2147483647,0,0,1,1,2,2,4,4,7,7,8,8,10,10,12,12],"right_children":[2,4,6,-1,8,-1,-1,10,12,-1,14,-1,16,-1,-1,-1,-1],"split_conditions":[1.00037515E-1,-1.7799851E-1,4.3652527E-2,2.6434558E-3,1.6036107E-1,8.9757843E-4,-5.9317974E-3,-2.109281E-1,-9.591836E-2,-2.2440266E-3,-1.4319862E-1,2.0099913E-3,9.172532E-1,1.443906E-3,-4.4306395E-5,-1.415164E-3,2.507465E-4],"split_indices":[5,6,0,0,0,0,0,4,6,0,4,0,2,0,0,0,0],"split_type":[0,0,0,0,0,0,0,0,0,0,0,0,0,0,0,0,0],"sum_hessian":[5.346E3,5.325E3,2.1E1,1.6E1,5.309E3,1.1E1,1E1,4.667E3,6.42E2,1.7E1,4.65E3,1.5E1,6.27E2,2.8E1,4.622E3,2.3E1,6.04E2],"tree_param":{"num_deleted":"0","num_feature":"7","num_nodes":"17","size_leaf_vector":"1"}}]},"name":"gbtree"},"learner_model_param":{"base_score":"[7.238314E-2]","boost_from_average":"1","num_class":"0","num_feature":"7","num_target":"1"},"objective":{"name":"reg:squarederror","reg_loss_param":{"scale_pos_weight":"1"}}},"version":[3,2,0]}